{"learner":{"attributes":{"scikit_learn":"{\"_estimator_type\": \"regressor\"}"},"feature_names":[],"feature_types":[],"gradient_booster":{"model":{"cats":{"enc":[],"feature_segments":[],"sorted_idx":[]},"gbtree_model_param":{"num_parallel_tree":"1","num_trees":"200"},"iteration_indptr":[0,1,2,3,4,5,6,7,8,9,10,11,12,13,14,15,16,17,18,19,20,21,22,23,24,25,26,27,28,29,30,31,32,33,34,35,36,37,38,39,40,41,42,43,44,45,46,47,48,49,50,51,52,53,54,55,56,57,58,59,60,61,62,63,64,65,66,67,68,69,70,71,72,73,74,75,76,77,78,79,80,81,82,83,84,85,86,87,88,89,90,91,92,93,94,95,96,97,98,99,100,101,102,103,104,105,106,107,108,109,110,111,112,113,114,115,116,117,118,119,120,121,122,123,124,125,126,127,128,129,130,131,132,133,134,135,136,137,138,139,140,141,142,143,144,145,146,147,148,149,150,151,152,153,154,155,156,157,158,159,160,161,162,163,164,165,166,167,168,169,170,171,172,173,174,175,176,177,178,179,180,181,182,183,184,185,186,187,188,189,190,191,192,193,194,195,196,197,198,199,200],"tree_info":[0,0,0,0,0,0,0,0,0,0,0,0,0,0,0,0,0,0,0,0,0,0,0,0,0,0,0,0,0,0,0,0,0,0,0,0,0,0,0,0,0,0,0,0,0,0,0,0,0,0,0,0,0,0,0,0,0,0,0,0,0,0,0,0,0,0,0,0,0,0,0,0,0,0,0,0,0,0,0,0,0,0,0,0,0,0,0,0,0,0,0,0,0,0,0,0,0,0,0,0,0,0,0,0,0,0,0,0,0,0,0,0,0,0,0,0,0,0,0,0,0,0,0,0,0,0,0,0,0,0,0,0,0,0,0,0,0,0,0,0,0,0,0,0,0,0,0,0,0,0,0,0,0,0,0,0,0,0,0,0,0,0,0,0,0,0,0,0,0,0,0,0,0,0,0,0,0,0,0,0,0,0,0,0,0,0,0,0,0,0,0,0,0,0,0,0,0,0,0,0],"trees":[{"base_weights":[4.2133324E-4,-7.6391625E0,7.8275375E0,-1.1191983E1,-3.676281E0,3.317019E0,1.0952094E1,-1.3082909E1,-9.216701E0,-5.048728E0,-1.613156E0,1.5996268E0,4.822342E0,9.020874E0,1.3354998E1,-1.3803262E1,-1.001531E1,-9.861068E0,-6.2422504E0,-5.8105865E0,-1.9826266E0,-2.2825434E0,1.5967301E0,8.240063E-1,4.4366436E0,4.039735E0,7.8910804E0,8.29114E0,1.1980375E1,1.2986148E1,1.7829379E0,-1.5023315E1,-1.2964849E1,-1.1064995E1,-8.497991E0,-1.0181091E1,-7.03092E0,-7.3577127E0,-4.1726274E0,-7.089633E0,-4.9439893E0,-2.8945222E0,-5.289644E-1,-2.5781977E0,4.349276E-1,1.959455E-1,3.3987503E0,5.194708E-1,3.377825E0,3.4011052E0,5.9281573E0,2.9682221E0,5.194028E0,6.641085E0,9.795693E0,6.93072E0,9.076238E0,1.0939831E1,1.3601474E1,1.1394541E1,1.3791848E1,-1.5402714E0,-1.1751431E0,-1.3247079E0,-1.0510703E0,-1.1515115E0,-7.440783E-1,-9.3943167E-1,-6.2472975E-1,-1.1158406E0,-9.434293E-1,-7.803127E-1,-5.507398E-1,-8.7292784E-1,-6.4729506E-1,-4.6630785E-1,-1.19374774E-1,-7.365437E-1,-4.6810037E-1,-5.246479E-1,-2.1766941E-1,-4.525693E-1,-1.9717002E-1,-1.9924839E-1,8.826279E-3,-3.2644424E-1,-1.6844553E-1,-7.072859E-2,1.3911161E-1,-1.04820905E-2,2.9184428E-1,3.133869E-1,5.323965E-1,-7.002583E-2,1.0730522E-1,2.5370473E-1,3.936092E-1,3.0832964E-1,6.1426574E-1,5.1892406E-1,7.696825E-1,2.6391977E-1,5.877161E-1,4.861978E-1,7.709014E-1,5.3971475E-1,7.683886E-1,8.8734734E-1,1.0877808E0,6.624084E-1,9.605034E-1,8.7768763E-1,1.1812824E0,9.7159386E-1,1.2396914E0,1.1856769E0,1.4305177E0,1.1115139E0,1.3922542E0,1.3481306E0,1.6317236E0],"categories":[],"categories_nodes":[],"categories_segments":[],"categories_sizes":[],"default_left":[0,0,0,0,0,0,0,0,0,0,0,0,0,0,0,0,0,0,0,0,0,0,0,0,0,0,0,0,0,0,0,0,0,0,0,0,0,0,0,0,0,0,0,0,0,0,0,0,0,0,0,0,0,0,0,0,0,0,0,0,0,0,0,0,0,0,0,0,0,0,0,0,0,0,0,0,0,0,0,0,0,0,0,0,0,0,0,0,0,0,0,0,0,0,0,0,0,0,0,0,0,0,0,0,0,0,0,0,0,0,0,0,0,0,0,0,0,0,0,0,0],"id":0,"left_children":[1,3,5,7,9,11,13,15,17,19,21,23,25,27,29,31,33,35,37,39,41,43,45,47,49,51,53,55,57,59,-1,61,63,65,67,69,71,73,75,77,79,81,83,85,87,89,91,93,95,97,99,101,103,105,107,109,111,113,115,117,119,-1,-1,-1,-1,-1,-1,-1,-1,-1,-1,-1,-1,-1,-1,-1,-1,-1,-1,-1,-1,-1,-1,-1,-1,-1,-1,-1,-1,-1,-1,-1,-1,-1,-1,-1,-1,-1,-1,-1,-1,-1,-1,-1,-1,-1,-1,-1,-1,-1,-1,-1,-1,-1,-1,-1,-1,-1,-1,-1,-1],"loss_changes":[1.6718339E6,1.9916838E5,1.9459306E5,2.7743312E4,1.8934797E4,1.4606598E4,3.7737E4,8.27875E3,6.9380312E3,9.37193E3,5.7491543E3,5.809928E3,7.201789E3,9.67525E3,5.7643125E3,2.9578125E3,1.0654531E3,2.6455625E3,1.4768086E3,3.5307344E3,1.0602651E3,1.7791162E3,1.1655339E3,1.6128097E3,8.555801E2,2.9554727E3,1.3895859E3,3.8184375E3,1.3575469E3,4.151625E3,0E0,1.3694375E3,1.1310625E3,6.1089844E2,5.505508E2,1.8602188E3,3.1937988E2,4.5681055E2,3.3192285E2,8.271289E2,1.5966055E3,7.316748E2,2.802063E2,1.2187002E3,2.3907729E2,2.1402205E2,8.632593E1,1.2539584E3,9.374658E1,2.7468457E2,2.619536E2,1.1789658E3,9.270625E2,4.4108008E2,1.4298438E2,1.0303125E3,1.7813594E3,8.5858594E2,2.5396484E2,6.469219E2,1.5257188E3,0E0,0E0,0E0,0E0,0E0,0E0,0E0,0E0,0E0,0E0,0E0,0E0,0E0,0E0,0E0,0E0,0E0,0E0,0E0,0E0,0E0,0E0,0E0,0E0,0E0,0E0,0E0,0E0,0E0,0E0,0E0,0E0,0E0,0E0,0E0,0E0,0E0,0E0,0E0,0E0,0E0,0E0,0E0,0E0,0E0,0E0,0E0,0E0,0E0,0E0,0E0,0E0,0E0,0E0,0E0,0E0,0E0,0E0,0E0,0E0],"parents":[2147483647,0,0,1,1,2,2,3,3,4,4,5,5,6,6,7,7,8,8,9,9,10,10,11,11,12,12,13,13,14,14,15,15,16,16,17,17,18,18,19,19,20,20,21,21,22,22,23,23,24,24,25,25,26,26,27,27,28,28,29,29,31,31,32,32,33,33,34,34,35,35,36,36,37,37,38,38,39,39,40,40,41,41,42,42,43,43,44,44,45,45,46,46,47,47,48,48,49,49,50,50,51,51,52,52,53,53,54,54,55,55,56,56,57,57,58,58,59,59,60,60],"right_children":[2,4,6,8,10,12,14,16,18,20,22,24,26,28,30,32,34,36,38,40,42,44,46,48,50,52,54,56,58,60,-1,62,64,66,68,70,72,74,76,78,80,82,84,86,88,90,92,94,96,98,100,102,104,106,108,110,112,114,116,118,120,-1,-1,-1,-1,-1,-1,-1,-1,-1,-1,-1,-1,-1,-1,-1,-1,-1,-1,-1,-1,-1,-1,-1,-1,-1,-1,-1,-1,-1,-1,-1,-1,-1,-1,-1,-1,-1,-1,-1,-1,-1,-1,-1,-1,-1,-1,-1,-1,-1,-1,-1,-1,-1,-1,-1,-1,-1,-1,-1,-1],"split_conditions":[9.90731E0,2.8239162E0,1.6980774E1,-1.0362862E0,6.8622303E0,1.299916E1,2.1155148E1,5.03252E3,5.1333E3,5.03252E3,5.42494E3,5.03252E3,4.94902E3,4.94902E3,9.91715E3,-3.570706E0,9.91715E3,6E1,1.060618E4,4.763221E0,9.91715E3,6E1,1.026593E4,6E1,9.91715E3,1.49158325E1,9.91715E3,1.8691141E1,9.91715E3,2.3028795E1,1.7829379E0,6E1,6E1,6E1,-2.6145034E0,5.901794E-1,1.3007843E0,5.713219E-1,6E1,6E1,6E1,4.6297297E0,4.2849646E0,8.510795E0,8.187533E0,6E1,6E1,1.1206451E1,1.1577282E1,6E1,1.2032379E1,6E1,6E1,1.4597518E1,1.49158325E1,6E1,6E1,1.9442093E1,1.8322979E1,6E1,6E1,-1.5402714E0,-1.1751431E0,-1.3247079E0,-1.0510703E0,-1.1515115E0,-7.440783E-1,-9.3943167E-1,-6.2472975E-1,-1.1158406E0,-9.434293E-1,-7.803127E-1,-5.507398E-1,-8.7292784E-1,-6.4729506E-1,-4.6630785E-1,-1.19374774E-1,-7.365437E-1,-4.6810037E-1,-5.246479E-1,-2.1766941E-1,-4.525693E-1,-1.9717002E-1,-1.9924839E-1,8.826279E-3,-3.2644424E-1,-1.6844553E-1,-7.072859E-2,1.3911161E-1,-1.04820905E-2,2.9184428E-1,3.133869E-1,5.323965E-1,-7.002583E-2,1.0730522E-1,2.5370473E-1,3.936092E-1,3.0832964E-1,6.1426574E-1,5.1892406E-1,7.696825E-1,2.6391977E-1,5.877161E-1,4.861978E-1,7.709014E-1,5.3971475E-1,7.683886E-1,8.8734734E-1,1.0877808E0,6.624084E-1,9.605034E-1,8.7768763E-1,1.1812824E0,9.7159386E-1,1.2396914E0,1.1856769E0,1.4305177E0,1.1115139E0,1.3922542E0,1.3481306E0,1.6317236E0],"split_indices":[3,3,3,3,3,3,3,0,0,0,0,0,0,0,0,3,0,1,0,3,0,1,0,1,0,3,0,3,0,3,0,1,1,1,3,3,3,3,1,1,1,3,3,3,3,1,1,3,3,1,3,1,1,3,3,1,1,3,3,1,1,0,0,0,0,0,0,0,0,0,0,0,0,0,0,0,0,0,0,0,0,0,0,0,0,0,0,0,0,0,0,0,0,0,0,0,0,0,0,0,0,0,0,0,0,0,0,0,0,0,0,0,0,0,0,0,0,0,0,0,0],"split_type":[0,0,0,0,0,0,0,0,0,0,0,0,0,0,0,0,0,0,0,0,0,0,0,0,0,0,0,0,0,0,0,0,0,0,0,0,0,0,0,0,0,0,0,0,0,0,0,0,0,0,0,0,0,0,0,0,0,0,0,0,0,0,0,0,0,0,0,0,0,0,0,0,0,0,0,0,0,0,0,0,0,0,0,0,0,0,0,0,0,0,0,0,0,0,0,0,0,0,0,0,0,0,0,0,0,0,0,0,0,0,0,0,0,0,0,0,0,0,0,0,0],"sum_hessian":[2.7957E4,1.4148E4,1.3809E4,7.459E3,6.689E3,5.652E3,8.157E3,3.808E3,3.651E3,4.016E3,2.673E3,2.641E3,3.011E3,4.525E3,3.632E3,3.081E3,7.27E2,2.999E3,6.52E2,3.216E3,8E2,2.212E3,4.61E2,2.075E3,5.66E2,2.401E3,6.1E2,3.633E3,8.92E2,3.359E3,2.73E2,1.248E3,1.833E3,4.26E2,3.01E2,2.692E3,3.07E2,4.22E2,2.3E2,1.296E3,1.92E3,4.91E2,3.09E2,1.995E3,2.17E2,2.6E2,2.01E2,1.855E3,2.2E2,3.36E2,2.3E2,1.247E3,1.154E3,3.71E2,2.39E2,1.333E3,2.3E3,5.48E2,3.44E2,1.134E3,2.225E3,1.115E3,1.33E2,1.64E3,1.93E2,3.77E2,4.9E1,2.13E2,8.8E1,1.16E3,1.532E3,2.01E2,1.06E2,1.62E2,2.6E2,1.97E2,3.3E1,1.161E3,1.35E2,1.73E3,1.9E2,1.76E2,3.15E2,9.1E1,2.18E2,1.127E3,8.68E2,9.9E1,1.18E2,2.35E2,2.5E1,1.79E2,2.2E1,5.79E2,1.276E3,9E1,1.3E2,3.03E2,3.3E1,1.65E2,6.5E1,1.122E3,1.25E2,1.022E3,1.32E2,1.72E2,1.99E2,1.34E2,1.05E2,1.199E3,1.34E2,2.077E3,2.23E2,3.02E2,2.46E2,1.04E2,2.4E2,1.026E3,1.08E2,1.987E3,2.38E2],"tree_param":{"num_deleted":"0","num_feature":"13","num_nodes":"121","size_leaf_vector":"1"}},{"base_weights":[1.6125424E-2,-6.891012E0,7.031279E0,-1.0575922E1,-3.7611737E0,3.3274257E0,1.0151399E1,-1.233081E1,-9.29882E0,-5.6131916E0,-2.074807E0,2.0914342E0,5.5067263E0,8.703879E0,1.2400033E1,-1.3007136E1,-9.454178E0,-9.861829E0,-6.77428E0,-6.2674956E0,-2.916301E0,-2.7233305E0,8.75254E-1,1.3821759E0,4.725393E0,4.8379717E0,8.179943E0,8.064413E0,1.1305977E1,1.1804847E1,1.4866722E1,-1.3332431E1,-1.0366449E0,-1.03309965E1,-8.193872E0,-1.0815297E1,-9.046755E0,-7.8149476E0,-5.1281314E0,-7.044598E0,-5.165276E0,-3.8021097E0,-1.5064136E0,-3.7932787E0,-1.6743765E0,-2.5767386E-1,2.222465E0,3.950698E-1,2.3225527E0,3.6862984E0,6.247957E0,4.5560975E0,7.303746E0,7.102583E0,9.648805E0,6.837349E0,8.765442E0,1.0215462E1,1.2919433E1,1.11406355E1,1.2640654E1,1.406335E1,1.6183233E0,-1.3719801E0,-1.2494718E0,-1.0665126E0,-7.547337E-1,-8.384423E-1,-5.2522326E-1,-1.108076E0,-8.499648E-1,-9.325778E-1,-6.597764E-1,-8.1105775E-1,-5.3610027E-1,-5.528135E-1,-1.7571688E-1,-7.3443687E-1,-4.516913E-1,-5.486915E-1,-2.5801972E-1,-4.7831908E-1,-2.8693214E-1,-2.2864543E-1,-3.262952E-2,-4.044256E-1,-1.3966684E-1,-1.9480287E-1,9.846719E-2,-8.9957334E-2,1.2224784E-1,7.6086104E-2,3.1143263E-1,1.1387012E-2,2.997268E-1,2.0293723E-1,4.6811557E-1,2.6832944E-1,4.7307253E-1,4.7879124E-1,7.560552E-1,3.8529268E-1,5.1094216E-1,3.9581773E-1,7.490355E-1,6.800701E-1,9.545288E-1,8.92801E-1,1.0644596E0,6.584737E-1,9.248145E-1,8.505556E-1,1.1047451E0,8.852887E-1,1.1166257E0,1.2380869E0,1.4271517E0,1.0881345E0,1.3498627E0,1.2415555E0,1.4539732E0,1.2451614E0,1.4624839E0],"categories":[],"categories_nodes":[],"categories_segments":[],"categories_sizes":[],"default_left":[0,0,0,0,0,0,0,0,0,0,0,0,0,0,0,0,0,0,0,0,0,0,0,0,0,0,0,0,0,0,0,0,0,0,0,0,0,0,0,0,0,0,0,0,0,0,0,0,0,0,0,0,0,0,0,0,0,0,0,0,0,0,0,0,0,0,0,0,0,0,0,0,0,0,0,0,0,0,0,0,0,0,0,0,0,0,0,0,0,0,0,0,0,0,0,0,0,0,0,0,0,0,0,0,0,0,0,0,0,0,0,0,0,0,0,0,0,0,0,0,0,0,0],"id":1,"left_children":[1,3,5,7,9,11,13,15,17,19,21,23,25,27,29,31,33,35,37,39,41,43,45,47,49,51,53,55,57,59,61,63,-1,65,67,69,71,73,75,77,79,81,83,85,87,89,91,93,95,97,99,101,103,105,107,109,111,113,115,117,119,121,-1,-1,-1,-1,-1,-1,-1,-1,-1,-1,-1,-1,-1,-1,-1,-1,-1,-1,-1,-1,-1,-1,-1,-1,-1,-1,-1,-1,-1,-1,-1,-1,-1,-1,-1,-1,-1,-1,-1,-1,-1,-1,-1,-1,-1,-1,-1,-1,-1,-1,-1,-1,-1,-1,-1,-1,-1,-1,-1,-1,-1],"loss_changes":[1.3552275E6,1.6249725E5,1.6032381E5,1.43901875E4,2.3793242E4,1.7082055E4,2.4405E4,5.1747188E3,5.2632188E3,6.3906953E3,7.6379004E3,7.561371E3,4.0650469E3,7.5380625E3,4.1510938E3,1.7532812E3,4.921914E2,2.2833438E3,1.1368184E3,2.466414E3,8.822339E2,3.6659004E3,1.0995037E3,2.9629907E3,1.3359824E3,1.2449023E3,6.5624805E2,3.1090625E3,1.4551016E3,1.1799062E3,3.7421094E2,4.6365625E2,0E0,2.0225781E2,7.871875E1,7.7071875E2,1.0714219E3,2.6048828E2,3.530044E2,1.2632969E3,9.935781E2,3.8527734E2,2.5332306E2,9.6816797E2,1.205458E3,3.7354242E2,4.2649768E2,1.1404371E3,1.1210967E3,5.2470703E2,6.288076E2,6.2346484E2,8.709766E1,1.3271191E2,4.2058594E1,7.5759375E2,1.2944062E3,6.046211E2,8.544922E1,6.6871875E2,2.66625E2,1.4459375E2,0E0,0E0,0E0,0E0,0E0,0E0,0E0,0E0,0E0,0E0,0E0,0E0,0E0,0E0,0E0,0E0,0E0,0E0,0E0,0E0,0E0,0E0,0E0,0E0,0E0,0E0,0E0,0E0,0E0,0E0,0E0,0E0,0E0,0E0,0E0,0E0,0E0,0E0,0E0,0E0,0E0,0E0,0E0,0E0,0E0,0E0,0E0,0E0,0E0,0E0,0E0,0E0,0E0,0E0,0E0,0E0,0E0,0E0,0E0,0E0,0E0],"parents":[2147483647,0,0,1,1,2,2,3,3,4,4,5,5,6,6,7,7,8,8,9,9,10,10,11,11,12,12,13,13,14,14,15,15,16,16,17,17,18,18,19,19,20,20,21,21,22,22,23,23,24,24,25,25,26,26,27,27,28,28,29,29,30,30,31,31,33,33,34,34,35,35,36,36,37,37,38,38,39,39,40,40,41,41,42,42,43,43,44,44,45,45,46,46,47,47,48,48,49,49,50,50,51,51,52,52,53,53,54,54,55,55,56,56,57,57,58,58,59,59,60,60,61,61],"right_children":[2,4,6,8,10,12,14,16,18,20,22,24,26,28,30,32,34,36,38,40,42,44,46,48,50,52,54,56,58,60,62,64,-1,66,68,70,72,74,76,78,80,82,84,86,88,90,92,94,96,98,100,102,104,106,108,110,112,114,116,118,120,122,-1,-1,-1,-1,-1,-1,-1,-1,-1,-1,-1,-1,-1,-1,-1,-1,-1,-1,-1,-1,-1,-1,-1,-1,-1,-1,-1,-1,-1,-1,-1,-1,-1,-1,-1,-1,-1,-1,-1,-1,-1,-1,-1,-1,-1,-1,-1,-1,-1,-1,-1,-1,-1,-1,-1,-1,-1,-1,-1,-1,-1],"split_conditions":[9.90731E0,1.7251308E0,1.7541624E1,-2.4853988E0,5.857083E0,1.4597518E1,2.1973476E1,1E0,1E0,1E0,5.31795E3,1E0,1E0,5.03252E3,1E0,6E1,9.91715E3,-3.257469E-1,9.91715E3,4.2849646E0,9.91715E3,7.6505404E0,9.91715E3,1.2251411E1,9.91715E3,6E1,9.6146E3,1.9088192E1,9.91715E3,2.403919E1,1.026593E4,-3.2881117E0,-1.0366449E0,6E1,-2.6145034E0,6E1,6E1,6E1,6E1,6E1,6E1,3.749861E0,4.2849646E0,6E1,6E1,8.487637E0,7.399052E0,6E1,6E1,1.2308083E1,1.2032379E1,1.601695E1,5.96E2,6E1,1.6922E1,6E1,6E1,1.9535278E1,2.070615E1,6E1,6E1,2.3453484E1,1.6183233E0,-1.3719801E0,-1.2494718E0,-1.0665126E0,-7.547337E-1,-8.384423E-1,-5.2522326E-1,-1.108076E0,-8.499648E-1,-9.325778E-1,-6.597764E-1,-8.1105775E-1,-5.3610027E-1,-5.528135E-1,-1.7571688E-1,-7.3443687E-1,-4.516913E-1,-5.486915E-1,-2.5801972E-1,-4.7831908E-1,-2.8693214E-1,-2.2864543E-1,-3.262952E-2,-4.044256E-1,-1.3966684E-1,-1.9480287E-1,9.846719E-2,-8.9957334E-2,1.2224784E-1,7.6086104E-2,3.1143263E-1,1.1387012E-2,2.997268E-1,2.0293723E-1,4.6811557E-1,2.6832944E-1,4.7307253E-1,4.7879124E-1,7.560552E-1,3.8529268E-1,5.1094216E-1,3.9581773E-1,7.490355E-1,6.800701E-1,9.545288E-1,8.92801E-1,1.0644596E0,6.584737E-1,9.248145E-1,8.505556E-1,1.1047451E0,8.852887E-1,1.1166257E0,1.2380869E0,1.4271517E0,1.0881345E0,1.3498627E0,1.2415555E0,1.4539732E0,1.2451614E0,1.4624839E0],"split_indices":[3,3,3,3,3,3,3,10,10,10,0,10,10,0,10,1,0,3,0,3,0,3,0,3,0,1,0,3,0,3,0,3,0,1,3,1,1,1,1,1,1,3,3,1,1,3,3,1,1,3,3,3,2,1,3,1,1,3,3,1,1,3,0,0,0,0,0,0,0,0,0,0,0,0,0,0,0,0,0,0,0,0,0,0,0,0,0,0,0,0,0,0,0,0,0,0,0,0,0,0,0,0,0,0,0,0,0,0,0,0,0,0,0,0,0,0,0,0,0,0,0,0,0],"split_type":[0,0,0,0,0,0,0,0,0,0,0,0,0,0,0,0,0,0,0,0,0,0,0,0,0,0,0,0,0,0,0,0,0,0,0,0,0,0,0,0,0,0,0,0,0,0,0,0,0,0,0,0,0,0,0,0,0,0,0,0,0,0,0,0,0,0,0,0,0,0,0,0,0,0,0,0,0,0,0,0,0,0,0,0,0,0,0,0,0,0,0,0,0,0,0,0,0,0,0,0,0,0,0,0,0,0,0,0,0,0,0,0,0,0,0,0,0,0,0,0,0,0,0],"sum_hessian":[2.7967E4,1.4092E4,1.3875E4,6.471E3,7.621E3,6.345E3,7.53E3,2.722E3,3.749E3,3.631E3,3.99E3,4.05E3,2.295E3,4.584E3,2.946E3,2.201E3,5.21E2,3.063E3,6.86E2,2.921E3,7.1E2,3.271E3,7.19E2,3.192E3,8.58E2,1.838E3,4.57E2,3.683E3,9.01E2,2.378E3,5.68E2,1.956E3,2.45E2,3.03E2,2.18E2,1.406E3,1.657E3,4.18E2,2.68E2,1.71E3,1.211E3,4.35E2,2.75E2,1.618E3,1.653E3,3.91E2,3.28E2,1.558E3,1.634E3,5.12E2,3.46E2,1.652E3,1.86E2,2.67E2,1.9E2,1.343E3,2.34E3,5.42E2,3.59E2,1.333E3,1.045E3,3.6E2,2.08E2,1.327E3,6.29E2,2.68E2,3.5E1,2.03E2,1.5E1,1.258E3,1.48E2,1.485E3,1.72E2,3.71E2,4.7E1,2.39E2,2.9E1,1.527E3,1.83E2,1.076E3,1.35E2,2.1E2,2.25E2,1.65E2,1.1E2,1.464E3,1.54E2,1.499E3,1.54E2,2.73E2,1.18E2,1.25E2,2.03E2,1.407E3,1.51E2,1.455E3,1.79E2,2.63E2,2.49E2,1.66E2,1.8E2,7.31E2,9.21E2,1.1E1,1.75E2,2.41E2,2.6E1,1.16E2,7.4E1,1.219E3,1.24E2,2.105E3,2.35E2,2.27E2,3.15E2,2.64E2,9.5E1,1.206E3,1.27E2,9.41E2,1.04E2,9.9E1,2.61E2],"tree_param":{"num_deleted":"0","num_feature":"13","num_nodes":"123","size_leaf_vector":"1"}},{"base_weights":[-1.0252329E-2,-6.266436E-1,2.4920526E0,2.5184786E-1,-1.4966527E0,1.6539422E0,3.8913465E0,-1.0253465E-2,2.6180758E0,-4.5981445E0,-9.164773E-1,2.5433407E0,7.1326596E-1,3.5510728E0,6.9154706E0,-6.383488E-1,9.254289E-1,1.4859946E0,3.3189223E0,-3.9859173E0,-7.569047E0,-1.3726726E0,2.739006E-1,1.5080229E0,4.065378E0,-1.1823566E0,1.8633684E0,3.710578E0,-1.9059233E-1,7.3034306E0,3.4773822E0,-4.7754088E-1,-1.1089149E1,4.287662E0,5.856495E-1,3.6315498E0,5.8590865E-1,8.930614E0,2.9204097E0,-4.4352183E0,4.8183312E0,-6.895888E0,-8.766346E0,-1.1440051E0,-8.979295E0,1.4996287E0,-3.2068512E0,1.6579127E0,-9.024846E0,6.95907E0,3.6501336E0,-7.5602145E0,-1.0682145E0,4.3381853E0,1.2512844E0,3.6513424E0,1.2926308E0,-2.6989903E0,3.2357259E0,8.439188E0,6.5614953E0,6.9381495E0,1.8478084E0,-6.0663265E-1,-3.8532022E-2,-1.1437415E0,-8.1197625E-1,2.3703566E-1,6.529373E-1,4.0907588E-2,6.810629E-1,7.495331E-2,6.501669E-1,9.252047E-2,-5.1567125E-1,9.7986597E-1,2.8185627E-1,-3.940815E-1,3.2280418E-1,-3.418295E-1,-5.232464E-1,8.4829636E-2,6.0300094E-1,-6.2683886E-1,-7.9300296E-1,-8.8354796E-1,-7.8824215E-2,-1.300643E-1,4.5665008E-1,-1.1712807E0,-5.895981E-1,1.0260295E-1,6.054031E-1,-7.241189E-1,-3.6584806E-2,3.7264276E-1,1.0557413E-1,-9.5510334E-1,-8.2911186E-2,5.0813514E-1,1.0868338E0,-3.5234445E-1,4.039896E-1,-8.7612724E-1,-1.4369695E-1,6.917167E-1,-1.2225409E-1,2.589433E-1,7.953648E-1,-2.1818255E-1,1.6105454E-1,4.281852E-1,2.9777807E-1,-5.093168E-2,-5.4106164E-1,8.694934E-2,4.546454E-1,7.369272E-1,1.134132E0,2.102965E-1,7.051014E-1,7.803764E-1,8.722334E-2,-2.3948434E-1,2.5731513E-1],"categories":[],"categories_nodes":[],"categories_segments":[],"categories_sizes":[],"default_left":[0,0,0,0,0,0,0,0,0,0,0,0,0,0,0,0,0,0,0,0,0,0,0,0,0,0,0,0,0,0,0,0,0,0,0,0,0,0,0,0,0,0,0,0,0,0,0,0,0,0,0,0,0,0,0,0,0,0,0,0,0,0,0,0,0,0,0,0,0,0,0,0,0,0,0,0,0,0,0,0,0,0,0,0,0,0,0,0,0,0,0,0,0,0,0,0,0,0,0,0,0,0,0,0,0,0,0,0,0,0,0,0,0,0,0,0,0,0,0,0,0,0,0,0,0],"id":2,"left_children":[1,3,5,7,9,11,13,15,17,19,21,23,25,27,29,31,33,35,37,39,41,43,45,47,49,51,53,55,57,59,61,63,65,67,69,71,73,75,77,79,81,83,85,87,89,91,93,95,97,99,101,103,105,107,109,111,-1,113,115,117,119,121,123,-1,-1,-1,-1,-1,-1,-1,-1,-1,-1,-1,-1,-1,-1,-1,-1,-1,-1,-1,-1,-1,-1,-1,-1,-1,-1,-1,-1,-1,-1,-1,-1,-1,-1,-1,-1,-1,-1,-1,-1,-1,-1,-1,-1,-1,-1,-1,-1,-1,-1,-1,-1,-1,-1,-1,-1,-1,-1,-1,-1,-1,-1],"loss_changes":[4.307768E4,1.7127477E4,6.467215E3,6.9157827E3,2.025533E4,2.8879277E3,2.1024492E3,5.901076E3,8.773452E2,3.1965E3,5.1516987E3,2.7909004E3,3.664872E3,1.1107812E3,2.5204102E2,1.0091578E4,4.604859E3,8.2248785E2,1.5080425E3,5.848201E3,1.8295312E2,1.1918446E4,1.1221319E4,1.685301E3,8.373408E2,4.541927E2,1.5790481E3,9.266836E2,6.7051495E2,1.0136133E2,1.1688986E2,3.0478093E3,1.2363281E0,1.5747993E3,4.024563E3,1.0373646E3,5.932024E2,2.111311E2,1.3678125E3,1.1187695E3,3.412339E2,7.877832E1,5.094873E1,5.962288E3,1.6165967E3,4.1890776E3,7.8485225E3,1.2964729E3,5.6768677E1,5.980796E2,1.775709E3,6.830841E1,7.786781E2,1.2881724E3,1.0395548E3,7.406426E2,0E0,2.644352E2,9.8395996E1,1.3377539E2,2.4052881E2,2.9948486E1,5.8477726E1,0E0,0E0,0E0,0E0,0E0,0E0,0E0,0E0,0E0,0E0,0E0,0E0,0E0,0E0,0E0,0E0,0E0,0E0,0E0,0E0,0E0,0E0,0E0,0E0,0E0,0E0,0E0,0E0,0E0,0E0,0E0,0E0,0E0,0E0,0E0,0E0,0E0,0E0,0E0,0E0,0E0,0E0,0E0,0E0,0E0,0E0,0E0,0E0,0E0,0E0,0E0,0E0,0E0,0E0,0E0,0E0,0E0,0E0,0E0,0E0,0E0,0E0],"parents":[2147483647,0,0,1,1,2,2,3,3,4,4,5,5,6,6,7,7,8,8,9,9,10,10,11,11,12,12,13,13,14,14,15,15,16,16,17,17,18,18,19,19,20,20,21,21,22,22,23,23,24,24,25,25,26,26,27,27,28,28,29,29,30,30,31,31,32,32,33,33,34,34,35,35,36,36,37,37,38,38,39,39,40,40,41,41,42,42,43,43,44,44,45,45,46,46,47,47,48,48,49,49,50,50,51,51,52,52,53,53,54,54,55,55,57,57,58,58,59,59,60,60,61,61,62,62],"right_children":[2,4,6,8,10,12,14,16,18,20,22,24,26,28,30,32,34,36,38,40,42,44,46,48,50,52,54,56,58,60,62,64,66,68,70,72,74,76,78,80,82,84,86,88,90,92,94,96,98,100,102,104,106,108,110,112,-1,114,116,118,120,122,124,-1,-1,-1,-1,-1,-1,-1,-1,-1,-1,-1,-1,-1,-1,-1,-1,-1,-1,-1,-1,-1,-1,-1,-1,-1,-1,-1,-1,-1,-1,-1,-1,-1,-1,-1,-1,-1,-1,-1,-1,-1,-1,-1,-1,-1,-1,-1,-1,-1,-1,-1,-1,-1,-1,-1,-1,-1,-1,-1,-1,-1,-1],"split_conditions":[1E0,8.526921E-1,1.026593E4,6E1,8.7840605E-1,8.5175586E-1,6E1,7.9220545E-1,7.570493E-1,8.738407E-1,9.5827895E-1,7.9220545E-1,9.059774E-1,9.877174E-1,1E0,7.916261E-1,7.9811424E-1,7.142145E-1,7.605449E-1,8.7221366E-1,8.7734824E-1,9.562617E-1,9.8859155E-1,7.916261E-1,7.9811424E-1,8.522121E-1,9.235159E-1,9.861144E-1,9.900065E-1,2E1,5E0,7.019783E-1,1E0,7.954497E-1,8.522121E-1,7.0857704E-1,9E0,3.1559E3,7.62364E-1,8.585468E-1,2E0,3.3E1,4.14274E3,9.5381397E-1,9.5770854E-1,9.861144E-1,9.900065E-1,7.2051924E-1,9.34238E3,7.954497E-1,8.006107E-1,8.35371E3,8.526921E-1,9.203819E-1,9.283184E-1,8.526921E-1,1.2926308E0,3E1,3E0,1.5E1,2.3E1,1.989546E4,1.10283E4,-6.0663265E-1,-3.8532022E-2,-1.1437415E0,-8.1197625E-1,2.3703566E-1,6.529373E-1,4.0907588E-2,6.810629E-1,7.495331E-2,6.501669E-1,9.252047E-2,-5.1567125E-1,9.7986597E-1,2.8185627E-1,-3.940815E-1,3.2280418E-1,-3.418295E-1,-5.232464E-1,8.4829636E-2,6.0300094E-1,-6.2683886E-1,-7.9300296E-1,-8.8354796E-1,-7.8824215E-2,-1.300643E-1,4.5665008E-1,-1.1712807E0,-5.895981E-1,1.0260295E-1,6.054031E-1,-7.241189E-1,-3.6584806E-2,3.7264276E-1,1.0557413E-1,-9.5510334E-1,-8.2911186E-2,5.0813514E-1,1.0868338E0,-3.5234445E-1,4.039896E-1,-8.7612724E-1,-1.4369695E-1,6.917167E-1,-1.2225409E-1,2.589433E-1,7.953648E-1,-2.1818255E-1,1.6105454E-1,4.281852E-1,2.9777807E-1,-5.093168E-2,-5.4106164E-1,8.694934E-2,4.546454E-1,7.369272E-1,1.134132E0,2.102965E-1,7.051014E-1,7.803764E-1,8.722334E-2,-2.3948434E-1,2.5731513E-1],"split_indices":[10,4,0,1,4,4,1,4,4,4,4,4,4,4,8,4,4,4,4,4,4,4,4,4,4,4,4,4,4,9,5,4,8,4,4,4,5,0,4,4,7,9,0,4,4,4,4,4,0,4,4,0,4,4,4,4,0,9,7,9,9,0,0,0,0,0,0,0,0,0,0,0,0,0,0,0,0,0,0,0,0,0,0,0,0,0,0,0,0,0,0,0,0,0,0,0,0,0,0,0,0,0,0,0,0,0,0,0,0,0,0,0,0,0,0,0,0,0,0,0,0,0,0,0,0],"split_type":[0,0,0,0,0,0,0,0,0,0,0,0,0,0,0,0,0,0,0,0,0,0,0,0,0,0,0,0,0,0,0,0,0,0,0,0,0,0,0,0,0,0,0,0,0,0,0,0,0,0,0,0,0,0,0,0,0,0,0,0,0,0,0,0,0,0,0,0,0,0,0,0,0,0,0,0,0,0,0,0,0,0,0,0,0,0,0,0,0,0,0,0,0,0,0,0,0,0,0,0,0,0,0,0,0,0,0,0,0,0,0,0,0,0,0,0,0,0,0,0,0,0,0,0,0],"sum_hessian":[2.7927E4,2.2408E4,5.519E3,1.115E4,1.1258E4,3.453E3,2.066E3,1.0039E4,1.111E3,1.773E3,9.485E3,1.774E3,1.679E3,1.859E3,2.07E2,6.007E3,4.032E3,4.26E2,6.85E2,1.472E3,3.01E2,6.857E3,2.628E3,1.057E3,7.17E2,6.34E2,1.045E3,1.783E3,7.6E1,1.85E2,2.2E1,5.917E3,9E1,3.69E2,3.663E3,1.25E2,3.01E2,4.4E1,6.41E2,1.401E3,7.1E1,1.97E2,1.04E2,6.658E3,1.99E2,1.944E3,6.84E2,1.043E3,1.4E1,8.8E1,6.29E2,1E1,6.24E2,2.06E2,8.39E2,1.773E3,1E1,4.4E1,3.2E1,6.9E1,1.16E2,6E0,1.6E1,9.5E1,5.822E3,7.8E1,1.2E1,2E2,1.69E2,3.563E3,1E2,6.3E1,6.2E1,2.85E2,1.6E1,3.8E1,6E0,2.7E1,6.14E2,6.18E2,7.83E2,1.7E1,5.4E1,1.27E2,7E1,1.03E2,1E0,6.481E3,1.77E2,1.04E2,9.5E1,1.762E3,1.82E2,2.82E2,4.02E2,2.34E2,8.09E2,1.3E1,1E0,6.1E1,2.7E1,3.2E1,5.97E2,8E0,2E0,1.1E1,6.13E2,1.4E2,6.6E1,7.9E1,7.6E2,9.13E2,8.6E2,2.5E1,1.9E1,1.2E1,2E1,5.3E1,1.6E1,1.2E1,1.04E2,5E0,1E0,2E0,1.4E1],"tree_param":{"num_deleted":"0","num_feature":"13","num_nodes":"125","size_leaf_vector":"1"}},{"base_weights":[-3.2721718E-3,-5.638541E-1,2.2738514E0,2.0701799E-1,-1.3309761E0,1.5041443E0,3.5414696E0,-3.681024E-1,1.0532154E0,-2.9553125E0,-4.3832496E-1,1.1921662E0,4.169978E0,3.269081E0,5.9995413E0,-2.1987812E-1,-9.906068E0,4.5440416E0,6.813762E-1,-4.038124E0,-2.0589678E0,5.937526E0,-6.6460794E-1,1.9351903E0,4.2384976E-1,3.6880937E0,8.833257E0,3.4065228E0,-8.59321E-2,3.0094287E0,6.375242E0,-5.3128004E0,-1.3709003E-1,-2.9463777E-1,-1.0015799E0,3.0048854E0,6.484402E0,-6.810768E0,8.190191E-1,-3.5136874E0,-6.701588E0,-5.9982884E-1,-4.6812873E0,6.200592E-1,8.451001E0,-1.2190568E0,2.5224572E-1,9.7703576E-1,3.0171623E0,-1.206192E0,1.4155996E0,2.848227E0,5.8774276E0,-1.4134703E0,9.9050455E0,3.3291616E0,1.2426641E1,-2.0206242E0,1.8510212E0,4.8038697E0,6.651286E-1,7.5256433E0,5.1294994E0,-5.6096303E-1,-1.931954E-1,1.7107174E-1,-4.9876314E-2,5.1134974E-1,-6.8342954E-2,5.182128E-1,7.933302E-1,2.8232506E-1,-7.257604E-1,6.704444E-2,6.0981315E-1,-3.930186E-1,3.6994466E-1,-6.031675E-1,-7.973722E-1,4.421474E-1,-7.768706E-2,-6.588492E-1,-3.949841E-1,3.3038652E-1,-1.4444969E-2,1.8484698E-1,8.519005E-1,-9.189945E-2,-7.9655206E-1,3.7544557E-1,-7.842987E-2,2.2656918E-1,-5.1060658E-2,2.7708647E-1,5.354311E-1,2.4566443E-1,-1.4851622E-1,6.472137E-1,1.1132292E-1,4.129543E-1,-2.417816E-2,6.822571E-1,-8.345534E-2,-3.5996693E-1,2.5725633E-1,4.7770223E-1,1.073957E0,3.915151E-1,2.7181095E-1,1.2864804E0,3.1461817E-1,3.7610886E-1,-3.6877838E-1,-5.5903863E-2,3.1266138E-1,7.701909E-1,2.3380804E-1,-1.5061265E-1,1.5562277E-1,8.4397316E-1,5.4252183E-1,1.7301118E-2,5.808854E-1],"categories":[],"categories_nodes":[],"categories_segments":[],"categories_sizes":[],"default_left":[0,0,0,0,0,0,0,0,0,0,0,0,0,0,0,0,0,0,0,0,0,0,0,0,0,0,0,0,0,0,0,0,0,0,0,0,0,0,0,0,0,0,0,0,0,0,0,0,0,0,0,0,0,0,0,0,0,0,0,0,0,0,0,0,0,0,0,0,0,0,0,0,0,0,0,0,0,0,0,0,0,0,0,0,0,0,0,0,0,0,0,0,0,0,0,0,0,0,0,0,0,0,0,0,0,0,0,0,0,0,0,0,0,0,0,0,0,0,0,0,0,0,0],"id":3,"left_children":[1,3,5,7,9,11,13,15,17,19,21,23,25,27,29,31,33,35,37,39,41,43,45,47,49,51,53,55,57,59,61,63,65,-1,-1,67,69,71,73,75,77,79,81,83,85,87,89,91,93,95,97,99,101,103,105,107,109,111,113,115,117,119,121,-1,-1,-1,-1,-1,-1,-1,-1,-1,-1,-1,-1,-1,-1,-1,-1,-1,-1,-1,-1,-1,-1,-1,-1,-1,-1,-1,-1,-1,-1,-1,-1,-1,-1,-1,-1,-1,-1,-1,-1,-1,-1,-1,-1,-1,-1,-1,-1,-1,-1,-1,-1,-1,-1,-1,-1,-1,-1,-1,-1],"loss_changes":[3.5707938E4,1.3274374E4,5.3863633E3,5.44958E3,1.631227E4,2.8560132E3,1.3777363E3,9.423347E3,5.87826E3,3.8642695E3,1.0481171E4,1.7580537E3,7.764004E2,8.676582E2,2.1335596E2,2.7677163E3,4.8385742E1,1.2826377E3,4.229539E3,2.4991074E3,8.35772E3,3.3227256E3,3.5658638E3,1.6205181E3,2.4524634E3,5.8636914E2,3.7641748E2,1.2195645E3,2.847958E2,1.0197252E2,2.2365527E2,9.453369E1,4.319422E3,0E0,0E0,1.9089146E3,3.211665E2,3.3904663E2,3.151322E3,4.5539746E3,2.0416211E2,1.2524521E3,1.0634863E3,1.666725E2,6.013379E1,8.841158E3,9.601184E3,1.5961499E3,4.082544E2,5.9017456E2,1.4345925E3,9.4726575E2,5.766343E2,4.4117424E1,7.708057E1,6.313789E2,2.0520264E1,3.801535E2,1.1856958E2,8.2035645E1,2.5561518E1,1.3277051E2,3.0541113E2,0E0,0E0,0E0,0E0,0E0,0E0,0E0,0E0,0E0,0E0,0E0,0E0,0E0,0E0,0E0,0E0,0E0,0E0,0E0,0E0,0E0,0E0,0E0,0E0,0E0,0E0,0E0,0E0,0E0,0E0,0E0,0E0,0E0,0E0,0E0,0E0,0E0,0E0,0E0,0E0,0E0,0E0,0E0,0E0,0E0,0E0,0E0,0E0,0E0,0E0,0E0,0E0,0E0,0E0,0E0,0E0,0E0,0E0,0E0,0E0],"parents":[2147483647,0,0,1,1,2,2,3,3,4,4,5,5,6,6,7,7,8,8,9,9,10,10,11,11,12,12,13,13,14,14,15,15,16,16,17,17,18,18,19,19,20,20,21,21,22,22,23,23,24,24,25,25,26,26,27,27,28,28,29,29,30,30,31,31,32,32,35,35,36,36,37,37,38,38,39,39,40,40,41,41,42,42,43,43,44,44,45,45,46,46,47,47,48,48,49,49,50,50,51,51,52,52,53,53,54,54,55,55,56,56,57,57,58,58,59,59,60,60,61,61,62,62],"right_children":[2,4,6,8,10,12,14,16,18,20,22,24,26,28,30,32,34,36,38,40,42,44,46,48,50,52,54,56,58,60,62,64,66,-1,-1,68,70,72,74,76,78,80,82,84,86,88,90,92,94,96,98,100,102,104,106,108,110,112,114,116,118,120,122,-1,-1,-1,-1,-1,-1,-1,-1,-1,-1,-1,-1,-1,-1,-1,-1,-1,-1,-1,-1,-1,-1,-1,-1,-1,-1,-1,-1,-1,-1,-1,-1,-1,-1,-1,-1,-1,-1,-1,-1,-1,-1,-1,-1,-1,-1,-1,-1,-1,-1,-1,-1,-1,-1,-1,-1,-1,-1,-1,-1],"split_conditions":[1E0,8.526921E-1,1.026593E4,7.9220545E-1,9.059774E-1,6E1,6E1,7.916261E-1,7.9811424E-1,8.7840605E-1,9.1271174E-1,8.5175586E-1,4.6E1,9.877174E-1,7.366654E-1,7.019783E-1,6.08E2,7.954497E-1,7.998713E-1,8.738407E-1,8.933215E-1,9.1011983E-1,9.5827895E-1,7.822685E-1,9.059774E-1,9.1396946E-1,5.23283E3,9.861144E-1,9.900065E-1,3.3E1,8.5490996E-1,6E1,7.1363014E-1,-2.9463777E-1,-1.0015799E0,7.947703E-1,7.9696E-1,6.14E2,8.522121E-1,8.7221366E-1,8.7734824E-1,8.7871176E-1,8.9598095E-1,3E1,5.99E2,9.562617E-1,9.6498424E-1,7.441298E-1,8.4411097E-1,5.23283E3,9.1396946E-1,8.526921E-1,9.877174E-1,7.17E2,5.97285E3,8.526921E-1,8.28E2,1.8E1,3E0,7.1363014E-1,1E0,3.5E1,8.7734824E-1,-5.6096303E-1,-1.931954E-1,1.7107174E-1,-4.9876314E-2,5.1134974E-1,-6.8342954E-2,5.182128E-1,7.933302E-1,2.8232506E-1,-7.257604E-1,6.704444E-2,6.0981315E-1,-3.930186E-1,3.6994466E-1,-6.031675E-1,-7.973722E-1,4.421474E-1,-7.768706E-2,-6.588492E-1,-3.949841E-1,3.3038652E-1,-1.4444969E-2,1.8484698E-1,8.519005E-1,-9.189945E-2,-7.9655206E-1,3.7544557E-1,-7.842987E-2,2.2656918E-1,-5.1060658E-2,2.7708647E-1,5.354311E-1,2.4566443E-1,-1.4851622E-1,6.472137E-1,1.1132292E-1,4.129543E-1,-2.417816E-2,6.822571E-1,-8.345534E-2,-3.5996693E-1,2.5725633E-1,4.7770223E-1,1.073957E0,3.915151E-1,2.7181095E-1,1.2864804E0,3.1461817E-1,3.7610886E-1,-3.6877838E-1,-5.5903863E-2,3.1266138E-1,7.701909E-1,2.3380804E-1,-1.5061265E-1,1.5562277E-1,8.4397316E-1,5.4252183E-1,1.7301118E-2,5.808854E-1],"split_indices":[10,4,0,4,4,1,1,4,4,4,4,4,9,4,4,4,2,4,4,4,4,4,4,4,4,4,0,4,4,9,4,1,4,0,0,4,4,2,4,4,4,4,4,1,2,4,4,4,4,0,4,4,4,2,0,4,2,9,7,4,7,9,4,0,0,0,0,0,0,0,0,0,0,0,0,0,0,0,0,0,0,0,0,0,0,0,0,0,0,0,0,0,0,0,0,0,0,0,0,0,0,0,0,0,0,0,0,0,0,0,0,0,0,0,0,0,0,0,0,0,0,0,0],"split_type":[0,0,0,0,0,0,0,0,0,0,0,0,0,0,0,0,0,0,0,0,0,0,0,0,0,0,0,0,0,0,0,0,0,0,0,0,0,0,0,0,0,0,0,0,0,0,0,0,0,0,0,0,0,0,0,0,0,0,0,0,0,0,0,0,0,0,0,0,0,0,0,0,0,0,0,0,0,0,0,0,0,0,0,0,0,0,0,0,0,0,0,0,0,0,0,0,0,0,0,0,0,0,0,0,0,0,0,0,0,0,0,0,0,0,0,0,0,0,0,0,0,0,0],"sum_hessian":[2.7971E4,2.2446E4,5.525E3,1.1196E4,1.125E4,3.439E3,2.086E3,6.666E3,4.53E3,3.989E3,7.261E3,3.08E3,3.59E2,1.88E3,2.06E2,6.565E3,1.01E2,4.35E2,4.095E3,1.805E3,2.184E3,2.48E2,7.013E3,1.565E3,1.515E3,3.27E2,3.2E1,1.806E3,7.4E1,2.4E1,1.82E2,1.04E2,6.461E3,2E0,9.9E1,2.44E2,1.91E2,7.3E1,4.022E3,1.51E3,2.95E2,1.404E3,7.8E2,8E1,1.68E2,4.37E3,2.643E3,8.31E2,7.34E2,5.73E2,9.42E2,2.38E2,8.9E1,3E0,2.9E1,1.792E3,1.4E1,3.7E1,3.7E1,1.3E1,1.1E1,9.2E1,9E1,9.5E1,9E0,1.057E3,5.404E3,1.55E2,8.9E1,1.03E2,8.8E1,3E0,7E1,3.913E3,1.09E2,1.428E3,8.2E1,1.97E2,9.8E1,4.7E1,1.357E3,2.14E2,5.66E2,1.7E1,6.3E1,2E0,1.66E2,4.185E3,1.85E2,6.03E2,2.04E3,4.45E2,3.86E2,6.66E2,6.8E1,4E1,5.33E2,5.2E1,8.9E2,1.68E2,7E1,7.8E1,1.1E1,2E0,1E0,5E0,2.4E1,9.12E2,8.8E2,1.3E1,1E0,8E0,2.9E1,1.3E1,2.4E1,5E0,8E0,3E0,8E0,6.2E1,3E1,1.1E1,7.9E1],"tree_param":{"num_deleted":"0","num_feature":"13","num_nodes":"123","size_leaf_vector":"1"}},{"base_weights":[-3.3018878E-3,-4.8952192E-1,1.942711E0,1.8888839E-1,-1.1611221E0,1.204577E0,3.0831897E0,-3.5107624E-2,2.1942556E0,-3.695764E0,-6.8548584E-1,9.057429E-1,3.901129E0,2.8506992E0,5.1657724E0,-5.511429E-1,7.210828E-1,1.1626061E0,2.8431754E0,-3.2111187E0,-6.1344957E0,-1.790602E0,-3.4897873E-1,1.6289886E0,1.661021E-1,3.634991E0,7.087777E0,2.9963262E0,-3.4401247E-1,4.859823E0,8.743765E0,-4.2471978E-1,-9.261902E0,3.70001E0,4.0055373E-1,2.982561E0,2.070415E-1,8.012072E0,2.5692708E0,-3.5864475E0,3.7796502E0,-5.716862E0,-6.9194374E0,-5.26809E-1,-4.083779E0,5.3160377E0,-5.7140464E-1,7.7491486E-1,2.9248579E0,-1.2902075E0,1.0496161E0,2.052818E0,4.1057205E0,-9.7127414E-1,8.230887E0,2.9398348E0,1.0922323E0,-2.0931494E0,1.7635522E0,5.6955724E0,3.6468694E0,3.1127543E0,9.803786E0,2.649347E-2,-1.11800395E-1,-1.0058448E0,-7.4662846E-1,2.3389511E-1,5.443127E-1,-6.2856394E-1,5.117246E-2,8.9887574E-2,4.49853E-1,8.658238E-2,-2.1764143E-1,8.315391E-1,2.1059869E-1,-4.0030605E-1,2.8816316E-1,-7.0117235E-1,-3.3161837E-1,2.8377768E-1,8.5664934E-1,-3.0295688E-1,-6.020292E-1,-7.05113E-1,-4.426953E-2,4.3205537E-2,-1.1748327E-1,-5.340861E-1,-2.8511795E-1,4.7309216E-2,7.566643E-1,-3.392301E-2,-2.6628205E-1,8.8106714E-2,-8.193022E-1,3.2597336E-1,1.0412391E-1,-1.8250814E-3,-2.0526178E-1,3.0695793E-1,5.677989E-2,3.2981837E-1,-8.5204415E-2,5.7023185E-1,3.2769617E-1,5.625822E-1,-5.04558E-1,9.020942E-1,2.2023058E-2,2.3430486E-1,3.4400308E-1,-4.4693768E-2,-3.7207386E-1,-3.315862E-1,2.1181493E-1,7.0789284E-1,4.3096018E-1,4.551103E-1,2.493223E-1,-3.8288316E-1,6.702894E-1,-5.3656913E-2,1.0710196E0],"categories":[],"categories_nodes":[],"categories_segments":[],"categories_sizes":[],"default_left":[0,0,0,0,0,0,0,0,0,0,0,0,0,0,0,0,0,0,0,0,0,0,0,0,0,0,0,0,0,0,0,0,0,0,0,0,0,0,0,0,0,0,0,0,0,0,0,0,0,0,0,0,0,0,0,0,0,0,0,0,0,0,0,0,0,0,0,0,0,0,0,0,0,0,0,0,0,0,0,0,0,0,0,0,0,0,0,0,0,0,0,0,0,0,0,0,0,0,0,0,0,0,0,0,0,0,0,0,0,0,0,0,0,0,0,0,0,0,0,0,0,0,0,0,0],"id":4,"left_children":[1,3,5,7,9,11,13,15,17,19,21,23,25,27,29,31,33,35,37,39,41,43,45,47,49,51,53,55,57,59,61,63,65,67,69,71,73,75,77,79,81,83,85,87,89,91,93,95,97,99,101,103,105,107,109,111,-1,113,115,117,119,121,123,-1,-1,-1,-1,-1,-1,-1,-1,-1,-1,-1,-1,-1,-1,-1,-1,-1,-1,-1,-1,-1,-1,-1,-1,-1,-1,-1,-1,-1,-1,-1,-1,-1,-1,-1,-1,-1,-1,-1,-1,-1,-1,-1,-1,-1,-1,-1,-1,-1,-1,-1,-1,-1,-1,-1,-1,-1,-1,-1,-1,-1,-1],"loss_changes":[2.642521E4,1.0181059E4,4.696203E3,4.9937695E3,1.3534781E4,2.7290073E3,1.047082E3,3.9029966E3,7.444785E2,2.0770254E3,3.5158672E3,1.6334431E3,2.6089014E2,9.1987305E2,1.9724268E2,6.5429434E3,3.8722747E3,7.524061E2,9.4922705E2,3.90208E3,5.6493164E1,6.3939565E3,9.138374E3,1.706583E3,1.9455126E3,2.2543115E2,2.3830408E2,8.1368945E2,3.2440982E2,1.8602881E2,6.498706E1,2.802596E3,4.6475586E1,9.220283E2,2.726704E3,4.6661792E2,4.4938525E2,4.339624E1,1.3500503E3,1.279248E3,3.1834375E2,1.4239551E2,7.961377E1,8.85334E2,1.1995645E3,2.9829E3,3.3869424E3,8.944516E2,3.8327246E2,5.5369147E2,9.1408813E2,2.7051373E2,3.002036E2,1.3589987E2,1.3724805E2,5.5224316E2,0E0,1.2694618E2,7.9069305E1,1.9765015E2,7.836548E1,1.2534929E2,1.27590576E2,0E0,0E0,0E0,0E0,0E0,0E0,0E0,0E0,0E0,0E0,0E0,0E0,0E0,0E0,0E0,0E0,0E0,0E0,0E0,0E0,0E0,0E0,0E0,0E0,0E0,0E0,0E0,0E0,0E0,0E0,0E0,0E0,0E0,0E0,0E0,0E0,0E0,0E0,0E0,0E0,0E0,0E0,0E0,0E0,0E0,0E0,0E0,0E0,0E0,0E0,0E0,0E0,0E0,0E0,0E0,0E0,0E0,0E0,0E0,0E0,0E0,0E0],"parents":[2147483647,0,0,1,1,2,2,3,3,4,4,5,5,6,6,7,7,8,8,9,9,10,10,11,11,12,12,13,13,14,14,15,15,16,16,17,17,18,18,19,19,20,20,21,21,22,22,23,23,24,24,25,25,26,26,27,27,28,28,29,29,30,30,31,31,32,32,33,33,34,34,35,35,36,36,37,37,38,38,39,39,40,40,41,41,42,42,43,43,44,44,45,45,46,46,47,47,48,48,49,49,50,50,51,51,52,52,53,53,54,54,55,55,57,57,58,58,59,59,60,60,61,61,62,62],"right_children":[2,4,6,8,10,12,14,16,18,20,22,24,26,28,30,32,34,36,38,40,42,44,46,48,50,52,54,56,58,60,62,64,66,68,70,72,74,76,78,80,82,84,86,88,90,92,94,96,98,100,102,104,106,108,110,112,-1,114,116,118,120,122,124,-1,-1,-1,-1,-1,-1,-1,-1,-1,-1,-1,-1,-1,-1,-1,-1,-1,-1,-1,-1,-1,-1,-1,-1,-1,-1,-1,-1,-1,-1,-1,-1,-1,-1,-1,-1,-1,-1,-1,-1,-1,-1,-1,-1,-1,-1,-1,-1,-1,-1,-1,-1,-1,-1,-1,-1,-1,-1,-1,-1,-1,-1],"split_conditions":[4.94902E3,8.526921E-1,9.91715E3,6E1,8.7840605E-1,6E1,6E1,7.9220545E-1,7.570493E-1,8.738407E-1,9.059774E-1,8.5175586E-1,4.6E1,9.877174E-1,4.6E1,7.916261E-1,7.9811424E-1,7.2051924E-1,7.605449E-1,8.7221366E-1,8.7734824E-1,8.933215E-1,9.1271174E-1,7.9220545E-1,9.0467083E-1,7.734815E-1,5.23283E3,9.861144E-1,9.900065E-1,3E1,1.146912E4,7.441298E-1,2.0832E3,7.954497E-1,7.998713E-1,7.0857704E-1,2.77109E3,4.8E1,7.62364E-1,8.541223E-1,6E1,6E0,4.9E1,8.839399E-1,8.9902085E-1,9.1011983E-1,9.8859155E-1,7.916261E-1,8.81212E3,6.08357E3,9.235159E-1,7.5811976E-1,8.446195E-1,9.008536E-1,8.59684E3,2.4E1,1.0922323E0,2.8E1,4E0,8.3529496E-1,1.586471E4,3E0,7.2051924E-1,2.649347E-2,-1.11800395E-1,-1.0058448E0,-7.4662846E-1,2.3389511E-1,5.443127E-1,-6.2856394E-1,5.117246E-2,8.9887574E-2,4.49853E-1,8.658238E-2,-2.1764143E-1,8.315391E-1,2.1059869E-1,-4.0030605E-1,2.8816316E-1,-7.0117235E-1,-3.3161837E-1,2.8377768E-1,8.5664934E-1,-3.0295688E-1,-6.020292E-1,-7.05113E-1,-4.426953E-2,4.3205537E-2,-1.1748327E-1,-5.340861E-1,-2.8511795E-1,4.7309216E-2,7.566643E-1,-3.392301E-2,-2.6628205E-1,8.8106714E-2,-8.193022E-1,3.2597336E-1,1.0412391E-1,-1.8250814E-3,-2.0526178E-1,3.0695793E-1,5.677989E-2,3.2981837E-1,-8.5204415E-2,5.7023185E-1,3.2769617E-1,5.625822E-1,-5.04558E-1,9.020942E-1,2.2023058E-2,2.3430486E-1,3.4400308E-1,-4.4693768E-2,-3.7207386E-1,-3.315862E-1,2.1181493E-1,7.0789284E-1,4.3096018E-1,4.551103E-1,2.493223E-1,-3.8288316E-1,6.702894E-1,-5.3656913E-2,1.0710196E0],"split_indices":[0,4,0,1,4,1,1,4,4,4,4,4,9,4,9,4,4,4,4,4,4,4,4,4,4,4,0,4,4,9,0,4,0,4,4,4,0,9,4,4,1,9,9,4,4,4,4,4,0,0,4,4,4,4,0,9,0,9,9,4,0,5,4,0,0,0,0,0,0,0,0,0,0,0,0,0,0,0,0,0,0,0,0,0,0,0,0,0,0,0,0,0,0,0,0,0,0,0,0,0,0,0,0,0,0,0,0,0,0,0,0,0,0,0,0,0,0,0,0,0,0,0,0,0,0],"split_type":[0,0,0,0,0,0,0,0,0,0,0,0,0,0,0,0,0,0,0,0,0,0,0,0,0,0,0,0,0,0,0,0,0,0,0,0,0,0,0,0,0,0,0,0,0,0,0,0,0,0,0,0,0,0,0,0,0,0,0,0,0,0,0,0,0,0,0,0,0,0,0,0,0,0,0,0,0,0,0,0,0,0,0,0,0,0,0,0,0,0,0,0,0,0,0,0,0,0,0,0,0,0,0,0,0,0,0,0,0,0,0,0,0,0,0,0,0,0,0,0,0,0,0,0,0],"sum_hessian":[2.7926E4,2.2344E4,5.582E3,1.1116E4,1.1228E4,3.39E3,2.192E3,1E4,1.116E3,1.773E3,9.455E3,3.053E3,3.37E2,1.974E3,2.18E2,5.944E3,4.056E3,4.32E2,6.84E2,1.481E3,2.92E2,2.206E3,7.249E3,1.543E3,1.51E3,3.13E2,2.4E1,1.888E3,8.6E1,2.03E2,1.5E1,5.86E3,8.4E1,3.93E2,3.663E3,1.48E2,2.84E2,3.3E1,6.51E2,1.406E3,7.5E1,1.96E2,9.6E1,1.423E3,7.83E2,2.73E2,6.976E3,9.31E2,6.12E2,5.7E2,9.4E2,7.3E1,2.4E2,3E0,2.1E1,1.876E3,1.2E1,4.7E1,3.9E1,1.18E2,8.5E1,3E0,1.2E1,2.938E3,2.922E3,5.5E1,2.9E1,2.22E2,1.71E2,5.9E1,3.604E3,6.3E1,8.5E1,2.23E2,6.1E1,3.1E1,2E0,2.9E1,6.22E2,1.01E2,1.305E3,6.4E1,1.1E1,2.1E1,1.75E2,9.4E1,2E0,5.74E2,8.49E2,3.86E2,3.97E2,8.7E1,1.86E2,6.28E3,6.96E2,9.21E2,1E1,5.19E2,9.3E1,2.14E2,3.56E2,1.8E2,7.6E2,5.1E1,2.2E1,8E1,1.6E2,1E0,2E0,1.9E1,2E0,8.58E2,1.018E3,2.4E1,2.3E1,2E0,3.7E1,5.7E1,6.1E1,4.6E1,3.9E1,1E0,2E0,1E0,1.1E1],"tree_param":{"num_deleted":"0","num_feature":"13","num_nodes":"125","size_leaf_vector":"1"}},{"base_weights":[3.3314906E-2,-5.992541E0,6.1820827E0,-9.204802E0,-3.278472E0,2.8829222E0,8.920519E0,-1.055446E1,-7.7119503E0,-4.883279E0,-1.7211756E0,1.518617E0,4.381871E0,7.440775E0,1.0631449E1,-1.0962916E1,-8.822379E0,-8.04874E0,-6.1638746E0,-5.3081713E0,-3.2231686E0,-2.691353E0,-9.2311174E-1,1.0454147E0,3.2150016E0,3.9055738E0,6.356819E0,6.9821486E0,9.306226E0,1.0233427E1,1.2294888E1,-1.1243104E1,-8.763245E0,-8.985639E0,-5.6876116E0,-8.294784E0,-5.9685707E0,-6.831586E0,-5.1298857E0,-5.968421E0,-4.425079E0,-4.0538316E0,-2.5741434E0,-3.0925581E0,-9.850838E-1,-1.3474134E0,7.5946736E-1,4.94145E-1,1.8922386E0,1.8556511E0,3.6714256E0,3.228511E0,4.825073E0,5.818462E0,7.69509E0,6.3131046E0,7.884639E0,9.023786E0,1.1658914E1,9.120633E0,1.0789707E1,1.09277E0,1.2902548E1,-1.187017E0,-1.0329334E0,-8.7797385E-1,-1.800315E-1,-9.145851E-1,-7.142943E-1,-2.8172305E-1,-6.184338E-1,-8.897686E-1,-7.879469E-1,-3.3260146E-1,-6.078589E-1,-7.130557E-1,-4.6494427E-1,-5.3687173E-1,-3.1321606E-1,-6.225179E-1,-3.8412538E-1,-4.6809706E-1,-2.3138951E-1,-5.345871E-1,-3.803867E-1,-2.7474594E-1,-6.911464E-2,-3.3190772E-1,-9.502951E-2,-1.20481454E-1,6.655506E-2,-1.5946613E-1,8.626499E-2,4.0341504E-2,1.3760208E-1,2.838388E-2,2.3558211E-1,1.690816E-1,3.5997826E-1,2.1148255E-1,4.7200654E-2,3.3819517E-1,5.949519E-1,3.037698E-1,4.9253502E-1,4.5663357E-1,6.990125E-1,5.590347E-1,7.5367343E-1,8.399559E-1,7.102422E-1,6.1138433E-1,8.276791E-1,7.6804113E-1,9.761972E-1,7.6083755E-1,9.369891E-1,4.2642942E-1,1.1790475E0,8.937454E-1,1.0926405E0,1.0597247E0,1.2419076E0,1.2657336E0,1.4578393E0],"categories":[],"categories_nodes":[],"categories_segments":[],"categories_sizes":[],"default_left":[0,0,0,0,0,0,0,0,0,0,0,0,0,0,0,0,0,0,0,0,0,0,0,0,0,0,0,0,0,0,0,0,0,0,0,0,0,0,0,0,0,0,0,0,0,0,0,0,0,0,0,0,0,0,0,0,0,0,0,0,0,0,0,0,0,0,0,0,0,0,0,0,0,0,0,0,0,0,0,0,0,0,0,0,0,0,0,0,0,0,0,0,0,0,0,0,0,0,0,0,0,0,0,0,0,0,0,0,0,0,0,0,0,0,0,0,0,0,0,0,0,0,0,0,0],"id":5,"left_children":[1,3,5,7,9,11,13,15,17,19,21,23,25,27,29,31,33,35,37,39,41,43,45,47,49,51,53,55,57,59,61,63,65,67,69,71,73,75,77,79,81,83,85,87,89,91,93,95,97,99,101,103,105,107,109,111,113,115,117,119,121,-1,123,-1,-1,-1,-1,-1,-1,-1,-1,-1,-1,-1,-1,-1,-1,-1,-1,-1,-1,-1,-1,-1,-1,-1,-1,-1,-1,-1,-1,-1,-1,-1,-1,-1,-1,-1,-1,-1,-1,-1,-1,-1,-1,-1,-1,-1,-1,-1,-1,-1,-1,-1,-1,-1,-1,-1,-1,-1,-1,-1,-1,-1,-1],"loss_changes":[1.03492494E6,1.2295881E5,1.2487681E5,1.29345E4,1.9105164E4,1.2819738E4,1.9045625E4,2.301625E3,1.5515312E3,2.6393125E3,3.0039805E3,2.6336177E3,2.785871E3,3.4034219E3,2.192125E3,1.5895938E3,2.825703E2,1.23975E3,3.4674805E2,1.7210234E3,4.0468848E2,1.1963096E3,1.5231036E3,1.198814E3,4.3742188E2,1.4847891E3,3.7237695E2,1.9174219E3,4.2439062E2,1.6540625E3,4.1645312E2,1.2674688E3,2.025586E1,1.1712109E2,3.2480103E1,4.9328125E2,5.827832E1,1.8409473E2,8.862842E1,9.111211E2,6.839121E2,8.8180664E1,1.4006445E2,6.849512E2,1.2230469E2,9.319512E2,9.384076E1,6.0932263E2,3.423225E2,6.4267944E1,3.3268408E2,4.3541504E2,5.3946484E2,1.2131641E2,8.3984375E0,6.834531E2,4.5527344E2,2.7946484E2,2.9495117E1,2.1658594E2,4.5857812E2,0E0,4.1015625E0,0E0,0E0,0E0,0E0,0E0,0E0,0E0,0E0,0E0,0E0,0E0,0E0,0E0,0E0,0E0,0E0,0E0,0E0,0E0,0E0,0E0,0E0,0E0,0E0,0E0,0E0,0E0,0E0,0E0,0E0,0E0,0E0,0E0,0E0,0E0,0E0,0E0,0E0,0E0,0E0,0E0,0E0,0E0,0E0,0E0,0E0,0E0,0E0,0E0,0E0,0E0,0E0,0E0,0E0,0E0,0E0,0E0,0E0,0E0,0E0,0E0,0E0],"parents":[2147483647,0,0,1,1,2,2,3,3,4,4,5,5,6,6,7,7,8,8,9,9,10,10,11,11,12,12,13,13,14,14,15,15,16,16,17,17,18,18,19,19,20,20,21,21,22,22,23,23,24,24,25,25,26,26,27,27,28,28,29,29,30,30,31,31,32,32,33,33,34,34,35,35,36,36,37,37,38,38,39,39,40,40,41,41,42,42,43,43,44,44,45,45,46,46,47,47,48,48,49,49,50,50,51,51,52,52,53,53,54,54,55,55,56,56,57,57,58,58,59,59,60,60,62,62],"right_children":[2,4,6,8,10,12,14,16,18,20,22,24,26,28,30,32,34,36,38,40,42,44,46,48,50,52,54,56,58,60,62,64,66,68,70,72,74,76,78,80,82,84,86,88,90,92,94,96,98,100,102,104,106,108,110,112,114,116,118,120,122,-1,124,-1,-1,-1,-1,-1,-1,-1,-1,-1,-1,-1,-1,-1,-1,-1,-1,-1,-1,-1,-1,-1,-1,-1,-1,-1,-1,-1,-1,-1,-1,-1,-1,-1,-1,-1,-1,-1,-1,-1,-1,-1,-1,-1,-1,-1,-1,-1,-1,-1,-1,-1,-1,-1,-1,-1,-1,-1,-1,-1,-1,-1,-1],"split_conditions":[9.90731E0,1.7251308E0,1.7541624E1,-1.637709E0,5.92473E0,1.3665557E1,2.1277903E1,1E0,1E0,1E0,7.54585E0,1E0,1E0,1E0,1E0,6E1,9.798583E-1,6E1,5.713219E-1,4.2849646E0,3.5285902E0,1E0,1E0,1.2251411E1,1.1206451E1,1.601695E1,1.6922E1,1.9884548E1,6E1,2.304598E1,2.3028795E1,-3.2455544E0,8.33E2,6E1,6.33E2,-1.6604444E-1,6.02E2,6E1,4.5E1,6E1,6E1,3E1,6E1,6E1,6E1,6E1,9.2382E0,6E1,6E1,8E0,6E1,6E1,6E1,6E1,7.11E2,6E1,6E1,1.8322979E1,7.053597E-1,6E1,6E1,1.09277E0,6E1,-1.187017E0,-1.0329334E0,-8.7797385E-1,-1.800315E-1,-9.145851E-1,-7.142943E-1,-2.8172305E-1,-6.184338E-1,-8.897686E-1,-7.879469E-1,-3.3260146E-1,-6.078589E-1,-7.130557E-1,-4.6494427E-1,-5.3687173E-1,-3.1321606E-1,-6.225179E-1,-3.8412538E-1,-4.6809706E-1,-2.3138951E-1,-5.345871E-1,-3.803867E-1,-2.7474594E-1,-6.911464E-2,-3.3190772E-1,-9.502951E-2,-1.20481454E-1,6.655506E-2,-1.5946613E-1,8.626499E-2,4.0341504E-2,1.3760208E-1,2.838388E-2,2.3558211E-1,1.690816E-1,3.5997826E-1,2.1148255E-1,4.7200654E-2,3.3819517E-1,5.949519E-1,3.037698E-1,4.9253502E-1,4.5663357E-1,6.990125E-1,5.590347E-1,7.5367343E-1,8.399559E-1,7.102422E-1,6.1138433E-1,8.276791E-1,7.6804113E-1,9.761972E-1,7.6083755E-1,9.369891E-1,4.2642942E-1,1.1790475E0,8.937454E-1,1.0926405E0,1.0597247E0,1.2419076E0,1.2657336E0,1.4578393E0],"split_indices":[3,3,3,3,3,3,3,10,10,10,3,10,10,10,10,1,4,1,3,3,3,10,10,3,3,3,3,3,1,3,3,3,2,1,2,3,2,1,9,1,1,1,1,1,1,1,3,1,1,5,1,1,1,1,2,1,1,3,4,1,1,0,1,0,0,0,0,0,0,0,0,0,0,0,0,0,0,0,0,0,0,0,0,0,0,0,0,0,0,0,0,0,0,0,0,0,0,0,0,0,0,0,0,0,0,0,0,0,0,0,0,0,0,0,0,0,0,0,0,0,0,0,0,0,0],"split_type":[0,0,0,0,0,0,0,0,0,0,0,0,0,0,0,0,0,0,0,0,0,0,0,0,0,0,0,0,0,0,0,0,0,0,0,0,0,0,0,0,0,0,0,0,0,0,0,0,0,0,0,0,0,0,0,0,0,0,0,0,0,0,0,0,0,0,0,0,0,0,0,0,0,0,0,0,0,0,0,0,0,0,0,0,0,0,0,0,0,0,0,0,0,0,0,0,0,0,0,0,0,0,0,0,0,0,0,0,0,0,0,0,0,0,0,0,0,0,0,0,0,0,0,0,0],"sum_hessian":[2.793E4,1.4106E4,1.3824E4,6.459E3,7.647E3,6.271E3,7.553E3,3.389E3,3.07E3,3.765E3,3.882E3,3.284E3,2.987E3,4.053E3,3.5E3,2.738E3,6.51E2,2.518E3,5.52E2,2.996E3,7.69E2,1.751E3,2.131E3,2.569E3,7.15E2,2.409E3,5.78E2,3.257E3,7.96E2,2.83E3,6.7E2,2.425E3,3.13E2,6.17E2,3.4E1,2.249E3,2.69E2,3.32E2,2.2E2,1.711E3,1.285E3,3.35E2,4.34E2,1.417E3,3.34E2,1.702E3,4.29E2,1.557E3,1.012E3,1.81E2,5.34E2,1.39E3,1.019E3,4.16E2,1.62E2,1.875E3,1.382E3,7.15E2,8.1E1,9.49E2,1.881E3,2.12E2,4.58E2,1.431E3,9.94E2,3.12E2,1E0,5.64E2,5.3E1,6E0,2.8E1,9.09E2,1.34E3,1.2E1,2.57E2,2.9E2,4.2E1,1.95E2,2.5E1,1.525E3,1.86E2,1.145E3,1.4E2,5.1E1,2.84E2,3.97E2,3.7E1,1.281E3,1.36E2,2.95E2,3.9E1,1.531E3,1.71E2,2.73E2,1.56E2,1.4E3,1.57E2,9.07E2,1.05E2,1.52E2,2.9E1,4.76E2,5.8E1,1.252E3,1.38E2,9.13E2,1.06E2,3.71E2,4.5E1,6.8E1,9.4E1,1.706E3,1.69E2,1.251E3,1.31E2,1.45E2,5.7E2,2E0,7.9E1,8.67E2,8.2E1,1.689E3,1.92E2,4.07E2,5.1E1],"tree_param":{"num_deleted":"0","num_feature":"13","num_nodes":"125","size_leaf_vector":"1"}},{"base_weights":[2.6806077E-2,-3.8748428E-1,1.6934122E0,1.8052866E-1,-9.454096E-1,1.0896574E0,2.6976082E0,-2.6516335E-3,1.8242161E0,-2.1475632E0,-3.053282E-1,8.398735E-1,3.3562744E0,2.81929E0,-1.0268999E-1,-4.9781948E-1,5.128537E-1,8.2563263E-1,2.4493136E0,-2.890569E0,-1.5318294E0,1.5817848E0,-7.204051E-1,1.3149827E0,3.4631327E-1,1.0646051E0,3.6704178E0,2.7641358E0,9.100012E0,-1.5300941E0,1.4970882E0,2.2036393E-1,-1.470655E0,1.0212765E1,4.2880067E-1,-3.39407E0,1.0505906E0,5.3318014E0,2.2715018E0,-1.7131386E0,-3.527326E0,-5.5022335E-1,-3.55867E0,7.404852E-1,7.436222E0,-3.9490647E0,-2.477519E-1,4.328945E-1,2.2429998E0,-1.17464E0,7.064216E-1,4.045981E0,-3.6219057E-1,3.3700483E0,6.1088576E0,2.5681505E0,4.464495E0,1.0044949E0,3.5177302E-1,-3.1174007E-1,-3.475679E0,2.011529E0,-1.3624768E0,1.7841585E-3,7.534015E-1,-2.9059735E-1,-5.4176427E-2,1.0525396E0,4.611427E-1,3.3662636E-2,4.9447224E-1,-4.8902726E-1,-1.6443092E-2,1.3803247E-1,-2.1130471E-1,5.9465224E-1,-3.7603476E-3,-3.4851706E-1,2.518532E-1,-2.6887283E-1,3.507311E-1,-4.9766502E-1,-2.639067E-1,-2.1326034E-1,-1.6433476E-2,-4.4899902E-1,-2.442185E-1,2.9755273E-1,-2.5594229E-2,6.0167754E-1,8.583785E-1,-3.2622135E-1,-9.768225E-1,8.20389E-1,-5.8936875E-2,1.3711645E-1,-8.122706E-2,3.0444297E-1,1.6764015E-1,-5.7178225E-2,-3.854584E-1,4.5245162E-1,5.594727E-2,-3.1750107E-1,4.8456737E-1,-2.0052047E-1,3.6943093E-1,4.3751612E-1,2.4983647E-1,6.698708E-1,-1.8259259E-1,3.154994E-1,2.013599E-1,3.4986445E-1,6.18663E-1,-2.2738855E-1,4.5192534E-1,-4.6271893E-1,4.4368535E-2,2.7927464E-1,-6.424282E-2,1.17028885E-1,-3.554623E-1],"categories":[],"categories_nodes":[],"categories_segments":[],"categories_sizes":[],"default_left":[0,0,0,0,0,0,0,0,0,0,0,0,0,0,0,0,0,0,0,0,0,0,0,0,0,0,0,0,0,0,0,0,0,0,0,0,0,0,0,0,0,0,0,0,0,0,0,0,0,0,0,0,0,0,0,0,0,0,0,0,0,0,0,0,0,0,0,0,0,0,0,0,0,0,0,0,0,0,0,0,0,0,0,0,0,0,0,0,0,0,0,0,0,0,0,0,0,0,0,0,0,0,0,0,0,0,0,0,0,0,0,0,0,0,0,0,0,0,0,0,0,0,0],"id":6,"left_children":[1,3,5,7,9,11,13,15,17,19,21,23,25,27,29,31,33,35,37,39,41,43,45,47,49,51,53,55,57,59,61,63,65,67,69,71,73,75,77,79,81,83,85,87,89,91,93,95,97,99,101,103,105,107,109,111,113,-1,-1,115,117,119,121,-1,-1,-1,-1,-1,-1,-1,-1,-1,-1,-1,-1,-1,-1,-1,-1,-1,-1,-1,-1,-1,-1,-1,-1,-1,-1,-1,-1,-1,-1,-1,-1,-1,-1,-1,-1,-1,-1,-1,-1,-1,-1,-1,-1,-1,-1,-1,-1,-1,-1,-1,-1,-1,-1,-1,-1,-1,-1,-1,-1],"loss_changes":[1.931003E4,7.0986104E3,3.372874E3,3.3421165E3,8.694426E3,1.9668672E3,7.124453E2,2.5498086E3,6.927256E2,1.7916934E3,5.7779556E3,7.346863E2,2.4446265E2,6.687051E2,2.0324133E2,3.5600698E3,3.985731E3,4.117458E2,3.384663E2,1.3269893E3,4.273604E3,6.5451895E3,9.225437E3,1.306322E3,8.4375256E2,1.8437943E2,2.0134009E2,6.506924E2,5.433789E1,1.1032582E2,6.4525894E1,4.3426787E3,2.8835874E3,2.501123E1,2.0184064E3,1.05504196E2,4.2956857E2,1.2895032E2,9.2743555E2,3.1976587E3,1.4712109E3,8.844415E2,7.179385E2,2.5930562E3,2.2038086E2,3.0537393E3,1.5234936E4,9.5912054E2,3.4817725E2,4.744055E2,6.959947E2,9.6229095E1,2.0735443E2,2.2737915E2,1.6200195E2,5.7422266E2,3.1767358E2,0E0,0E0,2.946496E2,8.329042E1,7.643355E1,4.3025284E1,0E0,0E0,0E0,0E0,0E0,0E0,0E0,0E0,0E0,0E0,0E0,0E0,0E0,0E0,0E0,0E0,0E0,0E0,0E0,0E0,0E0,0E0,0E0,0E0,0E0,0E0,0E0,0E0,0E0,0E0,0E0,0E0,0E0,0E0,0E0,0E0,0E0,0E0,0E0,0E0,0E0,0E0,0E0,0E0,0E0,0E0,0E0,0E0,0E0,0E0,0E0,0E0,0E0,0E0,0E0,0E0,0E0,0E0,0E0,0E0],"parents":[2147483647,0,0,1,1,2,2,3,3,4,4,5,5,6,6,7,7,8,8,9,9,10,10,11,11,12,12,13,13,14,14,15,15,16,16,17,17,18,18,19,19,20,20,21,21,22,22,23,23,24,24,25,25,26,26,27,27,28,28,29,29,30,30,31,31,32,32,33,33,34,34,35,35,36,36,37,37,38,38,39,39,40,40,41,41,42,42,43,43,44,44,45,45,46,46,47,47,48,48,49,49,50,50,51,51,52,52,53,53,54,54,55,55,56,56,59,59,60,60,61,61,62,62],"right_children":[2,4,6,8,10,12,14,16,18,20,22,24,26,28,30,32,34,36,38,40,42,44,46,48,50,52,54,56,58,60,62,64,66,68,70,72,74,76,78,80,82,84,86,88,90,92,94,96,98,100,102,104,106,108,110,112,114,-1,-1,116,118,120,122,-1,-1,-1,-1,-1,-1,-1,-1,-1,-1,-1,-1,-1,-1,-1,-1,-1,-1,-1,-1,-1,-1,-1,-1,-1,-1,-1,-1,-1,-1,-1,-1,-1,-1,-1,-1,-1,-1,-1,-1,-1,-1,-1,-1,-1,-1,-1,-1,-1,-1,-1,-1,-1,-1,-1,-1,-1,-1,-1,-1],"split_conditions":[4.94902E3,8.526921E-1,1.026593E4,6E1,9.0467083E-1,6E1,9.877174E-1,7.772576E-1,7.570493E-1,8.7840605E-1,9.235159E-1,8.5175586E-1,5.42494E3,9.861144E-1,9.900065E-1,7.441298E-1,7.8007853E-1,5.9E2,7.605449E-1,8.585468E-1,8.933215E-1,9.227463E-1,9.291327E-1,7.772576E-1,8.80501E-1,2E0,1E0,6E1,8.22E2,7.49E2,8.43E2,7.419627E-1,7.570493E-1,6E0,8.522121E-1,4E0,7.5295746E-1,3.1559E3,7.62364E-1,8.5760576E-1,8.662593E-1,8.80501E-1,8.9902085E-1,9.1271174E-1,9.2322195E-1,9.2862356E-1,9.3242353E-1,7.441298E-1,7.1E2,8.768914E-1,8.839399E-1,1E0,9.154366E-1,7.11E2,9.708583E-1,1.504391E4,7.41E2,1.0044949E0,3.5177302E-1,6.92E2,2.160168E4,2.747572E4,9.929307E-1,1.7841585E-3,7.534015E-1,-2.9059735E-1,-5.4176427E-2,1.0525396E0,4.611427E-1,3.3662636E-2,4.9447224E-1,-4.8902726E-1,-1.6443092E-2,1.3803247E-1,-2.1130471E-1,5.9465224E-1,-3.7603476E-3,-3.4851706E-1,2.518532E-1,-2.6887283E-1,3.507311E-1,-4.9766502E-1,-2.639067E-1,-2.1326034E-1,-1.6433476E-2,-4.4899902E-1,-2.442185E-1,2.9755273E-1,-2.5594229E-2,6.0167754E-1,8.583785E-1,-3.2622135E-1,-9.768225E-1,8.20389E-1,-5.8936875E-2,1.3711645E-1,-8.122706E-2,3.0444297E-1,1.6764015E-1,-5.7178225E-2,-3.854584E-1,4.5245162E-1,5.594727E-2,-3.1750107E-1,4.8456737E-1,-2.0052047E-1,3.6943093E-1,4.3751612E-1,2.4983647E-1,6.698708E-1,-1.8259259E-1,3.154994E-1,2.013599E-1,3.4986445E-1,6.18663E-1,-2.2738855E-1,4.5192534E-1,-4.6271893E-1,4.4368535E-2,2.7927464E-1,-6.424282E-2,1.17028885E-1,-3.554623E-1],"split_indices":[0,4,0,1,4,1,4,4,4,4,4,4,0,4,4,4,4,2,4,4,4,4,4,4,4,7,8,1,2,2,2,4,4,7,4,7,4,0,4,4,4,4,4,4,4,4,4,4,2,4,4,7,4,2,4,0,2,0,0,2,0,0,4,0,0,0,0,0,0,0,0,0,0,0,0,0,0,0,0,0,0,0,0,0,0,0,0,0,0,0,0,0,0,0,0,0,0,0,0,0,0,0,0,0,0,0,0,0,0,0,0,0,0,0,0,0,0,0,0,0,0,0,0],"split_type":[0,0,0,0,0,0,0,0,0,0,0,0,0,0,0,0,0,0,0,0,0,0,0,0,0,0,0,0,0,0,0,0,0,0,0,0,0,0,0,0,0,0,0,0,0,0,0,0,0,0,0,0,0,0,0,0,0,0,0,0,0,0,0,0,0,0,0,0,0,0,0,0,0,0,0,0,0,0,0,0,0,0,0,0,0,0,0,0,0,0,0,0,0,0,0,0,0,0,0,0,0,0,0,0,0,0,0,0,0,0,0,0,0,0,0,0,0,0,0,0,0,0,0],"sum_hessian":[2.7965E4,2.2398E4,5.567E3,1.1099E4,1.1299E4,3.478E3,2.089E3,9.987E3,1.112E3,3.925E3,7.374E3,3.134E3,3.44E2,2.002E3,8.7E1,5.094E3,4.893E3,4.29E2,6.83E2,1.777E3,2.148E3,1.329E3,6.045E3,1.596E3,1.538E3,4.2E1,3.02E2,1.986E3,1.6E1,4.6E1,4.1E1,2.931E3,2.163E3,4.1E1,4.852E3,2.1E1,4.08E2,3.8E1,6.45E2,6.25E2,1.152E3,1.448E3,7E2,1.163E3,1.66E2,7.71E2,5.274E3,8.19E2,7.77E2,2.94E2,1.244E3,1.3E1,2.9E1,2.71E2,3.1E1,1.783E3,2.03E2,1.3E1,3E0,2.9E1,1.7E1,3.5E1,6E0,2.853E3,7.8E1,8.49E2,1.314E3,3.8E1,3E0,4.756E3,9.6E1,1.4E1,7E0,3.7E2,3.8E1,3.4E1,4E0,2.6E1,6.19E2,5.27E2,9.8E1,4.36E2,7.16E2,2.83E2,1.165E3,3.8E2,3.2E2,3.58E2,8.05E2,7.7E1,8.9E1,6.91E2,8E1,2.04E2,5.07E3,4.67E2,3.52E2,3.2E2,4.57E2,2.41E2,5.3E1,4.5E1,1.199E3,1E0,1.2E1,2.1E1,8E0,1.24E2,1.47E2,2.9E1,2E0,8.64E2,9.19E2,1.32E2,7.1E1,2.1E1,8E0,1.3E1,4E0,2.7E1,8E0,3E0,3E0],"tree_param":{"num_deleted":"0","num_feature":"13","num_nodes":"123","size_leaf_vector":"1"}},{"base_weights":[3.8248878E-2,-5.444869E0,5.472972E0,-8.20072E0,-3.057877E0,2.5800111E0,7.923624E0,-9.438413E0,-6.8373575E0,-4.407066E0,-1.6907672E0,1.5283371E0,4.0635076E0,6.725486E0,9.590008E0,-9.671062E0,-7.3736863E0,-7.062802E0,-5.0004306E0,-4.7848396E0,-2.9406652E0,-2.0500507E0,-4.910177E-2,8.659728E-1,2.1955283E0,3.662574E0,5.673936E0,6.5129786E0,9.237381E0,8.743417E0,1.01642685E1,-9.904321E0,-7.665142E0,-7.9537077E0,-6.0688334E0,-7.255777E0,-5.1202908E0,-5.164818E0,-1.0943881E0,-5.321898E0,-4.0769744E0,-3.5308359E0,-1.9849014E0,-2.5889473E0,-9.0783095E-1,-7.93251E-1,9.151366E-1,5.2207744E-1,2.061462E0,1.9724686E0,5.039796E0,3.0542407E0,4.182258E0,4.994378E0,6.5216355E0,5.841872E0,7.250883E0,7.873342E0,9.71331E0,8.487714E0,1.0963717E0,9.8366375E0,1.1504392E1,-1.0596008E0,-9.2816955E-1,-8.450351E-1,-6.953211E-1,-4.1541338E-1,-8.0344146E-1,-6.244328E-1,-1.956956E-1,-7.592926E-1,-6.649614E-1,-6.2515E-1,-4.657077E-1,-6.17137E-1,-4.7303897E-1,-1.6231455E-1,7.65481E-2,-5.534165E-1,-3.571186E-1,-4.260424E-1,-2.4186103E-1,-3.700848E-1,-8.7996416E-2,-2.7134353E-1,-9.8833315E-2,-2.7570274E-1,-1.0148437E-1,-1.1394178E-1,1.415635E-1,-1.4119698E-1,1.893849E-3,-2.4702353E-2,1.6650422E-1,3.4908723E-2,1.9698869E-1,1.2816934E-1,2.8537527E-1,1.7613767E-1,3.669622E-1,4.7214302E-1,6.990624E-1,2.5223672E-1,3.3837208E-1,4.016129E-1,5.6468314E-1,4.4513178E-1,6.3313615E-1,6.1340547E-1,7.31958E-1,5.636935E-1,7.655321E-1,7.103403E-1,8.613143E-1,7.9757684E-1,3.574811E-1,9.426676E-1,1.131249E0,8.2938194E-1,1.0304983E0,9.681123E-1,1.1166904E0,1.064535E0,1.1950974E0],"categories":[],"categories_nodes":[],"categories_segments":[],"categories_sizes":[],"default_left":[0,0,0,0,0,0,0,0,0,0,0,0,0,0,0,0,0,0,0,0,0,0,0,0,0,0,0,0,0,0,0,0,0,0,0,0,0,0,0,0,0,0,0,0,0,0,0,0,0,0,0,0,0,0,0,0,0,0,0,0,0,0,0,0,0,0,0,0,0,0,0,0,0,0,0,0,0,0,0,0,0,0,0,0,0,0,0,0,0,0,0,0,0,0,0,0,0,0,0,0,0,0,0,0,0,0,0,0,0,0,0,0,0,0,0,0,0,0,0,0,0,0,0,0,0],"id":7,"left_children":[1,3,5,7,9,11,13,15,17,19,21,23,25,27,29,31,33,35,37,39,41,43,45,47,49,51,53,55,57,59,61,63,65,67,69,71,73,75,77,79,81,83,85,87,89,91,93,95,97,99,101,103,105,107,109,111,113,115,117,119,-1,121,123,-1,-1,-1,-1,-1,-1,-1,-1,-1,-1,-1,-1,-1,-1,-1,-1,-1,-1,-1,-1,-1,-1,-1,-1,-1,-1,-1,-1,-1,-1,-1,-1,-1,-1,-1,-1,-1,-1,-1,-1,-1,-1,-1,-1,-1,-1,-1,-1,-1,-1,-1,-1,-1,-1,-1,-1,-1,-1,-1,-1,-1,-1],"loss_changes":[8.336632E5,9.158284E4,9.958903E4,1.08413125E4,1.375982E4,1.0048988E4,1.51213125E4,1.5546562E3,1.2397812E3,2.0666328E3,2.1875537E3,1.6654775E3,1.7051094E3,2.3035E3,1.456625E3,1.3460312E3,2.1435547E2,9.899531E2,2.1266211E2,1.1130938E3,4.284497E2,1.8707324E3,4.7932327E2,7.780021E2,1.1821738E3,6.6471875E2,2.733164E2,1.9810625E3,1.4619531E2,6.4046094E2,7.1578125E2,1.0725938E3,1.206875E2,3.9299805E1,6.787915E1,4.58375E2,1.024082E2,1.133584E2,1.5993778E1,6.097617E2,3.8275586E2,2.112666E2,2.129502E2,5.440801E2,5.2732117E2,1.8947559E2,2.540208E2,3.6823535E2,2.5767334E2,6.18334E2,5.1460693E1,1.6512988E2,2.5785547E2,1.8891016E2,2.7161133E1,7.5402344E2,3.2896875E2,1.2875E1,7.955078E0,3.243203E2,0E0,2.0717188E2,1.28046875E1,0E0,0E0,0E0,0E0,0E0,0E0,0E0,0E0,0E0,0E0,0E0,0E0,0E0,0E0,0E0,0E0,0E0,0E0,0E0,0E0,0E0,0E0,0E0,0E0,0E0,0E0,0E0,0E0,0E0,0E0,0E0,0E0,0E0,0E0,0E0,0E0,0E0,0E0,0E0,0E0,0E0,0E0,0E0,0E0,0E0,0E0,0E0,0E0,0E0,0E0,0E0,0E0,0E0,0E0,0E0,0E0,0E0,0E0,0E0,0E0,0E0,0E0],"parents":[2147483647,0,0,1,1,2,2,3,3,4,4,5,5,6,6,7,7,8,8,9,9,10,10,11,11,12,12,13,13,14,14,15,15,16,16,17,17,18,18,19,19,20,20,21,21,22,22,23,23,24,24,25,25,26,26,27,27,28,28,29,29,30,30,31,31,32,32,33,33,34,34,35,35,36,36,37,37,38,38,39,39,40,40,41,41,42,42,43,43,44,44,45,45,46,46,47,47,48,48,49,49,50,50,51,51,52,52,53,53,54,54,55,55,56,56,57,57,58,58,59,59,61,61,62,62],"right_children":[2,4,6,8,10,12,14,16,18,20,22,24,26,28,30,32,34,36,38,40,42,44,46,48,50,52,54,56,58,60,62,64,66,68,70,72,74,76,78,80,82,84,86,88,90,92,94,96,98,100,102,104,106,108,110,112,114,116,118,120,-1,122,124,-1,-1,-1,-1,-1,-1,-1,-1,-1,-1,-1,-1,-1,-1,-1,-1,-1,-1,-1,-1,-1,-1,-1,-1,-1,-1,-1,-1,-1,-1,-1,-1,-1,-1,-1,-1,-1,-1,-1,-1,-1,-1,-1,-1,-1,-1,-1,-1,-1,-1,-1,-1,-1,-1,-1,-1,-1,-1,-1,-1,-1,-1],"split_conditions":[9.69552E0,1.7251308E0,1.7541624E1,-1.637709E0,5.92473E0,1.3892998E1,2.1741238E1,8.35371E3,6E1,1E0,5.31795E3,1.208157E1,1E0,9.91715E3,2.3533909E1,6E1,-2.711385E0,8.15608E3,1.303051E4,4.2849646E0,9.91715E3,8.383619E0,1.026593E4,4.79118E3,1.060618E4,1.5846362E1,9.34238E3,1.9884548E1,1.8691141E1,8.35371E3,1E0,-3.570706E0,-3.570706E0,8.59684E3,6E1,5.901794E-1,-5.873426E-1,-5.873426E-1,8.976448E-1,6E1,6E1,6E1,4.2849646E0,6E1,6E1,7.9709272E0,7.399052E0,6E1,1.1206451E1,6E1,3.232607E4,1.4597518E1,6E1,1.6942125E1,1.6922E1,6E1,6E1,4.9E1,2.1155148E1,6E1,1.0963717E0,6E1,2.403919E1,-1.0596008E0,-9.2816955E-1,-8.450351E-1,-6.953211E-1,-4.1541338E-1,-8.0344146E-1,-6.244328E-1,-1.956956E-1,-7.592926E-1,-6.649614E-1,-6.2515E-1,-4.657077E-1,-6.17137E-1,-4.7303897E-1,-1.6231455E-1,7.65481E-2,-5.534165E-1,-3.571186E-1,-4.260424E-1,-2.4186103E-1,-3.700848E-1,-8.7996416E-2,-2.7134353E-1,-9.8833315E-2,-2.7570274E-1,-1.0148437E-1,-1.1394178E-1,1.415635E-1,-1.4119698E-1,1.893849E-3,-2.4702353E-2,1.6650422E-1,3.4908723E-2,1.9698869E-1,1.2816934E-1,2.8537527E-1,1.7613767E-1,3.669622E-1,4.7214302E-1,6.990624E-1,2.5223672E-1,3.3837208E-1,4.016129E-1,5.6468314E-1,4.4513178E-1,6.3313615E-1,6.1340547E-1,7.31958E-1,5.636935E-1,7.655321E-1,7.103403E-1,8.613143E-1,7.9757684E-1,3.574811E-1,9.426676E-1,1.131249E0,8.2938194E-1,1.0304983E0,9.681123E-1,1.1166904E0,1.064535E0,1.1950974E0],"split_indices":[3,3,3,3,3,3,3,0,1,10,0,3,10,0,3,1,3,0,0,3,0,3,0,0,0,3,0,3,3,0,10,3,3,0,1,3,3,3,3,1,1,1,3,1,1,3,3,1,3,1,0,3,1,3,3,1,1,9,3,1,0,1,3,0,0,0,0,0,0,0,0,0,0,0,0,0,0,0,0,0,0,0,0,0,0,0,0,0,0,0,0,0,0,0,0,0,0,0,0,0,0,0,0,0,0,0,0,0,0,0,0,0,0,0,0,0,0,0,0,0,0,0,0,0,0],"split_type":[0,0,0,0,0,0,0,0,0,0,0,0,0,0,0,0,0,0,0,0,0,0,0,0,0,0,0,0,0,0,0,0,0,0,0,0,0,0,0,0,0,0,0,0,0,0,0,0,0,0,0,0,0,0,0,0,0,0,0,0,0,0,0,0,0,0,0,0,0,0,0,0,0,0,0,0,0,0,0,0,0,0,0,0,0,0,0,0,0,0,0,0,0,0,0,0,0,0,0,0,0,0,0,0,0,0,0,0,0,0,0,0,0,0,0,0,0,0,0,0,0,0,0,0,0],"sum_hessian":[2.7974E4,1.3925E4,1.4049E4,6.462E3,7.463E3,6.444E3,7.605E3,3.384E3,3.078E3,3.755E3,3.708E3,3.772E3,2.672E3,4.427E3,3.178E3,3.038E3,3.46E2,2.739E3,3.39E2,2.984E3,7.71E2,3.042E3,6.66E2,1.894E3,1.878E3,2.142E3,5.3E2,4.085E3,3.42E2,1.291E3,1.887E3,2.718E3,3.2E2,2.36E2,1.1E2,2.489E3,2.5E2,3.25E2,1.4E1,1.693E3,1.291E3,4.75E2,2.96E2,2.066E3,9.76E2,3.76E2,2.9E2,1.472E3,4.22E2,1.743E3,1.35E2,9.9E2,1.152E3,2.98E2,2.32E2,2.144E3,1.941E3,9.3E1,2.49E2,1.162E3,1.29E2,1.523E3,3.64E2,1.28E3,1.438E3,1.47E2,1.73E2,6E0,2.3E2,1.05E2,5E0,1.592E3,8.97E2,6.9E1,1.81E2,9.4E1,2.31E2,1.1E1,3E0,1.508E3,1.85E2,1.161E3,1.3E2,4.46E2,2.9E1,1.7E2,1.26E2,1.866E3,2E2,8.88E2,8.8E1,2.13E2,1.63E2,1.14E2,1.76E2,1.316E3,1.56E2,2.14E2,2.08E2,1.552E3,1.91E2,1.19E2,1.6E1,3.82E2,6.08E2,1.038E3,1.14E2,2.15E2,8.3E1,1.62E2,7E1,1.93E3,2.14E2,1.757E3,1.84E2,9E1,3E0,2.17E2,3.2E1,1.055E3,1.07E2,1.371E3,1.52E2,1.33E2,2.31E2],"tree_param":{"num_deleted":"0","num_feature":"13","num_nodes":"125","size_leaf_vector":"1"}},{"base_weights":[9.332029E-3,-2.9447094E-1,1.255122E0,1.22724384E-1,-7.109358E-1,7.616701E-1,2.0904167E0,8.210744E-2,4.1557612E0,-1.6174707E0,-2.1431309E-1,1.2754902E0,2.3656757E-1,2.675948E0,1.5582514E0,1.2544845E-1,-9.148604E0,4.864731E0,3.6608837E0,-1.3212837E0,-2.8054044E0,3.4549496E0,-3.5956344E-1,5.338906E-1,2.1019418E0,-8.027937E-1,8.860669E-1,1.8508676E0,3.8232112E0,-1.2051796E0,2.0567553E0,3.434627E-2,2.2416549E0,-9.3267566E-1,-3.129874E-1,3.039257E0,5.641192E0,4.136047E0,1.2593179E0,-2.0545015E0,2.0870319E-2,-3.7696745E0,-1.8930889E0,3.4231558E-1,4.926663E0,-7.899246E-1,3.47815E-1,1.3712393E0,-4.6621802E-1,2.3243144E0,5.400915E-1,5.103351E-1,-1.258591E0,2.4578202E0,5.363678E-1,2.6680489E0,9.976337E-1,8.076667E0,3.5571046E0,7.81288E-1,-2.4203E0,9.5607156E-1,2.4817429E0,-3.6634293E-1,6.666254E-3,5.494908E-1,2.7731502E-2,2.1164571E-1,4.4615656E-1,6.119088E-1,1.1245694E-1,-2.0500137E-2,4.376559E-1,2.1930973E-1,-1.3899605E-1,-6.53366E-2,-2.2741675E-1,2.3934983E-1,-8.416682E-2,-3.0104095E-1,-4.5411325E-1,-1.8260377E-2,-3.2046568E-1,2.912682E-1,-2.9616266E-2,7.131618E-1,4.7358045E-1,-5.7988524E-2,-5.3109294E-1,2.6222393E-1,-3.2444533E-2,1.18323065E-1,8.337779E-1,-2.3831506E-1,-1.3386138E-2,3.2052624E-1,1.8863185E-1,-3.241518E-2,2.2531472E-1,1.1114611E-1,-1.3481313E-1,-1.3397996E-2,-1.5932253E-1,1.6658282E-1,7.2067404E-1,-3.3195838E-1,7.832482E-2,1.1074332E-1,3.3052266E-1,7.425541E-2,4.251034E-1,3.3124784E-1,8.9053124E-1,-3.9716348E-1,3.7287664E-1,2.945196E-1,-2.411396E-1,7.419824E-2,-3.4028226E-1,-4.9552336E-2,2.1993719E-1,2.7621615E-1,-1.4214478E-2],"categories":[],"categories_nodes":[],"categories_segments":[],"categories_sizes":[],"default_left":[0,0,0,0,0,0,0,0,0,0,0,0,0,0,0,0,0,0,0,0,0,0,0,0,0,0,0,0,0,0,0,0,0,0,0,0,0,0,0,0,0,0,0,0,0,0,0,0,0,0,0,0,0,0,0,0,0,0,0,0,0,0,0,0,0,0,0,0,0,0,0,0,0,0,0,0,0,0,0,0,0,0,0,0,0,0,0,0,0,0,0,0,0,0,0,0,0,0,0,0,0,0,0,0,0,0,0,0,0,0,0,0,0,0,0,0,0,0,0,0,0,0,0],"id":8,"left_children":[1,3,5,7,9,11,13,15,17,19,21,23,25,27,29,31,33,35,37,39,41,43,45,47,49,51,53,55,57,59,61,63,65,-1,-1,67,69,71,73,75,77,79,81,83,85,87,89,91,93,95,97,99,101,103,105,107,109,111,113,115,117,119,121,-1,-1,-1,-1,-1,-1,-1,-1,-1,-1,-1,-1,-1,-1,-1,-1,-1,-1,-1,-1,-1,-1,-1,-1,-1,-1,-1,-1,-1,-1,-1,-1,-1,-1,-1,-1,-1,-1,-1,-1,-1,-1,-1,-1,-1,-1,-1,-1,-1,-1,-1,-1,-1,-1,-1,-1,-1,-1,-1,-1],"loss_changes":[1.0586685E4,3.9073135E3,2.258791E3,1.84006E3,5.06627E3,9.302671E2,6.302461E2,4.4515073E3,2.1486328E1,1.3977148E3,3.8769402E3,1.0671558E3,1.1530464E3,9.092173E2,1.4751125E3,2.1346975E3,2.6564941E1,4.3803528E1,7.467096E1,3.139294E3,6.9136035E2,1.2672244E3,2.1300547E3,7.710838E2,2.8493018E2,3.938704E2,5.763541E2,3.9128284E2,4.2854688E2,3.9775366E2,4.214331E2,1.2689576E3,2.9189324E3,0E0,0E0,1.0244888E1,5.5714478E1,6.145349E1,3.5208267E1,6.334678E2,2.3104473E3,2.1183936E2,9.192157E2,1.4856369E2,4.5342773E1,4.1276333E3,4.048128E3,6.4632916E2,2.672652E2,2.721526E2,1.5470204E2,1.9141771E2,1.834372E2,7.063661E2,8.222366E2,2.8272388E2,2.2754892E2,6.130139E1,5.0850488E2,4.423485E2,3.194402E2,4.5950098E2,4.8086133E2,0E0,0E0,0E0,0E0,0E0,0E0,0E0,0E0,0E0,0E0,0E0,0E0,0E0,0E0,0E0,0E0,0E0,0E0,0E0,0E0,0E0,0E0,0E0,0E0,0E0,0E0,0E0,0E0,0E0,0E0,0E0,0E0,0E0,0E0,0E0,0E0,0E0,0E0,0E0,0E0,0E0,0E0,0E0,0E0,0E0,0E0,0E0,0E0,0E0,0E0,0E0,0E0,0E0,0E0,0E0,0E0,0E0,0E0,0E0,0E0],"parents":[2147483647,0,0,1,1,2,2,3,3,4,4,5,5,6,6,7,7,8,8,9,9,10,10,11,11,12,12,13,13,14,14,15,15,16,16,17,17,18,18,19,19,20,20,21,21,22,22,23,23,24,24,25,25,26,26,27,27,28,28,29,29,30,30,31,31,32,32,35,35,36,36,37,37,38,38,39,39,40,40,41,41,42,42,43,43,44,44,45,45,46,46,47,47,48,48,49,49,50,50,51,51,52,52,53,53,54,54,55,55,56,56,57,57,58,58,59,59,60,60,61,61,62,62],"right_children":[2,4,6,8,10,12,14,16,18,20,22,24,26,28,30,32,34,36,38,40,42,44,46,48,50,52,54,56,58,60,62,64,66,-1,-1,68,70,72,74,76,78,80,82,84,86,88,90,92,94,96,98,100,102,104,106,108,110,112,114,116,118,120,122,-1,-1,-1,-1,-1,-1,-1,-1,-1,-1,-1,-1,-1,-1,-1,-1,-1,-1,-1,-1,-1,-1,-1,-1,-1,-1,-1,-1,-1,-1,-1,-1,-1,-1,-1,-1,-1,-1,-1,-1,-1,-1,-1,-1,-1,-1,-1,-1,-1,-1,-1,-1,-1,-1,-1,-1,-1,-1,-1,-1],"split_conditions":[1E0,8.526921E-1,1.026593E4,8.522121E-1,9.059774E-1,8.5175586E-1,8.526921E-1,8.5175586E-1,8.9504E2,8.933215E-1,9.1271174E-1,7.822685E-1,9.059774E-1,7.954497E-1,8.7840605E-1,8.4411097E-1,3.43151E3,3.9173E2,4.3E1,8.80501E-1,8.9902085E-1,9.1011983E-1,9.5827895E-1,7.441298E-1,8.26E2,5.72648E3,9.235159E-1,1.586471E4,7.9811424E-1,2E1,1.6E1,7.019783E-1,8.470688E-1,-9.3267566E-1,-3.129874E-1,7.95E2,1E0,9.7806E2,8.17E2,8.5490996E-1,8.839399E-1,1.29872E3,9.0291053E-1,6.63E2,5E0,9.562617E-1,9.6498424E-1,7.419627E-1,5.51091E3,8.0363625E-1,8.285652E-1,8.90243E-1,1.3E1,9.227463E-1,9.265577E-1,1.146912E4,4.7E1,6.31E2,7.998713E-1,1.839436E4,8.571549E-1,9.291327E-1,9.877174E-1,-3.6634293E-1,6.666254E-3,5.494908E-1,2.7731502E-2,2.1164571E-1,4.4615656E-1,6.119088E-1,1.1245694E-1,-2.0500137E-2,4.376559E-1,2.1930973E-1,-1.3899605E-1,-6.53366E-2,-2.2741675E-1,2.3934983E-1,-8.416682E-2,-3.0104095E-1,-4.5411325E-1,-1.8260377E-2,-3.2046568E-1,2.912682E-1,-2.9616266E-2,7.131618E-1,4.7358045E-1,-5.7988524E-2,-5.3109294E-1,2.6222393E-1,-3.2444533E-2,1.18323065E-1,8.337779E-1,-2.3831506E-1,-1.3386138E-2,3.2052624E-1,1.8863185E-1,-3.241518E-2,2.2531472E-1,1.1114611E-1,-1.3481313E-1,-1.3397996E-2,-1.5932253E-1,1.6658282E-1,7.2067404E-1,-3.3195838E-1,7.832482E-2,1.1074332E-1,3.3052266E-1,7.425541E-2,4.251034E-1,3.3124784E-1,8.9053124E-1,-3.9716348E-1,3.7287664E-1,2.945196E-1,-2.411396E-1,7.419824E-2,-3.4028226E-1,-4.9552336E-2,2.1993719E-1,2.7621615E-1,-1.4214478E-2],"split_indices":[10,4,0,4,4,4,4,4,0,4,4,4,4,4,4,4,0,0,9,4,4,4,4,4,2,0,4,0,4,9,9,4,4,0,0,2,8,0,2,4,4,0,4,2,9,4,4,4,0,4,4,4,9,4,4,0,9,2,4,0,4,4,4,0,0,0,0,0,0,0,0,0,0,0,0,0,0,0,0,0,0,0,0,0,0,0,0,0,0,0,0,0,0,0,0,0,0,0,0,0,0,0,0,0,0,0,0,0,0,0,0,0,0,0,0,0,0,0,0,0,0,0,0],"split_type":[0,0,0,0,0,0,0,0,0,0,0,0,0,0,0,0,0,0,0,0,0,0,0,0,0,0,0,0,0,0,0,0,0,0,0,0,0,0,0,0,0,0,0,0,0,0,0,0,0,0,0,0,0,0,0,0,0,0,0,0,0,0,0,0,0,0,0,0,0,0,0,0,0,0,0,0,0,0,0,0,0,0,0,0,0,0,0,0,0,0,0,0,0,0,0,0,0,0,0,0,0,0,0,0,0,0,0,0,0,0,0,0,0,0,0,0,0,0,0,0,0,0,0],"sum_hessian":[2.797E4,2.2487E4,5.483E3,1.1234E4,1.1253E4,3.448E3,2.035E3,1.1123E4,1.11E2,3.982E3,7.271E3,1.742E3,1.706E3,9.67E2,1.068E3,1.1072E4,5.1E1,4.2E1,6.9E1,3.189E3,7.93E2,2.76E2,6.995E3,9.19E2,8.23E2,6.56E2,1.05E3,5.64E2,4.03E2,1.63E2,9.05E2,1.0616E4,4.56E2,4.9E1,2E0,1.4E1,2.8E1,5.7E1,1.2E1,2.062E3,1.127E3,3.84E2,4.09E2,8.9E1,1.87E2,4.349E3,2.646E3,5E2,4.19E2,7.2E2,1.03E2,1.69E2,4.87E2,1.9E2,8.6E2,2.87E2,2.77E2,2.2E1,3.81E2,6.2E1,1.01E2,2.53E2,6.52E2,9.1E1,1.0525E4,1.71E2,2.85E2,1E1,4E0,2.5E1,3E0,3E0,5.4E1,9E0,3E0,2.8E2,1.782E3,3E2,8.27E2,1.96E2,1.88E2,1.78E2,2.31E2,1.7E1,7.2E1,1.2E1,1.75E2,4.157E3,1.92E2,6.03E2,2.043E3,4.88E2,1.2E1,6.1E1,3.58E2,2.37E2,4.83E2,6.9E1,3.4E1,1.28E2,4.1E1,1.12E2,3.75E2,1.64E2,2.6E1,5.1E1,8.09E2,8.4E1,2.03E2,2.58E2,1.9E1,4E0,1.8E1,8E0,3.73E2,3.7E1,2.5E1,2.4E1,7.7E1,1.17E2,1.36E2,5.89E2,6.3E1],"tree_param":{"num_deleted":"0","num_feature":"13","num_nodes":"123","size_leaf_vector":"1"}},{"base_weights":[4.5358534E-3,-4.8502245E0,4.8516655E0,-7.0764475E0,-2.4270315E0,2.159808E0,7.0018296E0,-8.481141E0,-5.8436184E0,-3.297831E0,-9.873879E-1,8.9770764E-1,3.1386614E0,5.8656535E0,8.419042E0,-8.97036E0,-7.8738375E0,-6.443533E0,-5.3109856E0,-3.9697638E0,-2.735303E0,-1.2751186E0,3.5241476E-1,6.023422E-1,1.9062536E0,2.4392114E0,3.799042E0,5.0676765E0,6.443541E0,7.4659376E0,8.909673E0,-9.129506E0,-7.677392E0,-8.078097E0,-6.229665E0,-6.5823483E0,-5.1650515E0,-5.430489E0,-2.834139E0,-4.251162E0,-2.6677945E0,-3.0134704E0,-1.5530385E0,-1.7782953E0,-7.1280247E-1,-2.385218E-1,1.1103923E0,2.3752038E-1,9.450691E-1,9.1806257E-1,2.4660714E0,2.2451317E0,4.6767797E0,3.4591925E0,5.124755E0,4.829369E0,7.4287043E0,6.127228E0,7.7707524E0,7.197441E0,8.695824E0,8.639755E0,1.0030817E1,-8.012349E-1,-9.218057E-1,-4.2104602E-1,-7.7407944E-1,-8.174016E-1,-7.337364E-1,-6.622024E-1,-5.036914E-1,-6.801929E-1,-6.135211E-1,-5.275233E-1,-2.0954262E-1,-5.720534E-1,-5.002393E-1,-3.1388843E-1,4.943582E-2,-2.6908705E-1,-4.298947E-1,-2.95838E-1,-2.0248254E-1,-3.37063E-1,-2.7130732E-1,-1.9078764E-1,-7.917167E-2,-1.7272411E-1,-3.597171E-1,-6.707487E-2,-2.704153E-1,4.969089E-2,-4.862945E-2,6.612752E-2,1.632005E-1,3.588913E-2,-5.2794617E-2,9.759324E-2,-1.8933825E-1,5.7840306E-2,1.8802188E-1,5.222718E-1,2.357736E-1,2.8545752E-1,2.052676E-1,5.119026E-1,3.4569168E-1,3.03982E-1,3.6681095E-1,4.6480498E-1,5.9507364E-1,4.670252E-1,5.280695E-1,7.4996024E-1,3.6600414E-1,5.7555544E-1,6.285898E-1,7.4270326E-1,8.401386E-1,6.472399E-1,7.281129E-1,8.096692E-1,9.6220016E-1,8.081914E-1,9.0576094E-1,9.5793766E-1,1.0827701E0],"categories":[],"categories_nodes":[],"categories_segments":[],"categories_sizes":[],"default_left":[0,0,0,0,0,0,0,0,0,0,0,0,0,0,0,0,0,0,0,0,0,0,0,0,0,0,0,0,0,0,0,0,0,0,0,0,0,0,0,0,0,0,0,0,0,0,0,0,0,0,0,0,0,0,0,0,0,0,0,0,0,0,0,0,0,0,0,0,0,0,0,0,0,0,0,0,0,0,0,0,0,0,0,0,0,0,0,0,0,0,0,0,0,0,0,0,0,0,0,0,0,0,0,0,0,0,0,0,0,0,0,0,0,0,0,0,0,0,0,0,0,0,0,0,0,0,0],"id":9,"left_children":[1,3,5,7,9,11,13,15,17,19,21,23,25,27,29,31,33,35,37,39,41,43,45,47,49,51,53,55,57,59,61,63,65,67,69,71,73,75,77,79,81,83,85,87,89,91,93,95,97,99,101,103,105,107,109,111,113,115,117,119,121,123,125,-1,-1,-1,-1,-1,-1,-1,-1,-1,-1,-1,-1,-1,-1,-1,-1,-1,-1,-1,-1,-1,-1,-1,-1,-1,-1,-1,-1,-1,-1,-1,-1,-1,-1,-1,-1,-1,-1,-1,-1,-1,-1,-1,-1,-1,-1,-1,-1,-1,-1,-1,-1,-1,-1,-1,-1,-1,-1,-1,-1,-1,-1,-1,-1],"loss_changes":[6.5822744E5,7.537191E4,8.099859E4,1.2562781E4,8.387363E3,7.6777363E3,1.2479625E4,9.401094E2,1.2062031E3,1.5653242E3,9.7345703E2,8.08218E2,1.6078555E3,1.9604062E3,1.5514375E3,3.1614062E2,4.6216406E2,2.8917188E2,5.949414E2,6.8403125E2,7.42834E2,5.866909E2,2.0048357E2,2.627226E2,3.3795825E2,7.2905566E2,7.927988E2,9.8814844E2,1.0031875E3,3.2773438E2,6.030156E2,9.0953125E1,1.40078125E1,3.6226562E1,4.7606934E1,1.1919531E2,5.0839844E1,2.155E2,9.9943115E1,1.0466797E2,5.7534668E1,1.8816211E2,1.1600293E2,9.5562256E1,8.050629E1,4.6161E1,4.4836777E1,9.495297E1,9.681061E1,7.211691E1,1.0475391E2,1.7816943E2,5.513379E1,1.1457617E2,1.1605957E2,9.426172E1,1.6638672E1,8.3296875E1,4.121289E1,1.209375E1,3.6958008E1,3.56625E2,5.3125E1,0E0,0E0,0E0,0E0,0E0,0E0,0E0,0E0,0E0,0E0,0E0,0E0,0E0,0E0,0E0,0E0,0E0,0E0,0E0,0E0,0E0,0E0,0E0,0E0,0E0,0E0,0E0,0E0,0E0,0E0,0E0,0E0,0E0,0E0,0E0,0E0,0E0,0E0,0E0,0E0,0E0,0E0,0E0,0E0,0E0,0E0,0E0,0E0,0E0,0E0,0E0,0E0,0E0,0E0,0E0,0E0,0E0,0E0,0E0,0E0,0E0,0E0,0E0,0E0],"parents":[2147483647,0,0,1,1,2,2,3,3,4,4,5,5,6,6,7,7,8,8,9,9,10,10,11,11,12,12,13,13,14,14,15,15,16,16,17,17,18,18,19,19,20,20,21,21,22,22,23,23,24,24,25,25,26,26,27,27,28,28,29,29,30,30,31,31,32,32,33,33,34,34,35,35,36,36,37,37,38,38,39,39,40,40,41,41,42,42,43,43,44,44,45,45,46,46,47,47,48,48,49,49,50,50,51,51,52,52,53,53,54,54,55,55,56,56,57,57,58,58,59,59,60,60,61,61,62,62],"right_children":[2,4,6,8,10,12,14,16,18,20,22,24,26,28,30,32,34,36,38,40,42,44,46,48,50,52,54,56,58,60,62,64,66,68,70,72,74,76,78,80,82,84,86,88,90,92,94,96,98,100,102,104,106,108,110,112,114,116,118,120,122,124,126,-1,-1,-1,-1,-1,-1,-1,-1,-1,-1,-1,-1,-1,-1,-1,-1,-1,-1,-1,-1,-1,-1,-1,-1,-1,-1,-1,-1,-1,-1,-1,-1,-1,-1,-1,-1,-1,-1,-1,-1,-1,-1,-1,-1,-1,-1,-1,-1,-1,-1,-1,-1,-1,-1,-1,-1,-1,-1,-1,-1,-1,-1,-1,-1],"split_conditions":[9.69552E0,2.6939743E0,1.73844E1,-1.637709E0,6.8622303E0,1.2909775E1,2.1277903E1,-3.2881117E0,5.713219E-1,4.877686E0,5.42494E3,4.79118E3,1.49158325E1,1.9081274E1,2.304598E1,7.40606E3,8.35371E3,7.78173E3,1.246342E4,5.51091E3,5.03252E3,8.383619E0,1.026593E4,1.1577282E1,1.1206451E1,9.91715E3,1E0,9.6146E3,1E0,5.6158E3,1E0,6.25E2,6.13E2,4.70955E3,-2.1422775E0,-1.6604444E-1,4.199075E4,1.7251308E0,6E0,6.1E2,4.2849646E0,5.92473E0,3.3E1,8.62E2,8.62E2,6.18974E3,8.487637E0,3.02648E3,4.64438E3,1.303051E4,6.17E2,6.67E2,7.87E2,1.5846362E1,1.026593E4,1.8691141E1,4.9E1,1.9884548E1,3.5E1,6.35E2,1.060618E4,2.403919E1,1.060618E4,-8.012349E-1,-9.218057E-1,-4.2104602E-1,-7.7407944E-1,-8.174016E-1,-7.337364E-1,-6.622024E-1,-5.036914E-1,-6.801929E-1,-6.135211E-1,-5.275233E-1,-2.0954262E-1,-5.720534E-1,-5.002393E-1,-3.1388843E-1,4.943582E-2,-2.6908705E-1,-4.298947E-1,-2.95838E-1,-2.0248254E-1,-3.37063E-1,-2.7130732E-1,-1.9078764E-1,-7.917167E-2,-1.7272411E-1,-3.597171E-1,-6.707487E-2,-2.704153E-1,4.969089E-2,-4.862945E-2,6.612752E-2,1.632005E-1,3.588913E-2,-5.2794617E-2,9.759324E-2,-1.8933825E-1,5.7840306E-2,1.8802188E-1,5.222718E-1,2.357736E-1,2.8545752E-1,2.052676E-1,5.119026E-1,3.4569168E-1,3.03982E-1,3.6681095E-1,4.6480498E-1,5.9507364E-1,4.670252E-1,5.280695E-1,7.4996024E-1,3.6600414E-1,5.7555544E-1,6.285898E-1,7.4270326E-1,8.401386E-1,6.472399E-1,7.281129E-1,8.096692E-1,9.6220016E-1,8.081914E-1,9.0576094E-1,9.5793766E-1,1.0827701E0],"split_indices":[3,3,3,3,3,3,3,3,3,3,0,0,3,3,3,0,0,0,0,0,0,3,0,3,3,0,10,0,10,0,10,2,2,0,3,3,0,3,7,2,3,3,9,2,2,0,3,0,0,0,2,2,2,3,0,3,9,3,9,2,0,3,0,0,0,0,0,0,0,0,0,0,0,0,0,0,0,0,0,0,0,0,0,0,0,0,0,0,0,0,0,0,0,0,0,0,0,0,0,0,0,0,0,0,0,0,0,0,0,0,0,0,0,0,0,0,0,0,0,0,0,0,0,0,0,0,0],"split_type":[0,0,0,0,0,0,0,0,0,0,0,0,0,0,0,0,0,0,0,0,0,0,0,0,0,0,0,0,0,0,0,0,0,0,0,0,0,0,0,0,0,0,0,0,0,0,0,0,0,0,0,0,0,0,0,0,0,0,0,0,0,0,0,0,0,0,0,0,0,0,0,0,0,0,0,0,0,0,0,0,0,0,0,0,0,0,0,0,0,0,0,0,0,0,0,0,0,0,0,0,0,0,0,0,0,0,0,0,0,0,0,0,0,0,0,0,0,0,0,0,0,0,0,0,0,0,0],"sum_hessian":[2.797E4,1.3974E4,1.3996E4,7.282E3,6.692E3,6.216E3,7.78E3,3.401E3,3.881E3,4.169E3,2.523E3,2.716E3,3.5E3,4.321E3,3.459E3,1.876E3,1.525E3,1.82E3,2.061E3,1.897E3,2.272E3,2.077E3,4.46E2,2.102E3,6.14E2,1.702E3,1.798E3,1.819E3,2.502E3,1.181E3,2.278E3,1.665E3,2.11E2,1.353E3,1.72E2,1.638E3,1.82E2,1.965E3,9.6E1,1.558E3,3.39E2,1.838E3,4.34E2,1.095E3,9.82E2,2.51E2,1.95E2,1.019E3,1.083E3,2.23E2,3.91E2,1.568E3,1.34E2,1.434E3,3.64E2,1.655E3,1.64E2,2.025E3,4.77E2,9.75E2,2.06E2,1.843E3,4.35E2,1.29E2,1.536E3,5E0,2.06E2,1.189E3,1.64E2,1.26E2,4.6E1,1.089E3,5.49E2,1.75E2,7E0,1.164E3,8.01E2,8.8E1,8E0,4.8E1,1.51E3,2.31E2,1.08E2,8.35E2,1.003E3,2.95E2,1.39E2,1.067E3,2.8E1,9.63E2,1.9E1,6.3E1,1.88E2,1.06E2,8.9E1,8.8E2,1.39E2,1.072E3,1.1E1,1.66E2,5.7E1,1.3E1,3.78E2,3.73E2,1.195E3,9.6E1,3.8E1,4.82E2,9.52E2,2.35E2,1.29E2,1.232E3,4.23E2,1.6E2,4E0,6.17E2,1.408E3,3.17E2,1.6E2,1.09E2,8.66E2,1.31E2,7.5E1,7.98E2,1.045E3,2.86E2,1.49E2],"tree_param":{"num_deleted":"0","num_feature":"13","num_nodes":"127","size_leaf_vector":"1"}},{"base_weights":[1.167879E-2,-4.332973E0,4.3876557E0,-6.3601365E0,-2.1149611E0,2.045523E0,6.3757453E0,-7.6498265E0,-5.2498755E0,-2.9284816E0,-8.461437E-1,8.246013E-1,2.9002085E0,5.297011E0,7.6253405E0,-8.088049E0,-7.0306873E0,-5.780959E0,-4.7813015E0,-3.1824367E0,-1.7830989E0,-1.0057291E0,9.904639E-1,5.4475576E-1,1.7555974E0,2.4086025E0,3.642102E0,4.6482306E0,5.8141317E0,6.796438E0,8.046757E0,-8.334506E0,-7.014697E0,-7.2626824E0,-6.02769E0,-6.3464146E0,-5.3797874E0,-5.025508E0,-3.6861281E0,-3.7445915E0,-2.7230692E0,-2.3590674E0,-1.1168188E0,-1.5115368E0,-4.8323718E-1,2.1918995E0,8.0018556E-1,8.116612E-2,9.006988E-1,1.0271221E0,2.1393163E0,2.238587E0,4.310959E0,3.3309984E0,4.7567706E0,4.436271E0,6.2764444E0,5.5409384E0,6.908582E0,6.601807E0,8.681049E-1,7.8121223E0,9.008389E0,-8.972837E-1,-7.9827136E-1,-7.856538E-1,-6.6201204E-1,-7.689368E-1,-6.732415E-1,-6.108189E-1,-3.9664274E-1,-6.0833377E-1,-7.237846E-1,-5.477712E-1,-3.2075754E-1,-5.2932614E-1,-4.6270543E-1,-4.0734443E-1,-2.930234E-1,-4.1331044E-1,-3.514267E-1,-2.9601172E-1,-2.3294173E-1,-2.9733554E-1,-1.590033E-1,-1.5439193E-1,-9.8350225E-3,-1.3543639E-1,-2.7035818E-1,-3.0931244E-2,-1.0346472E-1,1.5101032E-1,4.0215588E-1,-5.3290376E-3,1.1799312E-1,-7.8934014E-2,2.3625482E-2,5.3090233E-2,1.1651529E-1,1.2267245E-1,5.529709E-3,1.6673253E-1,2.8860167E-1,2.0370881E-1,2.643021E-1,3.9456165E-1,5.655816E-1,2.9991946E-1,3.784663E-1,5.290162E-1,3.732483E-1,4.5308334E-1,3.9638355E-1,5.4776895E-1,6.768414E-1,5.1666695E-1,5.6574863E-1,6.1805934E-1,7.3225373E-1,6.6865575E-1,5.702172E-1,7.37115E-1,8.139104E-1,8.406231E-1,9.5622677E-1],"categories":[],"categories_nodes":[],"categories_segments":[],"categories_sizes":[],"default_left":[0,0,0,0,0,0,0,0,0,0,0,0,0,0,0,0,0,0,0,0,0,0,0,0,0,0,0,0,0,0,0,0,0,0,0,0,0,0,0,0,0,0,0,0,0,0,0,0,0,0,0,0,0,0,0,0,0,0,0,0,0,0,0,0,0,0,0,0,0,0,0,0,0,0,0,0,0,0,0,0,0,0,0,0,0,0,0,0,0,0,0,0,0,0,0,0,0,0,0,0,0,0,0,0,0,0,0,0,0,0,0,0,0,0,0,0,0,0,0,0,0,0,0,0,0],"id":10,"left_children":[1,3,5,7,9,11,13,15,17,19,21,23,25,27,29,31,33,35,37,39,41,43,45,47,49,51,53,55,57,59,61,63,65,67,69,71,73,75,77,79,81,83,85,87,89,91,93,95,97,99,101,103,105,107,109,111,113,115,117,119,-1,121,123,-1,-1,-1,-1,-1,-1,-1,-1,-1,-1,-1,-1,-1,-1,-1,-1,-1,-1,-1,-1,-1,-1,-1,-1,-1,-1,-1,-1,-1,-1,-1,-1,-1,-1,-1,-1,-1,-1,-1,-1,-1,-1,-1,-1,-1,-1,-1,-1,-1,-1,-1,-1,-1,-1,-1,-1,-1,-1,-1,-1,-1,-1],"loss_changes":[5.292587E5,6.279497E4,6.4566156E4,1.04098125E4,6.88442E3,6.6436875E3,1.00708125E4,8.585625E2,9.4910156E2,1.1767344E3,7.6538965E2,6.82688E2,1.3574688E3,1.3246875E3,1.1584844E3,4.6240625E2,2.8339062E2,3.821172E2,5.4070703E2,8.486953E2,2.8134497E2,6.3354297E2,4.602498E1,3.3308514E2,1.6719751E2,7.200078E2,5.0119922E2,5.9060547E2,6.30875E2,3.7441797E2,4.4789062E2,2.8677344E2,7.22207E1,2.0548828E2,2.0573242E1,1.3326172E2,2.1216016E2,1.57625E2,1.0078027E2,1.1907617E2,1.6424316E2,1.8234619E2,1.4991919E2,2.247268E2,1.1303833E2,2.8855774E1,5.9049744E1,1.1872148E2,1.1106232E2,4.0861618E1,1.3475269E2,1.6355078E2,6.80896E1,1.6461523E2,1.5672412E2,5.3029297E1,4.3089355E1,4.9109375E1,8.824414E1,4.3527344E1,0E0,2.0732812E2,6.7703125E1,0E0,0E0,0E0,0E0,0E0,0E0,0E0,0E0,0E0,0E0,0E0,0E0,0E0,0E0,0E0,0E0,0E0,0E0,0E0,0E0,0E0,0E0,0E0,0E0,0E0,0E0,0E0,0E0,0E0,0E0,0E0,0E0,0E0,0E0,0E0,0E0,0E0,0E0,0E0,0E0,0E0,0E0,0E0,0E0,0E0,0E0,0E0,0E0,0E0,0E0,0E0,0E0,0E0,0E0,0E0,0E0,0E0,0E0,0E0,0E0,0E0,0E0],"parents":[2147483647,0,0,1,1,2,2,3,3,4,4,5,5,6,6,7,7,8,8,9,9,10,10,11,11,12,12,13,13,14,14,15,15,16,16,17,17,18,18,19,19,20,20,21,21,22,22,23,23,24,24,25,25,26,26,27,27,28,28,29,29,30,30,31,31,32,32,33,33,34,34,35,35,36,36,37,37,38,38,39,39,40,40,41,41,42,42,43,43,44,44,45,45,46,46,47,47,48,48,49,49,50,50,51,51,52,52,53,53,54,54,55,55,56,56,57,57,58,58,59,59,61,61,62,62],"right_children":[2,4,6,8,10,12,14,16,18,20,22,24,26,28,30,32,34,36,38,40,42,44,46,48,50,52,54,56,58,60,62,64,66,68,70,72,74,76,78,80,82,84,86,88,90,92,94,96,98,100,102,104,106,108,110,112,114,116,118,120,-1,122,124,-1,-1,-1,-1,-1,-1,-1,-1,-1,-1,-1,-1,-1,-1,-1,-1,-1,-1,-1,-1,-1,-1,-1,-1,-1,-1,-1,-1,-1,-1,-1,-1,-1,-1,-1,-1,-1,-1,-1,-1,-1,-1,-1,-1,-1,-1,-1,-1,-1,-1,-1,-1,-1,-1,-1,-1,-1,-1,-1,-1,-1,-1],"split_conditions":[9.745423E0,2.6939743E0,1.7541624E1,-1.637709E0,6.8622303E0,1.2909775E1,2.1277903E1,-3.2455544E0,5.713219E-1,5.51091E3,9.91715E3,4.79118E3,1.5846362E1,1.9204885E1,2.304598E1,1E0,5.1333E3,8.255729E-1,1E0,4.877686E0,5.245376E0,8.383619E0,2E0,8.315106E-1,1.1206451E1,9.6146E3,1E0,7.56389E3,4.86275E3,8.81212E3,1E0,8.340359E-1,8.340359E-1,8.384144E-1,9.8859155E-1,7.9220545E-1,1.246342E4,1.7251308E0,1.060618E4,8.4757817E-1,8.4043616E-1,9.6146E3,1.303051E4,9.4419193E-1,9.386462E-1,9.2382E0,4E0,7.1363014E-1,1.1289959E1,8E0,9.91715E3,1.4597518E1,1.5233731E1,1.6980774E1,3.2E1,4.2E1,1.8283236E1,1.9884548E1,2.0127062E1,2.3028795E1,8.681049E-1,2.403919E1,2.403919E1,-8.972837E-1,-7.9827136E-1,-7.856538E-1,-6.6201204E-1,-7.689368E-1,-6.732415E-1,-6.108189E-1,-3.9664274E-1,-6.0833377E-1,-7.237846E-1,-5.477712E-1,-3.2075754E-1,-5.2932614E-1,-4.6270543E-1,-4.0734443E-1,-2.930234E-1,-4.1331044E-1,-3.514267E-1,-2.9601172E-1,-2.3294173E-1,-2.9733554E-1,-1.590033E-1,-1.5439193E-1,-9.8350225E-3,-1.3543639E-1,-2.7035818E-1,-3.0931244E-2,-1.0346472E-1,1.5101032E-1,4.0215588E-1,-5.3290376E-3,1.1799312E-1,-7.8934014E-2,2.3625482E-2,5.3090233E-2,1.1651529E-1,1.2267245E-1,5.529709E-3,1.6673253E-1,2.8860167E-1,2.0370881E-1,2.643021E-1,3.9456165E-1,5.655816E-1,2.9991946E-1,3.784663E-1,5.290162E-1,3.732483E-1,4.5308334E-1,3.9638355E-1,5.4776895E-1,6.768414E-1,5.1666695E-1,5.6574863E-1,6.1805934E-1,7.3225373E-1,6.6865575E-1,5.702172E-1,7.37115E-1,8.139104E-1,8.406231E-1,9.5622677E-1],"split_indices":[3,3,3,3,3,3,3,3,3,0,0,0,3,3,3,10,0,4,10,3,3,3,5,4,3,0,10,0,0,0,10,4,4,4,4,4,0,3,0,4,4,0,0,4,4,3,5,4,3,5,0,3,3,3,9,9,3,3,3,3,0,3,3,0,0,0,0,0,0,0,0,0,0,0,0,0,0,0,0,0,0,0,0,0,0,0,0,0,0,0,0,0,0,0,0,0,0,0,0,0,0,0,0,0,0,0,0,0,0,0,0,0,0,0,0,0,0,0,0,0,0,0,0,0,0],"split_type":[0,0,0,0,0,0,0,0,0,0,0,0,0,0,0,0,0,0,0,0,0,0,0,0,0,0,0,0,0,0,0,0,0,0,0,0,0,0,0,0,0,0,0,0,0,0,0,0,0,0,0,0,0,0,0,0,0,0,0,0,0,0,0,0,0,0,0,0,0,0,0,0,0,0,0,0,0,0,0,0,0,0,0,0,0,0,0,0,0,0,0,0,0,0,0,0,0,0,0,0,0,0,0,0,0,0,0,0,0,0,0,0,0,0,0,0,0,0,0,0,0,0,0,0,0],"sum_hessian":[2.7836E4,1.3968E4,1.3868E4,7.297E3,6.671E3,6.368E3,7.5E3,3.373E3,3.924E3,4.064E3,2.607E3,2.623E3,3.745E3,4.028E3,3.472E3,1.968E3,1.405E3,1.834E3,2.09E3,3.325E3,7.39E2,2.399E3,2.08E2,2.018E3,6.05E2,2.255E3,1.49E3,1.791E3,2.237E3,1.176E3,2.296E3,1.595E3,3.73E2,1.136E3,2.69E2,7.55E2,1.079E3,1.706E3,3.84E2,1.492E3,1.833E3,3.95E2,3.44E2,1.218E3,1.181E3,2.7E1,1.81E2,8.77E2,1.141E3,2.1E2,3.95E2,2.072E3,1.83E2,1.168E3,3.22E2,1.588E3,2.03E2,1.795E3,4.42E2,1.07E3,1.06E2,1.853E3,4.43E2,5.58E2,1.037E3,1.13E2,2.6E2,6.22E2,5.14E2,2.57E2,1.2E1,5.89E2,1.66E2,1.031E3,4.8E1,1.013E3,6.93E2,2.51E2,1.33E2,5.49E2,9.43E2,1.14E3,6.93E2,2.18E2,1.77E2,2.42E2,1.02E2,1.078E3,1.4E2,8.99E2,2.82E2,2.1E1,6E0,5.6E1,1.25E2,1.32E2,7.45E2,4.77E2,6.64E2,1.74E2,3.6E1,2.44E2,1.51E2,1.387E3,6.85E2,1.47E2,3.6E1,6.79E2,4.89E2,2.09E2,1.13E2,1.316E3,2.72E2,8.2E1,1.21E2,4.37E2,1.358E3,1.66E2,2.76E2,9.72E2,9.8E1,7.99E2,1.054E3,2.2E2,2.23E2],"tree_param":{"num_deleted":"0","num_feature":"13","num_nodes":"125","size_leaf_vector":"1"}},{"base_weights":[-2.7968064E-2,-2.0089687E-1,1.495278E0,-4.367646E-1,7.658531E-1,1.1716938E0,2.9846406E0,-1.2265527E-1,-7.380134E-1,3.3537427E-1,1.4230642E0,1.0689567E0,1.8956529E0,2.7339847E0,5.785217E0,-1.9452105E-1,1.624436E0,-1.3527561E0,-3.7977868E-1,5.936867E-1,4.4304542E-2,1.8099252E0,1.0677432E0,1.2563875E0,2.3062412E-1,5.0364766E0,1.1090571E0,2.2488158E0,4.08443E0,-1.0654744E-1,6.163854E0,-1.3439398E-1,-1.4602189E0,3.8662598E0,1.7311677E-1,-6.642515E0,-1.2948234E0,2.3217816E0,-4.8805583E-1,-2.6698895E0,6.54169E-1,-1.3337605E0,2.7394533E-1,1.675084E0,4.8648634E0,-6.9222337E-1,1.3903902E0,1.2064183E0,6.0882735E0,-2.065942E0,8.540846E-1,3.2165897E0,7.8682647E0,1.8924906E0,-7.7891916E-2,2.3535924E0,-3.1915374E0,4.5871925E0,1.587274E-1,4.5234127E0,7.354546E0,-1.7798612E-2,4.9744257E-1,-5.6298465E-1,-5.5425953E-2,3.4740505E-1,5.437024E-1,-5.719957E-1,1.5321691E-1,-6.9397414E-1,-3.7520722E-1,2.1864343E-1,-1.3815974E-1,3.763335E-2,3.1756285E-1,-7.760618E-2,-1.8803085E-3,1.23628035E-1,-3.9689562E-1,2.3824515E-2,1.0789778E-1,-8.7476574E-2,-2.9055032E-1,3.9003158E-1,2.126131E-2,-7.7287264E-2,1.769477E-1,8.723056E-1,2.6002654E-1,7.6660655E-2,-1.7629649E-1,1.537491E-1,-1.2299705E-3,1.09668925E-1,2.173856E-1,6.513498E-1,1.9327265E-1,-2.4550728E-1,2.3984514E-1,2.931604E-1,-1.0270023E-2,5.846929E-1,4.169565E-2,8.5610765E-1,2.610344E-1,1.4219306E-1,7.914635E-1,-1.2091017E-1,1.6209726E-1,2.635604E-1,1.5851457E-2,1.90685E-1,-5.6122625E-1,5.009977E-1,3.6511794E-2,8.8470325E-2,-5.002467E-1,4.8851988E-1,-9.943628E-2,7.658778E-1,2.9762313E-1],"categories":[],"categories_nodes":[],"categories_segments":[],"categories_sizes":[],"default_left":[0,0,0,0,0,0,0,0,0,0,0,0,0,0,0,0,0,0,0,0,0,0,0,0,0,0,0,0,0,0,0,0,0,0,0,0,0,0,0,0,0,0,0,0,0,0,0,0,0,0,0,0,0,0,0,0,0,0,0,0,0,0,0,0,0,0,0,0,0,0,0,0,0,0,0,0,0,0,0,0,0,0,0,0,0,0,0,0,0,0,0,0,0,0,0,0,0,0,0,0,0,0,0,0,0,0,0,0,0,0,0,0,0,0,0,0,0,0,0,0,0],"id":11,"left_children":[1,3,5,7,9,11,13,15,17,19,21,23,25,27,29,31,33,35,37,39,41,43,45,47,49,51,53,55,57,-1,59,61,63,65,67,69,71,73,75,77,79,81,83,85,87,89,91,93,95,97,99,101,103,105,107,109,111,113,115,117,119,-1,-1,-1,-1,-1,-1,-1,-1,-1,-1,-1,-1,-1,-1,-1,-1,-1,-1,-1,-1,-1,-1,-1,-1,-1,-1,-1,-1,-1,-1,-1,-1,-1,-1,-1,-1,-1,-1,-1,-1,-1,-1,-1,-1,-1,-1,-1,-1,-1,-1,-1,-1,-1,-1,-1,-1,-1,-1,-1,-1],"loss_changes":[7.3919365E3,5.7467954E3,1.3753164E3,1.9169182E3,1.3979741E3,1.7290967E2,3.4219385E2,1.2457067E3,2.2768042E3,2.2463223E2,2.6693896E2,3.237107E2,7.133468E2,2.9875635E2,1.1291846E2,7.249103E2,1.2747428E3,1.1580562E3,1.9127329E3,3.1421283E2,4.4530804E2,3.770066E2,5.81303E2,3.9949E2,5.429918E2,2.7359607E2,2.1774301E2,2.058794E2,2.4203662E2,0E0,4.2909546E1,2.0268276E3,1.6287653E3,7.5986084E1,1.922914E3,9.185303E0,1.1409653E3,4.1740588E2,8.4925305E2,1.520636E2,2.7449298E2,1.4246414E2,2.6740128E2,2.0863745E2,3.180708E2,2.4971423E2,1.7829382E2,1.7479028E2,1.7450928E1,1.4660425E2,5.9264734E2,2.7002954E2,5.7793213E1,3.8830902E2,1.8260649E2,2.1129321E2,9.70943E1,1.9273828E2,6.062924E1,4.2786407E1,5.1782227E0,0E0,0E0,0E0,0E0,0E0,0E0,0E0,0E0,0E0,0E0,0E0,0E0,0E0,0E0,0E0,0E0,0E0,0E0,0E0,0E0,0E0,0E0,0E0,0E0,0E0,0E0,0E0,0E0,0E0,0E0,0E0,0E0,0E0,0E0,0E0,0E0,0E0,0E0,0E0,0E0,0E0,0E0,0E0,0E0,0E0,0E0,0E0,0E0,0E0,0E0,0E0,0E0,0E0,0E0,0E0,0E0,0E0,0E0,0E0,0E0],"parents":[2147483647,0,0,1,1,2,2,3,3,4,4,5,5,6,6,7,7,8,8,9,9,10,10,11,11,12,12,13,13,14,14,15,15,16,16,17,17,18,18,19,19,20,20,21,21,22,22,23,23,24,24,25,25,26,26,27,27,28,28,30,30,31,31,32,32,33,33,34,34,35,35,36,36,37,37,38,38,39,39,40,40,41,41,42,42,43,43,44,44,45,45,46,46,47,47,48,48,49,49,50,50,51,51,52,52,53,53,54,54,55,55,56,56,57,57,58,58,59,59,60,60],"right_children":[2,4,6,8,10,12,14,16,18,20,22,24,26,28,30,32,34,36,38,40,42,44,46,48,50,52,54,56,58,-1,60,62,64,66,68,70,72,74,76,78,80,82,84,86,88,90,92,94,96,98,100,102,104,106,108,110,112,114,116,118,120,-1,-1,-1,-1,-1,-1,-1,-1,-1,-1,-1,-1,-1,-1,-1,-1,-1,-1,-1,-1,-1,-1,-1,-1,-1,-1,-1,-1,-1,-1,-1,-1,-1,-1,-1,-1,-1,-1,-1,-1,-1,-1,-1,-1,-1,-1,-1,-1,-1,-1,-1,-1,-1,-1,-1,-1,-1,-1,-1,-1],"split_conditions":[6E1,1E0,5.42494E3,8.5175586E-1,9.91715E3,9.5827895E-1,4.6E1,8.4411097E-1,9.059774E-1,8.571549E-1,8.526921E-1,9.235159E-1,9.6498424E-1,9.154366E-1,5.97285E3,8.3695084E-1,8.470688E-1,8.522121E-1,9.1271174E-1,2E0,8.80501E-1,8.4411097E-1,8.7840605E-1,9.227463E-1,9.283184E-1,9.631562E-1,9.877174E-1,9.1271174E-1,9.877174E-1,-1.0654744E-1,2E0,8.3529496E-1,8.384144E-1,4.1E1,8.4757817E-1,1E0,8.526921E-1,9.1011983E-1,9.5827895E-1,7.3900354E-1,7.822685E-1,8.768914E-1,5.03252E3,7.053597E-1,8.470688E-1,2.1E1,9.877174E-1,8.9902085E-1,3E0,4.8E1,9.386462E-1,9.6080333E-1,4.5E1,9.861144E-1,9.900065E-1,4.1E1,8.15608E3,1E0,3.6E1,1E0,1.989546E4,-1.7798612E-2,4.9744257E-1,-5.6298465E-1,-5.5425953E-2,3.4740505E-1,5.437024E-1,-5.719957E-1,1.5321691E-1,-6.9397414E-1,-3.7520722E-1,2.1864343E-1,-1.3815974E-1,3.763335E-2,3.1756285E-1,-7.760618E-2,-1.8803085E-3,1.23628035E-1,-3.9689562E-1,2.3824515E-2,1.0789778E-1,-8.7476574E-2,-2.9055032E-1,3.9003158E-1,2.126131E-2,-7.7287264E-2,1.769477E-1,8.723056E-1,2.6002654E-1,7.6660655E-2,-1.7629649E-1,1.537491E-1,-1.2299705E-3,1.09668925E-1,2.173856E-1,6.513498E-1,1.9327265E-1,-2.4550728E-1,2.3984514E-1,2.931604E-1,-1.0270023E-2,5.846929E-1,4.169565E-2,8.5610765E-1,2.610344E-1,1.4219306E-1,7.914635E-1,-1.2091017E-1,1.6209726E-1,2.635604E-1,1.5851457E-2,1.90685E-1,-5.6122625E-1,5.009977E-1,3.6511794E-2,8.8470325E-2,-5.002467E-1,4.8851988E-1,-9.943628E-2,7.658778E-1,2.9762313E-1],"split_indices":[1,10,0,4,0,4,9,4,4,4,4,4,4,4,0,4,4,4,4,9,4,4,4,4,4,4,4,4,4,0,7,4,4,9,4,8,4,4,4,4,4,4,0,4,4,9,4,4,6,9,4,4,9,4,4,9,0,8,9,8,0,0,0,0,0,0,0,0,0,0,0,0,0,0,0,0,0,0,0,0,0,0,0,0,0,0,0,0,0,0,0,0,0,0,0,0,0,0,0,0,0,0,0,0,0,0,0,0,0,0,0,0,0,0,0,0,0,0,0,0,0],"split_type":[0,0,0,0,0,0,0,0,0,0,0,0,0,0,0,0,0,0,0,0,0,0,0,0,0,0,0,0,0,0,0,0,0,0,0,0,0,0,0,0,0,0,0,0,0,0,0,0,0,0,0,0,0,0,0,0,0,0,0,0,0,0,0,0,0,0,0,0,0,0,0,0,0,0,0,0,0,0,0,0,0,0,0,0,0,0,0,0,0,0,0,0,0,0,0,0,0,0,0,0,0,0,0,0,0,0,0,0,0,0,0,0,0,0,0,0,0,0,0,0,0],"sum_hessian":[2.806E4,2.52E4,2.86E3,2.0258E4,4.942E3,2.351E3,5.09E2,9.918E3,1.034E4,2.987E3,1.955E3,2.061E3,2.9E2,4.69E2,4E1,9.527E3,3.91E2,3.806E3,6.534E3,1.582E3,1.405E3,9.34E2,1.021E3,1.684E3,3.77E2,5.7E1,2.33E2,3.47E2,1.22E2,2E0,3.8E1,9.096E3,4.31E2,1.53E2,2.38E2,4E1,3.766E3,2.51E2,6.283E3,2.8E1,1.554E3,2E2,1.205E3,8.96E2,3.8E1,1.58E2,8.63E2,1.668E3,1.6E1,8E1,2.97E2,3.6E1,2.1E1,1.4E2,9.3E1,3.41E2,6E0,1.08E2,1.4E1,1.8E1,2E1,9.02E3,7.6E1,7.6E1,3.55E2,1.25E2,2.8E1,4.4E1,1.94E2,3.5E1,5E0,9.1E1,3.675E3,7.7E1,1.74E2,3.893E3,2.39E3,7E0,2.1E1,7.86E2,7.68E2,1.56E2,4.4E1,1.9E1,1.186E3,3.3E1,8.63E2,1.3E1,2.5E1,6.7E1,9.1E1,7.81E2,8.2E1,1.5E3,1.68E2,1.4E1,2E0,7.4E1,6E0,9.3E1,2.04E2,1.8E1,1.8E1,1.8E1,3E0,1.31E2,9E0,5.6E1,3.7E1,3.02E2,3.9E1,2E0,4E0,9.8E1,1E1,1.3E1,1E0,1.7E1,1E0,1.8E1,2E0],"tree_param":{"num_deleted":"0","num_feature":"13","num_nodes":"121","size_leaf_vector":"1"}},{"base_weights":[-1.2101976E-3,-3.7744296E0,4.0512376E0,-5.9352627E0,-2.035008E0,2.217871E0,5.8826447E0,-6.837939E0,-4.93035E0,-2.9071903E0,-6.8611723E-1,1.3612564E0,3.2271512E0,5.039444E0,7.040568E0,-7.0140743E0,-5.326402E0,-5.078129E0,-3.6030266E0,-3.5277376E0,-2.4165175E0,-1.2662646E0,-1.9768845E-1,1.1816448E0,2.8249643E0,2.958494E0,4.2690425E0,4.5556965E0,5.4745293E0,6.608614E0,7.56334E0,-7.4520235E0,-6.469844E0,-4.2533097E0,-5.527513E0,-5.3980255E0,-4.5901475E0,-3.7537684E0,-1.3497823E0,-3.7025526E0,-2.0451076E0,-2.5880086E0,-9.0979064E-1,-1.5027885E0,-3.0161735E-1,-3.8374645E-1,1.5385494E0,7.959241E-1,1.7525517E0,1.9667948E0,3.561089E0,2.7991073E0,4.358188E0,3.733168E0,4.757448E0,4.4114256E0,6.190857E0,5.25225E0,6.330874E0,6.3505535E0,7.606876E0,7.4367986E0,8.596825E0,-8.0899996E-1,-7.065069E-1,-6.659337E-1,-5.0811934E-1,-4.6080938E-1,-2.2217381E-1,-7.253936E-1,-5.232877E-1,-5.9118515E-1,-5.0366646E-1,-4.7236615E-1,-3.1166956E-1,-3.9009973E-1,-1.1599741E-1,1.2031776E-1,-2.0212539E-1,-3.850772E-1,-2.1114424E-1,-3.1580132E-1,-1.6920279E-1,-2.81316E-1,-1.8121958E-1,-1.24715425E-1,9.2804946E-2,-1.6484511E-1,-1.5564375E-2,-6.4157635E-2,2.69918E-2,-5.6020286E-2,4.8851233E-2,1.799612E-1,7.737937E-2,4.386581E-2,1.214242E-1,1.5930033E-1,3.4449276E-1,1.1668868E-1,2.533702E-1,3.0242229E-1,4.7110143E-1,2.4211843E-1,3.2359308E-1,1.6343503E-1,4.6008357E-1,3.3405936E-1,4.2186925E-1,4.548869E-1,6.317107E-1,4.2364755E-1,5.920777E-1,7.801238E-1,5.907872E-1,5.1334095E-1,6.279901E-1,5.2378225E-1,6.5820426E-1,6.181467E-1,7.846818E-1,7.1265674E-1,8.331992E-1,7.3325914E-1,8.5250276E-1,4.4332534E-1,8.79295E-1],"categories":[],"categories_nodes":[],"categories_segments":[],"categories_sizes":[],"default_left":[0,0,0,0,0,0,0,0,0,0,0,0,0,0,0,0,0,0,0,0,0,0,0,0,0,0,0,0,0,0,0,0,0,0,0,0,0,0,0,0,0,0,0,0,0,0,0,0,0,0,0,0,0,0,0,0,0,0,0,0,0,0,0,0,0,0,0,0,0,0,0,0,0,0,0,0,0,0,0,0,0,0,0,0,0,0,0,0,0,0,0,0,0,0,0,0,0,0,0,0,0,0,0,0,0,0,0,0,0,0,0,0,0,0,0,0,0,0,0,0,0,0,0,0,0,0,0],"id":12,"left_children":[1,3,5,7,9,11,13,15,17,19,21,23,25,27,29,31,33,35,37,39,41,43,45,47,49,51,53,55,57,59,61,63,65,67,69,71,73,75,77,79,81,83,85,87,89,91,93,95,97,99,101,103,105,107,109,111,113,115,117,119,121,123,125,-1,-1,-1,-1,-1,-1,-1,-1,-1,-1,-1,-1,-1,-1,-1,-1,-1,-1,-1,-1,-1,-1,-1,-1,-1,-1,-1,-1,-1,-1,-1,-1,-1,-1,-1,-1,-1,-1,-1,-1,-1,-1,-1,-1,-1,-1,-1,-1,-1,-1,-1,-1,-1,-1,-1,-1,-1,-1,-1,-1,-1,-1,-1,-1],"loss_changes":[4.2768297E5,5.4427484E4,4.5268062E4,5.8253125E3,9.440426E3,5.823633E3,6.5510625E3,8.6784375E2,5.819219E2,1.4755391E3,8.931859E2,9.557168E2,8.5341406E2,7.973672E2,5.913281E2,6.7684375E2,5.396582E1,4.0467188E2,1.00227295E2,5.4967773E2,7.017588E2,3.2832812E2,5.539596E2,7.1450977E2,2.4442041E2,5.372793E2,1.4764844E2,4.1053516E2,3.5733984E2,3.5433594E2,1.0319531E2,3.5733594E2,3.2508594E2,3.372888E1,1.1413281E2,2.7770312E2,2.0088672E2,1.0621997E2,3.8430965E1,4.4514062E2,8.464093E1,4.221582E2,1.747631E2,2.2678027E2,5.554827E1,2.3853505E2,3.1749268E1,2.897008E2,3.4823315E2,8.1389465E1,1.17249756E2,3.5766602E2,1.5771387E2,4.423242E1,7.764209E1,4.261953E2,2.1356934E1,1.674414E2,8.028125E1,2.6723828E2,5.0677734E1,6.7453125E1,6.962402E1,0E0,0E0,0E0,0E0,0E0,0E0,0E0,0E0,0E0,0E0,0E0,0E0,0E0,0E0,0E0,0E0,0E0,0E0,0E0,0E0,0E0,0E0,0E0,0E0,0E0,0E0,0E0,0E0,0E0,0E0,0E0,0E0,0E0,0E0,0E0,0E0,0E0,0E0,0E0,0E0,0E0,0E0,0E0,0E0,0E0,0E0,0E0,0E0,0E0,0E0,0E0,0E0,0E0,0E0,0E0,0E0,0E0,0E0,0E0,0E0,0E0,0E0,0E0,0E0],"parents":[2147483647,0,0,1,1,2,2,3,3,4,4,5,5,6,6,7,7,8,8,9,9,10,10,11,11,12,12,13,13,14,14,15,15,16,16,17,17,18,18,19,19,20,20,21,21,22,22,23,23,24,24,25,25,26,26,27,27,28,28,29,29,30,30,31,31,32,32,33,33,34,34,35,35,36,36,37,37,38,38,39,39,40,40,41,41,42,42,43,43,44,44,45,45,46,46,47,47,48,48,49,49,50,50,51,51,52,52,53,53,54,54,55,55,56,56,57,57,58,58,59,59,60,60,61,61,62,62],"right_children":[2,4,6,8,10,12,14,16,18,20,22,24,26,28,30,32,34,36,38,40,42,44,46,48,50,52,54,56,58,60,62,64,66,68,70,72,74,76,78,80,82,84,86,88,90,92,94,96,98,100,102,104,106,108,110,112,114,116,118,120,122,124,126,-1,-1,-1,-1,-1,-1,-1,-1,-1,-1,-1,-1,-1,-1,-1,-1,-1,-1,-1,-1,-1,-1,-1,-1,-1,-1,-1,-1,-1,-1,-1,-1,-1,-1,-1,-1,-1,-1,-1,-1,-1,-1,-1,-1,-1,-1,-1,-1,-1,-1,-1,-1,-1,-1,-1,-1,-1,-1,-1,-1,-1,-1,-1,-1],"split_conditions":[1.0317454E1,1.7251308E0,1.8322979E1,-1.637709E0,6.7407007E0,1.4597518E1,2.1985802E1,6E1,6E1,4.2849646E0,8.383619E0,6E1,1E0,2.0127062E1,2.403919E1,-3.2881117E0,5.1194E2,5.713219E-1,9.8609984E-1,6E1,6E1,4.94902E3,6E1,1.2909775E1,1.2308083E1,6E1,1.6942125E1,9.6146E3,1E0,1E0,6E1,8.340359E-1,8.35371E3,1E0,7.7074E2,8.255729E-1,8.81212E3,1.303051E4,9.1924E2,9.91715E3,8.148072E-1,4.40953E3,6.32532E3,6E1,9.91715E3,5.86333E3,7.73E2,8.477624E-1,9.05659E3,7.15E2,2.87888E3,1.6980774E1,6.05E2,9.34238E3,6E1,6E1,6.3E2,6E1,3E1,6E1,9.91715E3,9.05659E3,2.2849E2,-8.0899996E-1,-7.065069E-1,-6.659337E-1,-5.0811934E-1,-4.6080938E-1,-2.2217381E-1,-7.253936E-1,-5.232877E-1,-5.9118515E-1,-5.0366646E-1,-4.7236615E-1,-3.1166956E-1,-3.9009973E-1,-1.1599741E-1,1.2031776E-1,-2.0212539E-1,-3.850772E-1,-2.1114424E-1,-3.1580132E-1,-1.6920279E-1,-2.81316E-1,-1.8121958E-1,-1.24715425E-1,9.2804946E-2,-1.6484511E-1,-1.5564375E-2,-6.4157635E-2,2.69918E-2,-5.6020286E-2,4.8851233E-2,1.799612E-1,7.737937E-2,4.386581E-2,1.214242E-1,1.5930033E-1,3.4449276E-1,1.1668868E-1,2.533702E-1,3.0242229E-1,4.7110143E-1,2.4211843E-1,3.2359308E-1,1.6343503E-1,4.6008357E-1,3.3405936E-1,4.2186925E-1,4.548869E-1,6.317107E-1,4.2364755E-1,5.920777E-1,7.801238E-1,5.907872E-1,5.1334095E-1,6.279901E-1,5.2378225E-1,6.5820426E-1,6.181467E-1,7.846818E-1,7.1265674E-1,8.331992E-1,7.3325914E-1,8.5250276E-1,4.4332534E-1,8.79295E-1],"split_indices":[3,3,3,3,3,3,3,1,1,3,3,1,10,3,3,3,0,3,4,1,1,0,1,3,3,1,3,0,10,10,1,4,0,8,0,4,0,0,0,0,4,0,0,1,0,0,2,4,0,2,0,3,2,0,1,1,2,1,1,1,0,0,0,0,0,0,0,0,0,0,0,0,0,0,0,0,0,0,0,0,0,0,0,0,0,0,0,0,0,0,0,0,0,0,0,0,0,0,0,0,0,0,0,0,0,0,0,0,0,0,0,0,0,0,0,0,0,0,0,0,0,0,0,0,0,0,0],"split_type":[0,0,0,0,0,0,0,0,0,0,0,0,0,0,0,0,0,0,0,0,0,0,0,0,0,0,0,0,0,0,0,0,0,0,0,0,0,0,0,0,0,0,0,0,0,0,0,0,0,0,0,0,0,0,0,0,0,0,0,0,0,0,0,0,0,0,0,0,0,0,0,0,0,0,0,0,0,0,0,0,0,0,0,0,0,0,0,0,0,0,0,0,0,0,0,0,0,0,0,0,0,0,0,0,0,0,0,0,0,0,0,0,0,0,0,0,0,0,0,0,0,0,0,0,0,0,0],"sum_hessian":[2.7968E4,1.4483E4,1.3485E4,6.458E3,8.025E3,6.74E3,6.745E3,3.399E3,3.059E3,4.873E3,3.152E3,3.647E3,3.093E3,3.906E3,2.839E3,3.041E3,3.58E2,2.75E3,3.09E2,2.149E3,2.724E3,1.44E3,1.712E3,3.25E3,3.97E2,2.462E3,6.31E2,1.855E3,2.051E3,1.562E3,1.277E3,1.678E3,1.363E3,6E1,2.98E2,1.655E3,1.095E3,2.89E2,2E1,1.921E3,2.28E2,2.445E3,2.79E2,1.156E3,2.84E2,1.547E3,1.65E2,1.941E3,1.309E3,1.85E2,2.12E2,2.213E3,2.49E2,3.05E2,3.26E2,1.708E3,1.47E2,1.634E3,4.17E2,1.247E3,3.15E2,1.145E3,1.32E2,6.26E2,1.052E3,1.196E3,1.67E2,5E1,1E1,4E1,2.58E2,6.77E2,9.78E2,1.002E3,9.3E1,2.73E2,1.6E1,4E0,1.6E1,1.756E3,1.65E2,5.3E1,1.75E2,1.893E3,5.52E2,2.36E2,4.3E1,1.043E3,1.13E2,1.78E2,1.06E2,1.287E3,2.6E2,1.22E2,4.3E1,1.048E3,8.93E2,1.198E3,1.11E2,7.8E1,1.07E2,1.47E2,6.5E1,1.19E3,1.023E3,2.1E1,2.28E2,1.73E2,1.32E2,2.91E2,3.5E1,1.534E3,1.74E2,1.8E1,1.29E2,1.47E3,1.64E2,8.2E1,3.35E2,1.125E3,1.22E2,1.96E2,1.19E2,1.052E3,9.3E1,7E0,1.25E2],"tree_param":{"num_deleted":"0","num_feature":"13","num_nodes":"127","size_leaf_vector":"1"}},{"base_weights":[-1.9567155E-3,-3.3723848E0,3.640252E0,-5.083416E0,-1.6082699E0,1.9920034E0,5.3199944E0,-6.1322007E0,-4.1931663E0,-2.335866E0,-6.7188114E-1,1.2347392E0,2.9025238E0,4.651976E0,6.379165E0,-6.2827396E0,-4.882836E0,-4.3573065E0,-2.7491503E0,-2.4874833E0,-1.021702E0,-1.1625819E0,-2.4739169E-1,7.6765394E-1,1.6657209E0,2.6620216E0,3.8563726E0,3.8989084E0,4.9171944E0,6.172027E0,7.1934037E0,-6.499465E0,-5.3923244E0,-5.543563E0,-4.4071426E0,-4.832793E0,-3.942233E0,-3.3974173E0,-2.3023424E0,-2.780545E0,-1.9574162E0,-1.6148591E0,-5.19921E-1,-1.3818012E0,-2.2711228E-1,-4.1222727E-1,1.2068999E0,5.628078E-1,1.4730239E0,1.4874781E0,3.115869E0,2.5305507E0,3.832405E0,3.2260957E0,4.3953004E0,3.7527637E0,5.3486667E0,4.700691E0,5.776164E0,5.8709044E0,6.5878224E0,6.759683E0,7.6830196E0,-6.941649E-1,-6.105871E-1,-6.2824935E-1,-5.1747036E-1,-4.8055497E-1,-6.2465554E-1,-4.789206E-1,-3.2574275E-1,-5.293009E-1,-4.5130953E-1,-4.1503096E-1,-3.015538E-1,-3.9630184E-1,-2.1838771E-1,-3.125357E-1,-2.0332408E-1,-2.9982212E-1,-1.9540104E-1,-2.123531E-1,-1.3074562E-1,-1.8393694E-1,-4.773897E-2,-1.0404499E-1,3.7415672E-2,-1.2325207E-1,-2.600238E-1,-3.6577445E-2,1.0754796E-1,-6.0695834E-2,3.924309E-2,-1.7405483E-4,1.5156893E-1,2.879678E-2,9.674509E-2,1.2954788E-1,2.9251915E-1,1.2635002E-1,2.364422E-1,4.264178E-1,2.7877867E-1,2.2138564E-1,2.8901842E-1,3.2584947E-1,4.29634E-1,3.3979437E-1,2.0995577E-1,4.581964E-1,2.5651655E-1,3.5398448E-1,4.6356088E-1,6.259987E-1,4.6153075E-1,4.6113655E-1,5.5338985E-1,5.603686E-1,7.3390925E-1,6.006593E-1,5.093052E-1,6.637625E-1,4.9318525E-1,5.6727016E-1,7.002847E-1,7.8571624E-1,5.817379E-1],"categories":[],"categories_nodes":[],"categories_segments":[],"categories_sizes":[],"default_left":[0,0,0,0,0,0,0,0,0,0,0,0,0,0,0,0,0,0,0,0,0,0,0,0,0,0,0,0,0,0,0,0,0,0,0,0,0,0,0,0,0,0,0,0,0,0,0,0,0,0,0,0,0,0,0,0,0,0,0,0,0,0,0,0,0,0,0,0,0,0,0,0,0,0,0,0,0,0,0,0,0,0,0,0,0,0,0,0,0,0,0,0,0,0,0,0,0,0,0,0,0,0,0,0,0,0,0,0,0,0,0,0,0,0,0,0,0,0,0,0,0,0,0,0,0,0,0],"id":13,"left_children":[1,3,5,7,9,11,13,15,17,19,21,23,25,27,29,31,33,35,37,39,41,43,45,47,49,51,53,55,57,59,61,63,65,67,69,71,73,75,77,79,81,83,85,87,89,91,93,95,97,99,101,103,105,107,109,111,113,115,117,119,121,123,125,-1,-1,-1,-1,-1,-1,-1,-1,-1,-1,-1,-1,-1,-1,-1,-1,-1,-1,-1,-1,-1,-1,-1,-1,-1,-1,-1,-1,-1,-1,-1,-1,-1,-1,-1,-1,-1,-1,-1,-1,-1,-1,-1,-1,-1,-1,-1,-1,-1,-1,-1,-1,-1,-1,-1,-1,-1,-1,-1,-1,-1,-1,-1,-1],"loss_changes":[3.4493778E5,4.404317E4,3.7379797E4,6.891E3,4.8950254E3,4.697455E3,4.7023906E3,6.0859375E2,9.3847656E2,8.0322656E2,6.545991E2,7.483823E2,6.997383E2,8.0071094E2,3.9142188E2,5.496719E2,9.186133E1,6.912578E2,1.1151416E2,5.576738E2,1.2416708E2,2.9868274E2,4.0490347E2,2.5766772E2,4.957798E2,3.711328E2,1.9675781E2,2.0748242E2,5.3671094E2,2.20125E2,5.8066406E1,3.808828E2,8.352734E1,4.8323242E1,8.10376E1,2.2225781E2,3.590547E2,1.0528418E2,4.8349487E1,4.1370508E2,1.369336E2,4.8153656E1,1.06964355E2,2.116062E2,5.060581E1,2.3778317E2,6.419566E1,1.5408386E2,9.98562E1,3.3602686E2,6.760425E1,2.4735645E2,5.2031982E1,4.9007812E1,1.0166455E2,1.6761719E2,3.526758E1,1.5511328E2,1.22234375E2,9.691016E1,3.81875E1,3.507715E1,3.0963867E1,0E0,0E0,0E0,0E0,0E0,0E0,0E0,0E0,0E0,0E0,0E0,0E0,0E0,0E0,0E0,0E0,0E0,0E0,0E0,0E0,0E0,0E0,0E0,0E0,0E0,0E0,0E0,0E0,0E0,0E0,0E0,0E0,0E0,0E0,0E0,0E0,0E0,0E0,0E0,0E0,0E0,0E0,0E0,0E0,0E0,0E0,0E0,0E0,0E0,0E0,0E0,0E0,0E0,0E0,0E0,0E0,0E0,0E0,0E0,0E0,0E0,0E0,0E0,0E0],"parents":[2147483647,0,0,1,1,2,2,3,3,4,4,5,5,6,6,7,7,8,8,9,9,10,10,11,11,12,12,13,13,14,14,15,15,16,16,17,17,18,18,19,19,20,20,21,21,22,22,23,23,24,24,25,25,26,26,27,27,28,28,29,29,30,30,31,31,32,32,33,33,34,34,35,35,36,36,37,37,38,38,39,39,40,40,41,41,42,42,43,43,44,44,45,45,46,46,47,47,48,48,49,49,50,50,51,51,52,52,53,53,54,54,55,55,56,56,57,57,58,58,59,59,60,60,61,61,62,62],"right_children":[2,4,6,8,10,12,14,16,18,20,22,24,26,28,30,32,34,36,38,40,42,44,46,48,50,52,54,56,58,60,62,64,66,68,70,72,74,76,78,80,82,84,86,88,90,92,94,96,98,100,102,104,106,108,110,112,114,116,118,120,122,124,126,-1,-1,-1,-1,-1,-1,-1,-1,-1,-1,-1,-1,-1,-1,-1,-1,-1,-1,-1,-1,-1,-1,-1,-1,-1,-1,-1,-1,-1,-1,-1,-1,-1,-1,-1,-1,-1,-1,-1,-1,-1,-1,-1,-1,-1,-1,-1,-1,-1,-1,-1,-1,-1,-1,-1,-1,-1,-1,-1,-1,-1,-1,-1,-1],"split_conditions":[1.0317454E1,2.6939743E0,1.8322979E1,-1.637709E0,6.7407007E0,1.4597518E1,2.2446915E1,6E1,6E1,6E1,8.383619E0,1.2308083E1,1E0,1.9442093E1,1E0,1E0,8.384144E-1,5.713219E-1,8.541223E-1,5.6234646E0,4.877686E0,1E0,6E1,1E0,6E1,6E1,1.6942125E1,6E1,1E0,2.4256893E1,2.403919E1,-3.570706E0,-4.333053E0,7.62364E-1,-3.0130389E0,8.255729E-1,1E0,1.2101818E0,-5.873426E-1,1E0,1E0,1E0,8.4043616E-1,9.4419193E-1,6E1,1E0,1E1,8.5490996E-1,6E1,1E0,7.5528026E-1,1.6980774E1,1.6942125E1,9.7029847E-1,1E0,1E0,4E0,6E1,6E1,9.2974555E-1,9E0,3E1,9.5453733E-1,-6.941649E-1,-6.105871E-1,-6.2824935E-1,-5.1747036E-1,-4.8055497E-1,-6.2465554E-1,-4.789206E-1,-3.2574275E-1,-5.293009E-1,-4.5130953E-1,-4.1503096E-1,-3.015538E-1,-3.9630184E-1,-2.1838771E-1,-3.125357E-1,-2.0332408E-1,-2.9982212E-1,-1.9540104E-1,-2.123531E-1,-1.3074562E-1,-1.8393694E-1,-4.773897E-2,-1.0404499E-1,3.7415672E-2,-1.2325207E-1,-2.600238E-1,-3.6577445E-2,1.0754796E-1,-6.0695834E-2,3.924309E-2,-1.7405483E-4,1.5156893E-1,2.879678E-2,9.674509E-2,1.2954788E-1,2.9251915E-1,1.2635002E-1,2.364422E-1,4.264178E-1,2.7877867E-1,2.2138564E-1,2.8901842E-1,3.2584947E-1,4.29634E-1,3.3979437E-1,2.0995577E-1,4.581964E-1,2.5651655E-1,3.5398448E-1,4.6356088E-1,6.259987E-1,4.6153075E-1,4.6113655E-1,5.5338985E-1,5.603686E-1,7.3390925E-1,6.006593E-1,5.093052E-1,6.637625E-1,4.9318525E-1,5.6727016E-1,7.002847E-1,7.8571624E-1,5.817379E-1],"split_indices":[3,3,3,3,3,3,3,1,1,1,3,3,10,3,10,10,4,3,4,3,3,10,1,10,1,1,3,1,10,3,3,3,3,4,3,4,10,3,3,10,10,10,4,4,1,10,9,4,1,10,4,3,3,4,8,10,5,1,1,4,5,1,4,0,0,0,0,0,0,0,0,0,0,0,0,0,0,0,0,0,0,0,0,0,0,0,0,0,0,0,0,0,0,0,0,0,0,0,0,0,0,0,0,0,0,0,0,0,0,0,0,0,0,0,0,0,0,0,0,0,0,0,0,0,0,0,0],"split_type":[0,0,0,0,0,0,0,0,0,0,0,0,0,0,0,0,0,0,0,0,0,0,0,0,0,0,0,0,0,0,0,0,0,0,0,0,0,0,0,0,0,0,0,0,0,0,0,0,0,0,0,0,0,0,0,0,0,0,0,0,0,0,0,0,0,0,0,0,0,0,0,0,0,0,0,0,0,0,0,0,0,0,0,0,0,0,0,0,0,0,0,0,0,0,0,0,0,0,0,0,0,0,0,0,0,0,0,0,0,0,0,0,0,0,0,0,0,0,0,0,0,0,0,0,0,0,0],"sum_hessian":[2.8097E4,1.4593E4,1.3504E4,7.407E3,7.186E3,6.817E3,6.687E3,3.398E3,4.009E3,4.043E3,3.143E3,3.723E3,3.094E3,4.104E3,2.583E3,3.029E3,3.69E2,3.598E3,4.11E2,3.624E3,4.19E2,1.457E3,1.686E3,1.788E3,1.935E3,2.474E3,6.2E2,1.073E3,3.031E3,2.066E3,5.17E2,2.431E3,5.98E2,1.5E2,2.19E2,1.672E3,1.926E3,1.65E2,2.46E2,2.331E3,1.293E3,1.91E2,2.28E2,1.18E3,2.77E2,1.515E3,1.71E2,1.387E3,4.01E2,1.725E3,2.1E2,2.227E3,2.47E2,2.89E2,3.31E2,9.78E2,9.5E1,2.426E3,6.05E2,1.207E3,8.59E2,2.82E2,2.35E2,1.137E3,1.294E3,1.12E2,4.86E2,7.7E1,7.3E1,1.62E2,5.7E1,6.79E2,9.93E2,1.57E3,3.56E2,1.11E2,5.4E1,5.8E1,1.88E2,1.843E3,4.88E2,1.028E3,2.65E2,1.59E2,3.2E1,1.44E2,8.4E1,1.053E3,1.27E2,2.51E2,2.6E1,1.22E3,2.95E2,3.5E1,1.36E2,8.27E2,5.6E2,3.59E2,4.2E1,1.376E3,3.49E2,4.4E1,1.66E2,1.188E3,1.039E3,1.14E2,1.33E2,2.49E2,4E1,2.99E2,3.2E1,7.92E2,1.86E2,3.9E1,5.6E1,2.197E3,2.29E2,5.49E2,5.6E1,1.022E3,1.85E2,8.31E2,2.8E1,5.6E1,2.26E2,2.12E2,2.3E1],"tree_param":{"num_deleted":"0","num_feature":"13","num_nodes":"127","size_leaf_vector":"1"}},{"base_weights":[3.1144794E-3,-3.1969936E0,3.1502082E0,-4.6391797E0,-1.5804032E0,1.5786747E0,4.7541156E0,-5.5831466E0,-3.8269439E0,-2.1487281E0,-7.9655206E-1,8.853844E-1,2.5735872E0,4.1071105E0,5.7082653E0,-5.7241926E0,-4.324498E0,-3.9650216E0,-2.6155534E0,-2.5246427E0,-1.787215E0,-9.650954E-1,6.7329216E-1,4.9516258E-1,1.3993874E0,2.3377564E0,