{"learner":{"attributes":{"scikit_learn":"{\"_estimator_type\": \"regressor\"}"},"feature_names":[],"feature_types":[],"gradient_booster":{"model":{"cats":{"enc":[],"feature_segments":[],"sorted_idx":[]},"gbtree_model_param":{"num_parallel_tree":"1","num_trees":"200"},"iteration_indptr":[0,1,2,3,4,5,6,7,8,9,10,11,12,13,14,15,16,17,18,19,20,21,22,23,24,25,26,27,28,29,30,31,32,33,34,35,36,37,38,39,40,41,42,43,44,45,46,47,48,49,50,51,52,53,54,55,56,57,58,59,60,61,62,63,64,65,66,67,68,69,70,71,72,73,74,75,76,77,78,79,80,81,82,83,84,85,86,87,88,89,90,91,92,93,94,95,96,97,98,99,100,101,102,103,104,105,106,107,108,109,110,111,112,113,114,115,116,117,118,119,120,121,122,123,124,125,126,127,128,129,130,131,132,133,134,135,136,137,138,139,140,141,142,143,144,145,146,147,148,149,150,151,152,153,154,155,156,157,158,159,160,161,162,163,164,165,166,167,168,169,170,171,172,173,174,175,176,177,178,179,180,181,182,183,184,185,186,187,188,189,190,191,192,193,194,195,196,197,198,199,200],"tree_info":[0,0,0,0,0,0,0,0,0,0,0,0,0,0,0,0,0,0,0,0,0,0,0,0,0,0,0,0,0,0,0,0,0,0,0,0,0,0,0,0,0,0,0,0,0,0,0,0,0,0,0,0,0,0,0,0,0,0,0,0,0,0,0,0,0,0,0,0,0,0,0,0,0,0,0,0,0,0,0,0,0,0,0,0,0,0,0,0,0,0,0,0,0,0,0,0,0,0,0,0,0,0,0,0,0,0,0,0,0,0,0,0,0,0,0,0,0,0,0,0,0,0,0,0,0,0,0,0,0,0,0,0,0,0,0,0,0,0,0,0,0,0,0,0,0,0,0,0,0,0,0,0,0,0,0,0,0,0,0,0,0,0,0,0,0,0,0,0,0,0,0,0,0,0,0,0,0,0,0,0,0,0,0,0,0,0,0,0,0,0,0,0,0,0,0,0,0,0,0,0],"trees":[{"base_weights":[1.0837447E-3,-6.4889446E-2,4.4282958E-1,-9.004079E-2,9.935002E-2,2.66073E-1,5.217045E-1,-9.787086E-2,-3.739483E-2,3.603807E-2,3.7298185E-1,2.217782E-1,6.2439024E-1,4.6541685E-1,7.5587624E-1,-9.941732E-2,-7.180235E-2,-6.045044E-2,2.502463E-1,1.1994925E-2,2.6439998E-1,2.5779566E-1,5.5296606E-1,1.9351646E-1,4.9891302E-1,4.5526314E-1,6.9186044E-1,3.9751807E-1,5.268614E-1,7.084175E-1,8.26455E-1,-9.980937E-3,-9.3395375E-2,-9.1280974E-2,1.0288459E-1,-7.4779175E-2,6.082087E-2,2.0611109E-1,5.708333E-1,-2.6806746E-2,5.088456E-2,2.4896263E-1,6.0999995E-1,2.0823169E-1,6.133333E-1,3.749998E-2,5.6855893E-1,1.6103676E-1,2.5495204E-1,3.4666663E-1,6.3124996E-1,7.538461E-2,2.884615E-1,7.522388E-1,4.5499998E-1,3.7070355E-1,6.2376237E-1,5.0875527E-1,6.72807E-1,5.7127655E-1,7.681372E-1,8.3567566E-1,3.2E-1,-9.988626E-3,-6.395941E-3,-9.867152E-3,-3.0392183E-3,6.413041E-3,3.6923077E-2,-8.148677E-3,1.8300631E-3,3.3203103E-3,6E-2,6.888889E-2,1.7965114E-2,6.8333335E-2,1.9999998E-2,-4.561406E-3,-5.8510876E-4,4.7696223E-3,2.8124997E-2,2.9025972E-2,1.7386362E-2,7.714286E-2,1.7499998E-2,3.4645647E-3,3.163366E-2,2.3888886E-2,8.321428E-2,4.4999998E-2,-8.57143E-3,5.8883723E-2,2.3999998E-2,4.3571405E-3,1.9651415E-2,2.034632E-2,3.951807E-2,5.1304348E-2,1.6521737E-2,6.468085E-2,-5.0000013E-3,3.8095236E-2,-8.333336E-3,7.651515E-2,-5.0000013E-3,6E-2,1.6249998E-2,3.83917E-2,2.6185563E-2,2.8749997E-2,6.457447E-2,4.6502586E-2,5.3783305E-2,7.163043E-2,4.695652E-2,2.9444441E-2,6.285714E-2,3.2E-2,7.755E-2,8.44382E-2,5.3749997E-2,4.25E-2,-5.0000013E-3],"categories":[],"categories_nodes":[],"categories_segments":[],"categories_sizes":[],"default_left":[0,0,0,0,0,0,0,0,0,0,0,0,0,0,0,0,0,0,0,0,0,0,0,0,0,0,0,0,0,0,0,0,0,0,0,0,0,0,0,0,0,0,0,0,0,0,0,0,0,0,0,0,0,0,0,0,0,0,0,0,0,0,0,0,0,0,0,0,0,0,0,0,0,0,0,0,0,0,0,0,0,0,0,0,0,0,0,0,0,0,0,0,0,0,0,0,0,0,0,0,0,0,0,0,0,0,0,0,0,0,0,0,0,0,0,0,0,0,0,0,0,0,0],"id":0,"left_children":[1,3,5,7,9,11,13,15,17,19,21,23,25,27,29,31,33,35,37,39,41,43,45,47,49,51,53,55,57,59,61,-1,63,65,67,69,71,73,75,77,79,81,83,85,87,89,91,93,95,97,99,-1,101,103,105,107,109,111,113,115,117,119,121,-1,-1,-1,-1,-1,-1,-1,-1,-1,-1,-1,-1,-1,-1,-1,-1,-1,-1,-1,-1,-1,-1,-1,-1,-1,-1,-1,-1,-1,-1,-1,-1,-1,-1,-1,-1,-1,-1,-1,-1,-1,-1,-1,-1,-1,-1,-1,-1,-1,-1,-1,-1,-1,-1,-1,-1,-1,-1,-1,-1],"loss_changes":[8.1481946E2,1.0049587E2,5.051123E1,8.692551E0,5.5960938E1,1.7685318E1,3.2745605E1,7.332001E-1,1.8139675E1,1.440949E1,1.2441589E1,7.7436028E0,1.0885811E0,8.247223E0,1.039093E0,3.1570435E-2,3.520938E0,4.4025774E0,2.7546272E0,3.586707E0,1.181921E0,6.42762E0,1.875557E0,1.7747612E0,1.6347656E0,1.6751013E0,8.876381E-1,5.635193E0,2.4613953E0,1.9936218E0,6.1517334E-1,0E0,1.9900703E-1,4.1505194E-1,1.0498118E0,1.4150009E0,3.9708462E0,2.17561E0,8.645835E-1,4.6873552E-1,8.5841656E-1,6.969652E-1,5.672138E-1,6.144127E0,3.4881496E0,4.4517857E-1,1.384407E0,2.4835196E0,2.1795216E0,1.2737389E0,5.4110336E-1,0E0,9.2582417E-1,7.3231506E-1,7.5075006E-1,1.1464386E0,5.6092453E-1,9.55307E-1,6.71463E-1,1.3058605E0,4.249344E-1,2.6412964E-2,2.155E-1,0E0,0E0,0E0,0E0,0E0,0E0,0E0,0E0,0E0,0E0,0E0,0E0,0E0,0E0,0E0,0E0,0E0,0E0,0E0,0E0,0E0,0E0,0E0,0E0,0E0,0E0,0E0,0E0,0E0,0E0,0E0,0E0,0E0,0E0,0E0,0E0,0E0,0E0,0E0,0E0,0E0,0E0,0E0,0E0,0E0,0E0,0E0,0E0,0E0,0E0,0E0,0E0,0E0,0E0,0E0,0E0,0E0,0E0,0E0,0E0],"parents":[2147483647,0,0,1,1,2,2,3,3,4,4,5,5,6,6,7,7,8,8,9,9,10,10,11,11,12,12,13,13,14,14,15,15,16,16,17,17,18,18,19,19,20,20,21,21,22,22,23,23,24,24,25,25,26,26,27,27,28,28,29,29,30,30,32,32,33,33,34,34,35,35,36,36,37,37,38,38,39,39,40,40,41,41,42,42,43,43,44,44,45,45,46,46,47,47,48,48,49,49,50,50,52,52,53,53,54,54,55,55,56,56,57,57,58,58,59,59,60,60,61,61,62,62],"right_children":[2,4,6,8,10,12,14,16,18,20,22,24,26,28,30,32,34,36,38,40,42,44,46,48,50,52,54,56,58,60,62,-1,64,66,68,70,72,74,76,78,80,82,84,86,88,90,92,94,96,98,100,-1,102,104,106,108,110,112,114,116,118,120,122,-1,-1,-1,-1,-1,-1,-1,-1,-1,-1,-1,-1,-1,-1,-1,-1,-1,-1,-1,-1,-1,-1,-1,-1,-1,-1,-1,-1,-1,-1,-1,-1,-1,-1,-1,-1,-1,-1,-1,-1,-1,-1,-1,-1,-1,-1,-1,-1,-1,-1,-1,-1,-1,-1,-1,-1,-1,-1,-1,-1],"split_conditions":[2.1155148E1,1.8283236E1,2.2618849E1,1.49158325E1,5.1333E3,7.78173E3,5.03252E3,1.246342E4,9.91715E3,6E1,1.026593E4,6E1,9.91715E3,2.403919E1,9.91715E3,7.78173E3,1.299916E1,6E1,6E1,1.9884548E1,4.8E1,6E1,1.8322979E1,2.28486E3,2.7E1,2.1406363E1,9.1271174E-1,6E1,6E1,2.3684696E1,9.877174E-1,-9.803171E-1,1.1478207E1,1.1289959E1,3.232607E4,6.89954E3,7.40606E3,3E0,3.5E1,1.9081274E1,4.94902E3,8.8432664E-1,7.76E2,1.9535278E1,2.6E1,6.25E2,4.199075E4,6.69E2,4.5E1,1E0,8.08E2,3.8121456E-1,9.6146E3,8.46E2,5E0,1E0,7.0911354E-1,2.4378834E1,7.84E2,3E1,6.02E2,8.48E2,4.5E1,-9.194132E-1,-1.5708058E-1,-7.4926853E-1,-4.9736574E-2,1.7557424E-1,2.2263153E-1,-2.6029405E-1,5.7578016E-2,7.835983E-2,5.653025E-1,3.23889E-1,3.4353146E-1,6.794855E-1,6.1590636E-1,-7.653694E-2,-7.712673E-3,8.4189154E-2,6.4471847E-1,3.3080018E-1,3.3521238E-1,6.4970416E-1,2.424862E-1,7.29619E-2,3.3709815E-1,9.1878474E-1,7.587655E-1,5.514181E-1,-3.1650927E-2,5.767445E-1,5.643102E-1,7.484636E-2,2.7425104E-1,3.3347306E-1,3.1797108E-1,7.749715E-1,3.797041E-1,7.247278E-1,-2.6967356E-1,5.6104326E-1,-5.051918E-2,8.915631E-1,-9.2544176E-2,1.0245677E0,3.7488443E-1,4.208816E-1,4.655509E-1,8.354637E-1,7.236962E-1,4.865686E-1,5.3676766E-1,8.3355445E-1,7.77159E-1,4.731295E-1,6.119557E-1,5.864531E-1,8.053651E-1,9.79826E-1,1.1351769E0,6.5987074E-1,-2.0242692E-3],"split_indices":[3,3,3,3,0,0,0,0,0,1,0,1,0,3,0,0,3,1,1,3,9,1,3,0,9,3,4,1,1,3,4,0,3,3,0,0,0,9,9,3,0,4,2,3,9,2,0,2,1,11,2,0,0,2,7,8,4,3,2,1,2,2,1,0,0,0,0,0,0,0,0,0,0,0,0,0,0,0,0,0,0,0,0,0,0,0,0,0,0,0,0,0,0,0,0,0,0,0,0,0,0,0,0,0,0,0,0,0,0,0,0,0,0,0,0,0,0,0,0,0,0,0,0],"split_type":[0,0,0,0,0,0,0,0,0,0,0,0,0,0,0,0,0,0,0,0,0,0,0,0,0,0,0,0,0,0,0,0,0,0,0,0,0,0,0,0,0,0,0,0,0,0,0,0,0,0,0,0,0,0,0,0,0,0,0,0,0,0,0,0,0,0,0,0,0,0,0,0,0,0,0,0,0,0,0,0,0,0,0,0,0,0,0,0,0,0,0,0,0,0,0,0,0,0,0,0,0,0,0,0,0,0,0,0,0,0,0,0,0,0,0,0,0,0,0,0,0,0,0],"sum_hessian":[2.7957E4,2.4325E4,3.632E3,2.1095E4,3.23E3,1.122E3,2.51E3,1.8363E4,2.732E3,2.624E3,6.06E2,1E3,1.22E2,2.026E3,4.84E2,1.7332E4,1.031E3,2.53E3,2.02E2,2.375E3,2.49E2,3.71E2,2.35E2,9.09E2,9.1E1,3.7E1,8.5E1,9.66E2,1.06E3,2.96E2,1.88E2,1.6258E4,1.074E3,9.28E2,1.03E2,2.263E3,2.67E2,1.79E2,2.3E1,1.189E3,1.186E3,2.4E2,9E0,3.27E2,4.4E1,7E0,2.28E2,5.97E2,3.12E2,4.4E1,4.7E1,1.2E1,2.5E1,6.6E1,1.9E1,8.66E2,1E2,9.47E2,1.13E2,9.3E1,2.03E2,1.84E2,4E0,8.78E2,1.96E2,8.27E2,1.01E2,9.1E1,1.2E1,2.111E3,1.52E2,2.55E2,1.2E1,8E0,1.71E2,1.7E1,6E0,6.26E2,5.63E2,1.171E3,1.5E1,1.53E2,8.7E1,6E0,3E0,1.26E2,2.01E2,1.7E1,2.7E1,1E0,6E0,2.14E2,1.4E1,1.39E2,4.58E2,2.3E2,8.2E1,2.2E1,2.2E1,4.6E1,1E0,2E1,5E0,6.5E1,1E0,1.2E1,7E0,7.7E2,9.6E1,7E0,9.3E1,3.85E2,5.62E2,9.1E1,2.2E1,1.7E1,7.6E1,4E0,1.99E2,1.77E2,7E0,3E0,1E0],"tree_param":{"num_deleted":"0","num_feature":"13","num_nodes":"123","size_leaf_vector":"1"}},{"base_weights":[-6.174938E-3,-7.2219186E-2,3.5222885E-1,-9.299836E-2,6.135218E-2,1.8511492E-1,4.6337542E-1,-9.886548E-2,-6.556606E-2,2.4347503E-2,4.6171E-1,1.4452183E-1,5.796296E-1,4.0409327E-1,7.0526314E-1,-9.97283E-2,-9.1356635E-2,-8.0640316E-2,1.0442174E-1,2.2027867E-3,2.3249997E-1,4.7626457E-1,1.3846152E-1,1.20730825E-1,3.5923564E-1,4.4406778E-1,6.509615E-1,3.366477E-1,4.717973E-1,6.4342505E-1,8.096256E-1,-9.985744E-3,-9.419892E-2,-9.300176E-2,6.315787E-2,-8.885899E-2,-8.797678E-3,4.4615382E-1,8.829785E-2,-1.23057235E-2,1.0786161E-1,1.9959015E-1,4.432432E-1,4.471111E-1,6.60606E-1,4.4999998E-2,7.499998E-2,1.0541982E-1,2.95614E-1,2.2264148E-1,4.247619E-1,6.1249995E-1,3.1944442E-1,4.0555555E-1,6.9425285E-1,3.1267014E-1,5.578431E-1,4.531847E-1,6.342857E-1,4.6545452E-1,6.7692304E-1,2.6666665E-1,8.14054E-2,-9.969607E-3,-3.8235318E-3,-9.670332E-3,-6.120221E-3,-9.090912E-3,2.4444444E-2,-9.425693E-3,-7.0911744E-3,-1.7878813E-3,2.4166664E-2,-6.6666687E-3,5.454545E-2,5.7437993E-3,2.6829267E-2,-3.8109117E-3,2.5371525E-3,2.7317049E-3,2.5175437E-2,1.7675435E-2,4.9411763E-2,5.241379E-2,1.3333331E-2,2.981132E-2,4.901734E-2,1.1999998E-2,7.310345E-2,-8.57143E-3,2.4999999E-2,9.464739E-3,1.992537E-2,1.6764704E-2,3.45679E-2,4.695652E-2,3.225804E-3,4.4646464E-2,5.714284E-3,7.05E-2,1.1999998E-2,1.1578945E-2,5.1666666E-2,-8.333336E-3,6E-2,7.323944E-2,4.9411763E-2,2.599369E-2,3.3834115E-2,3.5757575E-2,6.442857E-2,2.8771928E-2,4.6331827E-2,6.8333335E-2,4.7499996E-2,2.9032258E-2,6.64E-2,4.34375E-2,7.061984E-2,4.4999998E-2,-5.0000013E-3],"categories":[],"categories_nodes":[],"categories_segments":[],"categories_sizes":[],"default_left":[0,0,0,0,0,0,0,0,0,0,0,0,0,0,0,0,0,0,0,0,0,0,0,0,0,0,0,0,0,0,0,0,0,0,0,0,0,0,0,0,0,0,0,0,0,0,0,0,0,0,0,0,0,0,0,0,0,0,0,0,0,0,0,0,0,0,0,0,0,0,0,0,0,0,0,0,0,0,0,0,0,0,0,0,0,0,0,0,0,0,0,0,0,0,0,0,0,0,0,0,0,0,0,0,0,0,0,0,0,0,0,0,0,0,0,0,0,0,0,0,0],"id":1,"left_children":[1,3,5,7,9,11,13,15,17,19,21,23,25,27,29,31,33,35,37,39,41,43,45,47,49,51,53,55,57,59,61,-1,63,65,67,69,71,73,75,77,79,81,83,85,87,-1,89,91,93,95,97,99,101,103,105,107,109,111,113,115,117,119,-1,-1,-1,-1,-1,-1,-1,-1,-1,-1,-1,-1,-1,-1,-1,-1,-1,-1,-1,-1,-1,-1,-1,-1,-1,-1,-1,-1,-1,-1,-1,-1,-1,-1,-1,-1,-1,-1,-1,-1,-1,-1,-1,-1,-1,-1,-1,-1,-1,-1,-1,-1,-1,-1,-1,-1,-1,-1,-1],"loss_changes":[6.620422E2,6.555474E1,8.07489E1,3.2830048E0,4.7100815E1,2.7781582E1,3.718445E1,9.994507E-2,9.243451E0,1.3422287E1,1.1996269E0,8.022568E0,1.2774506E0,9.435028E0,2.7897491E0,1.373291E-3,4.4995213E-1,1.9542046E0,1.5805609E0,4.0375905E0,1.8534803E0,1.085804E0,2.2326924E-1,3.7791138E0,1.3106594E0,1.0427847E0,8.2333374E-1,5.4263153E0,2.876007E0,1.6343994E0,2.3254395E-1,0E0,1.0755396E-1,1.9759941E-1,5.5289733E-1,2.8114128E-1,7.799253E-1,6.983683E-1,1.5509908E0,2.252584E0,3.6786726E0,1.5537491E0,8.57708E-1,1.297512E0,1.1687193E0,0E0,3.589286E-1,1.305316E0,6.7240715E-1,2.4763925E0,8.12212E-1,1.00875E0,1.3861256E0,1.7611113E0,3.022232E-1,1.2048492E0,1.5354061E0,1.4461975E0,4.957428E-1,1.7196665E0,1.6317215E0,1.9666666E-1,0E0,0E0,0E0,0E0,0E0,0E0,0E0,0E0,0E0,0E0,0E0,0E0,0E0,0E0,0E0,0E0,0E0,0E0,0E0,0E0,0E0,0E0,0E0,0E0,0E0,0E0,0E0,0E0,0E0,0E0,0E0,0E0,0E0,0E0,0E0,0E0,0E0,0E0,0E0,0E0,0E0,0E0,0E0,0E0,0E0,0E0,0E0,0E0,0E0,0E0,0E0,0E0,0E0,0E0,0E0,0E0,0E0,0E0,0E0],"parents":[2147483647,0,0,1,1,2,2,3,3,4,4,5,5,6,6,7,7,8,8,9,9,10,10,11,11,12,12,13,13,14,14,15,15,16,16,17,17,18,18,19,19,20,20,21,21,22,22,23,23,24,24,25,25,26,26,27,27,28,28,29,29,30,30,32,32,33,33,34,34,35,35,36,36,37,37,38,38,39,39,40,40,41,41,42,42,43,43,44,44,46,46,47,47,48,48,49,49,50,50,51,51,52,52,53,53,54,54,55,55,56,56,57,57,58,58,59,59,60,60,61,61],"right_children":[2,4,6,8,10,12,14,16,18,20,22,24,26,28,30,32,34,36,38,40,42,44,46,48,50,52,54,56,58,60,62,-1,64,66,68,70,72,74,76,78,80,82,84,86,88,-1,90,92,94,96,98,100,102,104,106,108,110,112,114,116,118,120,-1,-1,-1,-1,-1,-1,-1,-1,-1,-1,-1,-1,-1,-1,-1,-1,-1,-1,-1,-1,-1,-1,-1,-1,-1,-1,-1,-1,-1,-1,-1,-1,-1,-1,-1,-1,-1,-1,-1,-1,-1,-1,-1,-1,-1,-1,-1,-1,-1,-1,-1,-1,-1,-1,-1,-1,-1,-1,-1],"split_conditions":[2.0604603E1,1.7541624E1,2.2446915E1,1.3066786E1,9.6146E3,8.35371E3,1E0,1.1478207E1,9.6146E3,6E1,4.8E1,6E1,1.10283E4,2.403919E1,1.026593E4,1.989546E4,3.232607E4,6E1,3E0,5.03252E3,4.54636E3,6E1,3E1,5.6158E3,1.7E1,9.34238E3,2.0741863E1,6E1,6E1,3E1,2E0,-1.1179041E0,6E1,6E1,1.208157E1,1.6922E1,7.40606E3,1.37556925E1,6E1,1.9442093E1,1.9535278E1,8.2E2,7.48E2,1.8322979E1,1E1,1.6231994E-1,7.13E2,8.36E2,2E0,9.7806E2,8.15E2,6E0,7.41E2,7.15E2,6E0,2.3343695E1,2E0,2.6559E2,7.63E2,2.403919E1,2.3028795E1,1.504391E4,8.355627E-1,-7.019225E-1,-1.5961364E-1,-5.335783E-1,-1.5825666E-1,-6.509706E-2,2.2910671E-1,-3.7385586E-1,-1.6667496E-1,-3.0126814E-2,1.7031913E-1,-2.0513153E-2,2.896375E-1,1.4286964E-1,4.3673307E-1,-8.46382E-2,3.5809383E-2,6.106478E-2,3.105527E-1,2.5882888E-1,4.0717387E-1,6.683478E-1,4.943554E-1,3.478573E-1,4.176507E-1,8.898598E-1,7.529356E-1,-9.941178E-2,4.594675E-1,1.6458274E-1,2.7342793E-1,2.948884E-1,4.2657208E-1,6.655065E-1,1.5861073E-1,5.2848625E-1,7.7581674E-1,9.2594814E-1,1.4891091E-1,6.90507E-1,9.904153E-1,-4.541054E-2,9.114582E-1,8.142478E-1,8.905355E-1,2.8930238E-1,3.99625E-1,5.461757E-1,5.957487E-1,3.9772186E-1,4.790677E-1,8.7409925E-1,7.5141245E-1,4.2090765E-1,6.8763715E-1,4.566864E-1,6.8070936E-1,8.048487E-1,-7.9073906E-2],"split_indices":[3,3,3,3,0,0,10,3,0,1,9,1,0,3,0,0,0,1,9,0,0,1,1,0,9,0,3,1,1,1,9,0,1,1,3,3,0,3,1,3,3,2,2,3,9,0,2,2,7,0,2,7,2,2,7,3,7,0,2,3,3,0,0,0,0,0,0,0,0,0,0,0,0,0,0,0,0,0,0,0,0,0,0,0,0,0,0,0,0,0,0,0,0,0,0,0,0,0,0,0,0,0,0,0,0,0,0,0,0,0,0,0,0,0,0,0,0,0,0,0,0],"split_type":[0,0,0,0,0,0,0,0,0,0,0,0,0,0,0,0,0,0,0,0,0,0,0,0,0,0,0,0,0,0,0,0,0,0,0,0,0,0,0,0,0,0,0,0,0,0,0,0,0,0,0,0,0,0,0,0,0,0,0,0,0,0,0,0,0,0,0,0,0,0,0,0,0,0,0,0,0,0,0,0,0,0,0,0,0,0,0,0,0,0,0,0,0,0,0,0,0,0,0,0,0,0,0,0,0,0,0,0,0,0,0,0,0,0,0,0,0,0,0,0,0],"sum_hessian":[2.7967E4,2.3616E4,4.351E3,2.0437E4,3.179E3,1.739E3,2.612E3,1.6834E4,3.603E3,2.911E3,2.68E2,1.578E3,1.61E2,2.1E3,5.12E2,1.5088E4,1.746E3,3.31E3,2.93E2,2.632E3,2.79E2,2.56E2,1.2E1,1.422E3,1.56E2,5.8E1,1.03E2,1.055E3,1.045E3,3.26E2,1.86E2,1.4727E4,3.61E2,1.728E3,1.8E1,2.97E3,3.4E2,1.2E1,2.81E2,2.315E3,3.17E2,2.43E2,3.6E1,2.24E2,3.2E1,1E0,1.1E1,1.309E3,1.13E2,5.2E1,1.04E2,2.3E1,3.5E1,1.7E1,8.6E1,9.54E2,1.01E2,9.41E2,1.04E2,5.4E1,2.72E2,2E0,1.84E2,3.28E2,3.3E1,1.546E3,1.82E2,1E1,8E0,2.28E3,6.9E2,3.29E2,1.1E1,2E0,1E1,2.41E2,4E1,1.374E3,9.41E2,2.04E2,1.13E2,2.27E2,1.6E1,2.8E1,8E0,5.2E1,1.72E2,4E0,2.8E1,6E0,5E0,1.176E3,1.33E2,3.3E1,8E1,2.2E1,3E1,9.8E1,6E0,1.9E1,4E0,1.8E1,1.7E1,5E0,1.2E1,7E1,1.6E1,3.16E2,6.38E2,3.2E1,6.9E1,5.6E1,8.85E2,7.7E1,2.7E1,3E1,2.4E1,3.1E1,2.41E2,1E0,1E0],"tree_param":{"num_deleted":"0","num_feature":"13","num_nodes":"121","size_leaf_vector":"1"}},{"base_weights":[-1.2557314E-2,-2.2546617E-2,1.12433456E-1,-2.9660385E-2,4.1029558E-2,2.647727E-1,1.05606034E-1,-3.598036E-2,1.1071976E-2,2.7904866E-2,1.1893331E-1,-9.523812E-3,3.720588E-1,2.8282804E-2,1.191805E-1,1.151024E-2,-3.942899E-2,1.2393615E-1,3.84613E-3,5.1606957E-2,5.2585215E-3,1.0988987E-2,1.5298243E-1,-8.57143E-3,4.1774192E-1,4.2164154E-2,-9.666669E-3,6.1176467E-1,1.1408871E-1,-3.6963213E-2,5.5820454E-2,-9.737472E-2,-3.8104083E-2,-9.545457E-3,1.5209578E-1,-4.038007E-2,1.1239055E-2,9.761881E-3,7.776117E-2,-4.9082592E-2,1.807357E-2,-5.4411788E-2,1.9583331E-1,2.9629627E-1,9.560973E-2,3.1707314E-1,5.863636E-1,6.315787E-2,-3.166669E-2,7.272727E-1,3.4285712E-1,1.2608986E-1,1.2921325E-2,-1.0065669E-3,-9.948983E-3,1.3578429E-2,2.3725468E-3,-7.380955E-3,-9.973547E-3,2.3804346E-2,-3.949302E-3,7.888886E-3,2.3461536E-2,3.064514E-3,-5.2500027E-3,4.3260166E-3,-8.386708E-4,9.35714E-3,-3.2028493E-3,3.9069768E-2,5.621017E-3,2.033896E-3,-7.4375025E-3,1.0943394E-2,1.2499976E-3,3.3333103E-4,-9.743593E-3,-9.000002E-3,3.7333332E-2,7.826085E-3,3.7627116E-2,1.0999977E-3,1.7452827E-2,4.8965514E-2,-9.230772E-3,2.4444444E-2,7.642857E-2,1.2499998E-2,2.7611917E-3,-6.1818208E-3,2.4999999E-2,2.6666665E-2,8E-2,5.1999997E-2,-6.6666687E-3,1.1749127E-2,3.4035087E-2,2.1874998E-2,-7.361987E-4],"categories":[],"categories_nodes":[],"categories_segments":[],"categories_sizes":[],"default_left":[0,0,0,0,0,0,0,0,0,0,0,0,0,0,0,0,0,0,0,0,0,0,0,0,0,0,0,0,0,0,0,0,0,0,0,0,0,0,0,0,0,0,0,0,0,0,0,0,0,0,0,0,0,0,0,0,0,0,0,0,0,0,0,0,0,0,0,0,0,0,0,0,0,0,0,0,0,0,0,0,0,0,0,0,0,0,0,0,0,0,0,0,0,0,0,0,0,0,0],"id":2,"left_children":[1,3,5,7,9,11,13,15,17,19,21,-1,23,25,27,29,31,33,35,37,39,41,43,-1,45,47,-1,49,51,53,55,57,59,-1,61,63,65,67,69,71,73,75,77,79,81,83,85,87,89,91,93,95,97,-1,-1,-1,-1,-1,-1,-1,-1,-1,-1,-1,-1,-1,-1,-1,-1,-1,-1,-1,-1,-1,-1,-1,-1,-1,-1,-1,-1,-1,-1,-1,-1,-1,-1,-1,-1,-1,-1,-1,-1,-1,-1,-1,-1,-1,-1],"loss_changes":[3.487262E1,1.1697724E1,2.121889E0,5.9881573E0,2.6581516E0,3.43436E0,2.0748806E0,3.2982807E0,2.548083E0,1.1961792E0,1.3765979E0,0E0,1.4578571E0,5.192128E-1,4.153906E0,2.931757E0,1.4375458E0,1.1759753E0,9.610651E-1,1.1910701E0,7.954612E-1,1.1107512E0,2.3150277E0,0E0,8.6652565E-1,4.1739562E-1,0E0,2.7868605E-1,2.023531E0,1.09554E0,1.826649E0,1.5947819E-2,7.049467E0,0E0,9.9033856E-1,3.6401504E-1,1.5827714E0,1.4740181E0,4.4965825E0,3.842858E-1,4.6913797E-1,1.6926624E-1,1.2512503E0,1.382978E0,1.3669223E0,2.9419217E0,1.1515441E0,4.5598012E-1,5.250152E-1,1.5515137E-1,5.424762E-1,2.7069416E0,7.4474025E-1,0E0,0E0,0E0,0E0,0E0,0E0,0E0,0E0,0E0,0E0,0E0,0E0,0E0,0E0,0E0,0E0,0E0,0E0,0E0,0E0,0E0,0E0,0E0,0E0,0E0,0E0,0E0,0E0,0E0,0E0,0E0,0E0,0E0,0E0,0E0,0E0,0E0,0E0,0E0,0E0,0E0,0E0,0E0,0E0,0E0,0E0],"parents":[2147483647,0,0,1,1,2,2,3,3,4,4,5,5,6,6,7,7,8,8,9,9,10,10,12,12,13,13,14,14,15,15,16,16,17,17,18,18,19,19,20,20,21,21,22,22,24,24,25,25,27,27,28,28,29,29,30,30,31,31,32,32,34,34,35,35,36,36,37,37,38,38,39,39,40,40,41,41,42,42,43,43,44,44,45,45,46,46,47,47,48,48,49,49,50,50,51,51,52,52],"right_children":[2,4,6,8,10,12,14,16,18,20,22,-1,24,26,28,30,32,34,36,38,40,42,44,-1,46,48,-1,50,52,54,56,58,60,-1,62,64,66,68,70,72,74,76,78,80,82,84,86,88,90,92,94,96,98,-1,-1,-1,-1,-1,-1,-1,-1,-1,-1,-1,-1,-1,-1,-1,-1,-1,-1,-1,-1,-1,-1,-1,-1,-1,-1,-1,-1,-1,-1,-1,-1,-1,-1,-1,-1,-1,-1,-1,-1,-1,-1,-1,-1,-1,-1],"split_conditions":[1.026593E4,6E1,7.118817E-1,1E0,4.70955E3,7.023192E-1,7.570493E-1,7.1740735E-1,7.151484E-1,8.526921E-1,7.772576E-1,-2.2113171E-1,1.060618E4,7.539687E-1,7.5811976E-1,7.087115E-1,7.2265536E-1,7.023192E-1,7.570493E-1,7.570493E-1,8.80501E-1,3.5E1,8.3441055E-1,-7.5561523E-1,7.087115E-1,2.403299E4,-3.224974E-1,3E1,9.708583E-1,7.064909E-1,7.118817E-1,3.2062E2,7.2567487E-1,-4.9994737E-1,6.77324E3,1E0,8.470688E-1,7.1740735E-1,7.605449E-1,8.585468E-1,8.875108E-1,7.3774004E-1,5.86333E3,1.1E1,9.154366E-1,7.064909E-1,5E0,1.7E1,7.5011206E-1,3E1,1.427733E4,9.635978E-1,1.10283E4,-1.8849043E-2,-7.005073E-1,2.1422179E-1,8.0946594E-2,-8.195545E-1,-6.5026903E-1,2.6469266E-1,-1.613417E-1,2.1280968E-1,3.766201E-1,7.6447554E-2,-2.0105694E-1,1.4068806E-1,-3.0641025E-2,3.1028974E-1,-1.4936432E-1,5.182732E-1,1.6477968E-1,8.9368984E-2,-3.393925E-1,3.9025828E-1,6.346979E-2,1.3531804E-1,-1.2245902E-1,-6.494894E-2,6.603539E-1,2.8074068E-1,6.8449366E-1,1.1217855E-2,5.329353E-1,6.110603E-1,-1.8123196E-1,3.6314106E-1,9.050129E-1,3.3267245E-1,9.674789E-2,-1.617558E-1,2.0619603E-1,1.2874947E-1,5.7580036E-1,3.7538433E-1,-6.0141947E-2,3.3503267E-1,4.2983148E-1,4.164787E-1,-1.3361506E-2],"split_indices":[0,1,4,10,0,4,4,4,4,4,4,0,0,4,4,4,4,4,4,4,4,9,4,0,4,0,0,9,4,4,4,0,4,0,0,7,4,4,4,4,4,4,0,9,4,4,5,9,4,1,0,4,0,0,0,0,0,0,0,0,0,0,0,0,0,0,0,0,0,0,0,0,0,0,0,0,0,0,0,0,0,0,0,0,0,0,0,0,0,0,0,0,0,0,0,0,0,0,0],"split_type":[0,0,0,0,0,0,0,0,0,0,0,0,0,0,0,0,0,0,0,0,0,0,0,0,0,0,0,0,0,0,0,0,0,0,0,0,0,0,0,0,0,0,0,0,0,0,0,0,0,0,0,0,0,0,0,0,0,0,0,0,0,0,0,0,0,0,0,0,0,0,0,0,0,0,0,0,0,0,0,0,0,0,0,0,0,0,0,0,0,0,0,0,0,0,0,0,0,0,0],"sum_hessian":[2.7927E4,2.5861E4,2.066E3,2.3259E4,2.602E3,8.7E1,1.979E3,2.0135E4,3.124E3,2.228E3,3.74E2,2E1,6.7E1,2.96E2,1.683E3,1.363E3,1.8772E4,1.87E2,2.937E3,1.088E3,1.14E3,9E1,2.84E2,6E0,6.1E1,2.67E2,2.9E1,1.6E1,1.667E3,6.51E2,7.12E2,4.18E2,1.8354E4,2.1E1,1.66E2,4.2E2,2.517E3,4.19E2,6.69E2,2.17E2,9.23E2,6.7E1,2.3E1,8E1,2.04E2,4E1,2.1E1,2.08E2,5.9E1,1E1,6E0,1.49E3,1.77E2,4.56E2,1.95E2,2.03E2,5.09E2,4.1E1,3.77E2,9.1E1,1.8263E4,8.9E1,7.7E1,6.1E1,3.59E2,9.56E2,1.561E3,1.39E2,2.8E2,4.2E1,6.27E2,5.8E1,1.59E2,5.2E1,8.71E2,2.9E1,3.8E1,9E0,1.4E1,2.2E1,5.8E1,9.9E1,1.05E2,2.8E1,1.2E1,8E0,1.3E1,7.5E1,1.33E2,5.4E1,5E0,2E0,8E0,4E0,2E0,1.434E3,5.6E1,1.5E1,1.62E2],"tree_param":{"num_deleted":"0","num_feature":"13","num_nodes":"99","size_leaf_vector":"1"}},{"base_weights":[-1.3624363E-2,-2.9013693E-2,4.804007E-2,-3.4541953E-2,1.9728165E-2,2.1136794E-2,9.314804E-2,9.26383E-3,-3.73426E-2,4.6097312E-2,-4.3587834E-3,9.441762E-3,1.209809E-1,2.2333331E-1,8.723722E-2,-3.194345E-3,1.7831323E-1,-5.546178E-2,-3.26151E-2,3.934577E-2,4.0499997E-1,-3.4459483E-2,1.3466643E-2,9.948977E-2,3.4353503E-3,-1.6129267E-3,1.4542481E-1,-4.5000024E-2,2.9577464E-1,-4.950732E-4,9.7050615E-2,-8.296706E-2,1.2156424E-2,3.2608673E-2,3.4999996E-1,-4.3675847E-2,-9.15713E-2,3.306122E-1,-3.3804066E-2,1.5765527E-3,6.6028684E-2,5.9999996E-1,3.749998E-2,-9.8611135E-3,-2.1983938E-2,3.4999996E-1,5.1841508E-3,2.065215E-2,1.6761902E-1,-2.4177656E-2,1.06300665E-2,1.2142855E-1,-3.673472E-2,1.0840706E-1,2.4691355E-1,1.7499998E-1,-9.411767E-3,3.3906248E-1,-8.750002E-3,-9.04525E-3,4.2499998E-1,1.03201374E-1,-3.6250025E-2,-9.316772E-3,-4.5454773E-4,3.6377222E-3,-4.587816E-3,2.8749997E-2,-2.0512843E-3,4.516129E-2,-8.750002E-3,-5.2139545E-3,9.585797E-3,-8.392859E-3,-9.978169E-3,2.6829267E-2,5.7777774E-2,-1.446754E-3,-4.2077624E-3,9.47761E-3,-3.8585234E-3,7.5E-2,5.9324736E-3,-5.0000013E-3,6.583333E-2,4.4999998E-2,-8.57143E-3,-5.887099E-3,-3.6000236E-4,-8.57143E-3,5.75E-2,1.4307435E-3,-7.272729E-3,1.3142856E-2,-4.655175E-3,-4.210529E-3,2.1149423E-2,-1.4312292E-3,-9.859158E-3,5.6919036E-3,1.5376492E-4,-8.333355E-4,6E-2,-9.677421E-3,6.3157873E-3,1.7399998E-2,-2.0779246E-3,6.363636E-2,1.8309858E-2,4.4999998E-2,-6.6666687E-3,1.1578945E-2,4.2391304E-2,8.571426E-3,-3.9735124E-3,6E-2,-5.0000013E-3,9.735758E-3,7.1875E-2,2.0999998E-2,-7.042256E-3],"categories":[],"categories_nodes":[],"categories_segments":[],"categories_sizes":[],"default_left":[0,0,0,0,0,0,0,0,0,0,0,0,0,0,0,0,0,0,0,0,0,0,0,0,0,0,0,0,0,0,0,0,0,0,0,0,0,0,0,0,0,0,0,0,0,0,0,0,0,0,0,0,0,0,0,0,0,0,0,0,0,0,0,0,0,0,0,0,0,0,0,0,0,0,0,0,0,0,0,0,0,0,0,0,0,0,0,0,0,0,0,0,0,0,0,0,0,0,0,0,0,0,0,0,0,0,0,0,0,0,0,0,0,0,0,0,0,0,0,0,0],"id":3,"left_children":[1,3,5,7,9,11,13,15,17,19,21,23,25,27,29,31,33,35,37,39,41,43,45,47,49,51,53,55,57,59,61,63,65,67,69,71,73,75,77,79,81,83,85,-1,87,89,91,93,95,97,99,101,103,105,107,109,-1,111,-1,113,115,117,119,-1,-1,-1,-1,-1,-1,-1,-1,-1,-1,-1,-1,-1,-1,-1,-1,-1,-1,-1,-1,-1,-1,-1,-1,-1,-1,-1,-1,-1,-1,-1,-1,-1,-1,-1,-1,-1,-1,-1,-1,-1,-1,-1,-1,-1,-1,-1,-1,-1,-1,-1,-1,-1,-1,-1,-1,-1,-1],"loss_changes":[2.6546104E1,6.0327587E0,6.778146E0,2.467043E0,1.4489832E0,4.0869055E0,1.5864677E0,2.5467806E0,1.6169643E0,2.6228716E0,6.405775E-1,1.6952715E0,1.1000133E0,1.7627678E0,1.720231E0,1.3811018E0,2.0648773E0,1.6596098E0,6.484828E0,1.0782343E0,1.4107502E0,3.5317725E-1,2.0886865E0,1.0492833E0,5.843401E-1,2.7238974E-1,1.1228404E0,2.3258823E-1,1.2076387E0,7.387319E-1,1.4771023E0,1.4516783E-1,1.331408E0,6.2874717E-1,1.7288308E0,3.4876828E0,5.1927567E-2,5.997448E-1,2.389841E0,1.6655756E0,2.830495E0,5.2583313E-1,4.4517857E-1,0E0,2.5272995E-1,1.8139288E0,5.2206296E-1,6.910219E-1,9.7508335E-1,4.4493407E-1,9.818224E-1,8.744048E-1,2.999896E-1,1.9186735E0,1.896555E0,2.9583335E-1,0E0,1.1633859E0,0E0,5.821292E-1,3.6249995E-1,6.109909E0,6.879877E-1,0E0,0E0,0E0,0E0,0E0,0E0,0E0,0E0,0E0,0E0,0E0,0E0,0E0,0E0,0E0,0E0,0E0,0E0,0E0,0E0,0E0,0E0,0E0,0E0,0E0,0E0,0E0,0E0,0E0,0E0,0E0,0E0,0E0,0E0,0E0,0E0,0E0,0E0,0E0,0E0,0E0,0E0,0E0,0E0,0E0,0E0,0E0,0E0,0E0,0E0,0E0,0E0,0E0,0E0,0E0,0E0,0E0,0E0],"parents":[2147483647,0,0,1,1,2,2,3,3,4,4,5,5,6,6,7,7,8,8,9,9,10,10,11,11,12,12,13,13,14,14,15,15,16,16,17,17,18,18,19,19,20,20,21,21,22,22,23,23,24,24,25,25,26,26,27,27,28,28,29,29,30,30,31,31,32,32,33,33,34,34,35,35,36,36,37,37,38,38,39,39,40,40,41,41,42,42,44,44,45,45,46,46,47,47,48,48,49,49,50,50,51,51,52,52,53,53,54,54,55,55,57,57,59,59,60,60,61,61,62,62],"right_children":[2,4,6,8,10,12,14,16,18,20,22,24,26,28,30,32,34,36,38,40,42,44,46,48,50,52,54,56,58,60,62,64,66,68,70,72,74,76,78,80,82,84,86,-1,88,90,92,94,96,98,100,102,104,106,108,110,-1,112,-1,114,116,118,120,-1,-1,-1,-1,-1,-1,-1,-1,-1,-1,-1,-1,-1,-1,-1,-1,-1,-1,-1,-1,-1,-1,-1,-1,-1,-1,-1,-1,-1,-1,-1,-1,-1,-1,-1,-1,-1,-1,-1,-1,-1,-1,-1,-1,-1,-1,-1,-1,-1,-1,-1,-1,-1,-1,-1,-1,-1,-1],"split_conditions":[4.94902E3,6E1,1.026593E4,7.142145E-1,8.470688E-1,6E1,7.118817E-1,7.1409357E-1,7.772576E-1,8.4411097E-1,9.1011983E-1,7.151484E-1,6.23E2,7.023192E-1,7.3973566E-1,7.023192E-1,7.62E2,7.605449E-1,7.8007853E-1,7.570493E-1,5E0,1E0,9.1271174E-1,7.087115E-1,7.75208E-1,7.5811976E-1,9.203819E-1,3E1,8.13E2,8.62E2,9.877174E-1,4.4E1,7.118817E-1,6.37E2,4.5E1,7.5843894E-1,7.668409E-1,4.5E1,8.470688E-1,7.142145E-1,7.5740975E-1,2.2849E2,4E0,-2.1246944E-1,6.62E2,1.31499E3,9.8859155E-1,1.8E1,6.82E2,7.668409E-1,8.141698E-1,7.5011206E-1,9.1418123E-1,8.4043616E-1,9.235159E-1,1.989546E4,-3.4768602E-1,1.146912E4,-2.0113106E-1,7.1740735E-1,1.839436E4,9.861144E-1,1.146912E4,-3.5903794E-1,9.251791E-2,7.572064E-2,-3.6639106E-1,4.7166118E-1,-3.4737408E-3,7.600058E-1,-8.301868E-2,-2.172064E-1,2.5387508E-1,-4.0100524E-1,-4.4495144E-1,3.6790296E-1,3.906029E-1,-5.3040672E-2,-1.744061E-1,2.7195463E-1,-1.3968688E-1,4.0477964E-1,1.85621E-1,-9.7105406E-2,4.4451472E-1,5.513533E-1,-1.163044E-2,-3.024047E-1,-1.854974E-2,-2.6608467E-2,5.908855E-1,5.8247596E-2,-1.9548151E-1,2.7541304E-1,-4.5638178E-2,-8.843463E-2,4.577643E-1,-3.129454E-2,-4.5233473E-1,1.439672E-1,5.4581417E-3,8.951942E-2,6.3926643E-1,-1.2323742E-1,6.136448E-1,4.5117202E-1,-2.6933396E-2,8.963982E-1,4.8754367E-1,8.9914516E-2,-6.656894E-1,4.9690816E-1,5.200898E-1,2.3287378E-1,-7.464771E-2,6.7686695E-1,-1.30823E0,2.9570064E-1,6.2902373E-1,5.116634E-1,-2.5048164E-1],"split_indices":[0,1,0,4,4,1,4,4,4,4,4,4,2,4,4,4,2,4,4,4,7,7,4,4,4,4,4,1,2,2,4,9,4,2,1,4,4,1,4,4,4,0,9,0,2,0,4,9,2,4,4,4,4,4,4,0,0,0,0,4,0,4,0,0,0,0,0,0,0,0,0,0,0,0,0,0,0,0,0,0,0,0,0,0,0,0,0,0,0,0,0,0,0,0,0,0,0,0,0,0,0,0,0,0,0,0,0,0,0,0,0,0,0,0,0,0,0,0,0,0,0],"split_type":[0,0,0,0,0,0,0,0,0,0,0,0,0,0,0,0,0,0,0,0,0,0,0,0,0,0,0,0,0,0,0,0,0,0,0,0,0,0,0,0,0,0,0,0,0,0,0,0,0,0,0,0,0,0,0,0,0,0,0,0,0,0,0,0,0,0,0,0,0,0,0,0,0,0,0,0,0,0,0,0,0,0,0,0,0,0,0,0,0,0,0,0,0,0,0,0,0,0,0,0,0,0,0,0,0,0,0,0,0,0,0,0,0,0,0,0,0,0,0,0,0],"sum_hessian":[2.7971E4,2.2385E4,5.586E3,2.0105E4,2.28E3,3.5E3,2.086E3,1.208E3,1.8897E4,1.088E3,1.192E3,3.134E3,3.66E2,8.9E1,1.997E3,1.126E3,8.2E1,3.908E3,1.4989E4,1.069E3,1.9E1,4.43E2,7.49E2,1.95E2,2.939E3,6.1E1,3.05E2,1.9E1,7E1,2.01E2,1.796E3,1.81E2,9.45E2,4.5E1,3.7E1,2.948E3,9.6E2,4.8E1,1.4941E4,4.43E2,6.26E2,1.2E1,7E0,7.1E1,3.72E2,1.7E1,7.32E2,9.1E1,1.04E2,6.07E2,2.332E3,1.3E1,4.8E1,2.25E2,8E1,3E0,1.6E1,6.3E1,7E0,1.98E2,3E0,1.717E3,7.9E1,1.6E2,2.1E1,6.67E2,2.78E2,7E0,3.8E1,3E1,7E0,2.78E3,1.68E2,5.03E2,4.57E2,4E1,8E0,4.478E3,1.0463E4,1.33E2,3.1E2,5E0,6.21E2,1E0,1.1E1,1E0,6E0,1.23E2,2.49E2,6E0,1.1E1,6.56E2,7.6E1,3.4E1,5.7E1,1.8E1,8.6E1,5.37E2,7E1,3.82E2,1.95E3,1.1E1,2E0,3E1,1.8E1,1.49E2,7.6E1,1E1,7E1,1E0,2E0,1.8E1,4.5E1,4.8E1,1.5E2,2E0,1E0,1.702E3,1.5E1,9E0,7E1],"tree_param":{"num_deleted":"0","num_feature":"13","num_nodes":"121","size_leaf_vector":"1"}},{"base_weights":[-1.2267722E-2,-2.0404557E-2,8.93288E-2,-2.6363151E-2,3.2430347E-2,2.3444442E-1,8.2694225E-2,-3.0954178E-2,3.4138248E-3,2.0526526E-2,1.0236218E-1,1.4029849E-1,4.8749998E-1,1.4705858E-2,9.505066E-2,9.603151E-3,-3.3660084E-2,8.042326E-2,-1.5769865E-3,1.07142836E-1,1.5359145E-2,2.613634E-2,1.2482991E-1,2.1568625E-1,-9.411767E-3,1.9999997E-1,5.722222E-1,2.763634E-2,-9.687503E-3,6.8888885E-1,9.1791466E-2,-8.197677E-2,2.4058746E-2,-5.3317804E-2,-2.8607601E-2,-9.523812E-3,1.01775125E-1,-2.9459925E-2,5.8083856E-3,5.567008E-2,2.6999998E-1,-3.4098383E-2,2.3675473E-2,1.3333331E-1,-5.8000024E-2,2.897959E-1,9.1463394E-2,-4.5000024E-2,3.71875E-1,3.2E-1,-6.6666687E-3,3.5555553E-1,7.1E-1,1.3306428E-2,1.5357141E-1,7.714286E-2,2.6666665E-1,9.880124E-2,-4.0000025E-2,-9.281049E-3,4.9999775E-4,1.2889343E-3,8.930815E-3,-4.294874E-3,-8.759779E-3,3.2444444E-2,-2.9666757E-3,1.3037035E-2,-1.1428595E-3,-1.3836502E-3,-8.444447E-3,2.0869564E-2,3.7636523E-4,-5.9259282E-3,9.859153E-3,4.0555555E-2,6.153844E-3,-7.6923105E-3,-1.5813977E-3,3.272727E-2,1.8033683E-3,7.5862044E-3,2.7272725E-2,-7.7083358E-3,2.6666665E-2,1.5999999E-2,5.733333E-2,3.5074602E-3,1.575221E-2,2.6666665E-2,-9.444447E-3,4.875E-2,2.2222202E-3,-5.0000013E-3,4.25E-2,-5.0000013E-3,4.1249998E-2,7.875E-2,2.6666665E-2,5.0624977E-3,-5.3932606E-3,1.0526293E-3,4.0999997E-2,-5.0000013E-3,4.4999998E-2,9.408395E-3,6.2142856E-2,2.4444444E-2,-7.272729E-3],"categories":[],"categories_nodes":[],"categories_segments":[],"categories_sizes":[],"default_left":[0,0,0,0,0,0,0,0,0,0,0,0,0,0,0,0,0,0,0,0,0,0,0,0,0,0,0,0,0,0,0,0,0,0,0,0,0,0,0,0,0,0,0,0,0,0,0,0,0,0,0,0,0,0,0,0,0,0,0,0,0,0,0,0,0,0,0,0,0,0,0,0,0,0,0,0,0,0,0,0,0,0,0,0,0,0,0,0,0,0,0,0,0,0,0,0,0,0,0,0,0,0,0,0,0,0,0,0,0],"id":4,"left_children":[1,3,5,7,9,11,13,15,17,19,21,23,25,27,29,31,33,35,37,39,41,43,45,47,-1,49,51,53,-1,55,57,59,61,63,65,-1,67,69,71,73,75,77,79,81,83,85,87,89,91,93,-1,95,97,99,101,-1,103,105,107,-1,-1,-1,-1,-1,-1,-1,-1,-1,-1,-1,-1,-1,-1,-1,-1,-1,-1,-1,-1,-1,-1,-1,-1,-1,-1,-1,-1,-1,-1,-1,-1,-1,-1,-1,-1,-1,-1,-1,-1,-1,-1,-1,-1,-1,-1,-1,-1,-1,-1],"loss_changes":[2.3088348E1,8.141202E0,1.9745331E0,3.1767635E0,2.179766E0,2.075778E0,1.6636677E0,2.2098064E0,1.1935011E0,1.0013802E0,6.492462E-1,1.2043313E0,4.7013903E-1,4.4417235E-1,3.1824894E0,1.6700135E0,1.873045E0,7.185749E-1,6.008569E-1,1.04119E0,8.711288E-1,8.014197E-1,1.5917702E0,2.0932636E0,0E0,2.4533334E-1,2.8488874E-1,4.9423212E-1,0E0,1.07935905E-1,1.5458212E0,1.6253638E-1,7.925087E-1,1.3675699E0,5.625037E0,0E0,5.485574E-1,5.237091E-1,9.562741E-1,4.8433715E-1,8.2278633E-1,2.3760605E-1,3.0977485E0,2.9174513E-1,3.3034167E-1,1.7115645E0,9.108176E-1,3.333889E-1,1.2828817E0,2.155E-1,0E0,2.2847211E-1,1.3358355E-1,6.250276E-1,1.022748E0,0E0,1.9666666E-1,3.8491688E0,8.090505E-1,0E0,0E0,0E0,0E0,0E0,0E0,0E0,0E0,0E0,0E0,0E0,0E0,0E0,0E0,0E0,0E0,0E0,0E0,0E0,0E0,0E0,0E0,0E0,0E0,0E0,0E0,0E0,0E0,0E0,0E0,0E0,0E0,0E0,0E0,0E0,0E0,0E0,0E0,0E0,0E0,0E0,0E0,0E0,0E0,0E0,0E0,0E0,0E0,0E0,0E0],"parents":[2147483647,0,0,1,1,2,2,3,3,4,4,5,5,6,6,7,7,8,8,9,9,10,10,11,11,12,12,13,13,14,14,15,15,16,16,17,17,18,18,19,19,20,20,21,21,22,22,23,23,25,25,26,26,27,27,29,29,30,30,31,31,32,32,33,33,34,34,36,36,37,37,38,38,39,39,40,40,41,41,42,42,43,43,44,44,45,45,46,46,47,47,48,48,49,49,51,51,52,52,53,53,54,54,56,56,57,57,58,58],"right_children":[2,4,6,8,10,12,14,16,18,20,22,24,26,28,30,32,34,36,38,40,42,44,46,48,-1,50,52,54,-1,56,58,60,62,64,66,-1,68,70,72,74,76,78,80,82,84,86,88,90,92,94,-1,96,98,100,102,-1,104,106,108,-1,-1,-1,-1,-1,-1,-1,-1,-1,-1,-1,-1,-1,-1,-1,-1,-1,-1,-1,-1,-1,-1,-1,-1,-1,-1,-1,-1,-1,-1,-1,-1,-1,-1,-1,-1,-1,-1,-1,-1,-1,-1,-1,-1,-1,-1,-1,-1,-1,-1],"split_conditions":[1.026593E4,6E1,7.118817E-1,1E0,4.70955E3,7.087115E-1,7.570493E-1,7.151484E-1,7.151484E-1,7.142145E-1,7.734815E-1,7.064909E-1,1.146912E4,7.539687E-1,7.5740975E-1,7.023192E-1,7.772576E-1,7.023192E-1,7.75208E-1,7.1252316E-1,7.570493E-1,7.3774004E-1,8.141698E-1,7.023192E-1,-2.2656702E-1,8E0,1.3E1,6E1,-3.0789274E-1,1.504391E4,9.877174E-1,4.4E1,7.1409357E-1,7.6077276E-1,7.8007853E-1,-4.795568E-1,7E0,7.6077276E-1,5.03252E3,1.8E1,3.2E1,1.8E1,7.605449E-1,3.3E1,4.5E1,7.40606E3,9.1011983E-1,3E1,1.839436E4,2E0,-1.4641742E0,2E0,3.9E1,1.839436E4,7.3963964E-1,4.8865032E-1,2E0,9.861144E-1,1.146912E4,-2.8960085E-1,1.18258335E-1,1.9015206E-2,2.775137E-1,-1.7848158E-1,-3.7168553E-1,4.2171332E-1,-1.1265612E-1,3.2142207E-1,-1.7510697E-2,-1.9207066E-2,-3.041485E-1,3.076118E-1,1.496045E-2,-1.0396712E-1,1.5144984E-1,7.9082036E-1,4.2896914E-1,-3.657059E-1,-5.3079814E-2,4.478838E-1,6.761399E-2,1.8354325E-1,4.9089596E-1,-1.4793415E-1,5.7533973E-1,3.345745E-1,7.1737164E-1,1.3494755E-1,4.168848E-1,8.092308E-2,-1.4067341E-1,4.804887E-1,2.4362068E-1,-2.3816013E-1,4.6057397E-1,-2.3570056E0,4.796404E-1,9.639217E-1,4.5860407E-1,1.9889219E-1,-1.1720908E-1,1.8655564E-1,5.6142896E-1,-8.36977E-2,8.630448E-2,2.631662E-1,5.529333E-1,4.604971E-1,-2.662333E-1],"split_indices":[0,1,4,10,0,4,4,4,4,4,4,4,0,4,4,4,4,4,4,4,4,4,4,4,0,5,9,1,0,0,4,9,4,4,4,0,5,4,0,9,9,9,4,9,9,0,4,1,0,5,0,5,9,0,4,0,5,4,0,0,0,0,0,0,0,0,0,0,0,0,0,0,0,0,0,0,0,0,0,0,0,0,0,0,0,0,0,0,0,0,0,0,0,0,0,0,0,0,0,0,0,0,0,0,0,0,0,0,0],"split_type":[0,0,0,0,0,0,0,0,0,0,0,0,0,0,0,0,0,0,0,0,0,0,0,0,0,0,0,0,0,0,0,0,0,0,0,0,0,0,0,0,0,0,0,0,0,0,0,0,0,0,0,0,0,0,0,0,0,0,0,0,0,0,0,0,0,0,0,0,0,0,0,0,0,0,0,0,0,0,0,0,0,0,0,0,0,0,0,0,0,0,0,0,0,0,0,0,0,0,0,0,0,0,0,0,0,0,0,0,0],"sum_hessian":[2.7926E4,2.5856E4,2.07E3,2.3236E4,2.62E3,8.9E1,1.981E3,2.0132E4,3.104E3,2.24E3,3.8E2,6.6E1,2.3E1,3.05E2,1.676E3,1.259E3,1.8873E4,1.88E2,2.916E3,1.25E2,2.115E3,8.7E1,2.93E2,5E1,1.6E1,6E0,1.7E1,2.74E2,3.1E1,8E0,1.668E3,1.71E2,1.088E3,3.857E3,1.5016E4,2E1,1.68E2,6.1E2,2.306E3,9.6E1,2.9E1,3.04E2,1.811E3,3.8E1,4.9E1,4.8E1,2.45E2,1.9E1,3.1E1,4E0,2E0,8E0,9E0,2.47E2,2.7E1,6E0,2E0,1.584E3,8.4E1,1.52E2,1.9E1,9.3E2,1.58E2,2.963E3,8.94E2,4.4E1,1.4972E4,1.34E2,3.4E1,4.76E2,1.34E2,2.2E1,2.284E3,2.6E1,7E1,1.7E1,1.2E1,9E1,2.14E2,3.2E1,1.779E3,2.8E1,1E1,4.7E1,2E0,3.4E1,1.4E1,1.33E2,1.12E2,2E0,1.7E1,2.3E1,8E0,1E0,3E0,1E0,7E0,7E0,2E0,1.59E2,8.8E1,1.8E1,9E0,1E0,1E0,1.571E3,1.3E1,8E0,7.6E1],"tree_param":{"num_deleted":"0","num_feature":"13","num_nodes":"109","size_leaf_vector":"1"}},{"base_weights":[-1.0561765E-2,-7.329446E-2,3.2047188E-1,-9.347699E-2,4.655832E-2,1.7721727E-1,4.179826E-1,-9.857736E-2,-6.609689E-2,1.0246935E-2,1.9286773E-1,1.3682035E-1,3.434659E-1,3.7887388E-1,5.855711E-1,-9.965968E-2,-9.0235196E-2,-7.70356E-2,-2.2063516E-2,-3.3685304E-3,1.4439997E-1,1.6428569E-1,4.2916664E-1,7.714286E-2,1.3365582E-1,3.213622E-1,5.7E-1,3.5972077E-1,5.486111E-1,5.194139E-1,6.6255504E-1,-9.991887E-3,-9.713689E-2,-9.670332E-2,-6.560978E-2,-8.190227E-2,-3.4230795E-2,-4.0000025E-2,7.812498E-2,-5.087517E-2,2.1952713E-2,3.2608673E-2,1.6878046E-1,1.1731264E-1,2.4768516E-1,1.21739104E-1,5.62E-1,1.2255123E-1,2.4427478E-1,-8.57143E-3,3.293375E-1,6.178571E-1,-6.6666687E-3,3.0031183E-1,4.1808838E-1,4.4842103E-1,6.221311E-1,4.963265E-1,6.965517E-1,4.931818E-1,6.994565E-1,-9.837338E-3,-8.521129E-3,-3.1250024E-3,-9.732379E-3,-7.2328793E-3,-1.0869589E-3,-8.774858E-3,-6.900423E-3,-1.7010333E-3,-8.358211E-3,-5.3668786E-3,7.118642E-3,2.8124997E-2,3.7037015E-3,1.730767E-3,-5.521094E-3,-2.5675914E-4,4.2807804E-3,1.0399998E-2,-5.000002E-3,1.5309276E-2,4.083333E-2,6E-2,1.1324673E-2,2.0310076E-2,3.1022726E-2,5.1999997E-2,1.0526293E-3,1.1999998E-2,5.9782606E-2,9.178672E-3,1.565705E-2,1.933962E-2,4.423077E-2,2.190476E-2,3.5529412E-2,-5.0000013E-3,6.4444445E-2,2.8662575E-2,3.7364863E-2,2.361111E-2,4.2462684E-2,4.741573E-2,5.714284E-3,3.333333E-2,6.754902E-2,4.0135134E-2,5.343023E-2,-5.0000013E-3,7.25E-2,2.681818E-2,6.869566E-2,7.1560696E-2,4.083333E-2],"categories":[],"categories_nodes":[],"categories_segments":[],"categories_sizes":[],"default_left":[0,0,0,0,0,0,0,0,0,0,0,0,0,0,0,0,0,0,0,0,0,0,0,0,0,0,0,0,0,0,0,0,0,0,0,0,0,0,0,0,0,0,0,0,0,0,0,0,0,0,0,0,0,0,0,0,0,0,0,0,0,0,0,0,0,0,0,0,0,0,0,0,0,0,0,0,0,0,0,0,0,0,0,0,0,0,0,0,0,0,0,0,0,0,0,0,0,0,0,0,0,0,0,0,0,0,0,0,0,0,0,0,0,0,0],"id":5,"left_children":[1,3,5,7,9,11,13,15,17,19,21,23,25,27,29,31,33,35,37,39,41,43,45,-1,47,49,51,53,55,57,59,-1,61,63,65,67,69,71,73,75,77,79,81,83,85,87,89,91,93,-1,95,97,-1,99,101,103,105,107,109,111,113,-1,-1,-1,-1,-1,-1,-1,-1,-1,-1,-1,-1,-1,-1,-1,-1,-1,-1,-1,-1,-1,-1,-1,-1,-1,-1,-1,-1,-1,-1,-1,-1,-1,-1,-1,-1,-1,-1,-1,-1,-1,-1,-1,-1,-1,-1,-1,-1,-1,-1,-1,-1,-1,-1],"loss_changes":[5.8005634E2,5.6805702E1,6.2087402E1,2.8001404E0,1.7981504E1,1.2068546E1,1.7127045E1,1.4396667E-1,1.5198908E0,4.955933E0,4.4748745E0,2.8148632E0,1.5793724E0,6.789032E0,2.197281E0,9.1552734E-5,3.0520725E-1,5.2423763E-1,1.135255E0,2.9651291E0,6.7587805E-1,2.329296E0,2.8718195E0,0E0,1.7475281E0,1.07687E0,9.552622E-1,6.5806885E0,1.3120651E0,7.707596E-1,1.0738144E0,0E0,1.2732506E-2,5.9783936E-2,1.5001166E-1,1.6519165E-1,2.1953985E-1,8.169035E-1,7.9079854E-1,2.5430632E-1,8.2239807E-1,2.7648696E-1,7.078843E-1,6.915636E-1,5.392885E-1,1.0132357E0,7.200184E-1,1.3639832E0,1.2343674E0,0E0,8.2966614E-1,5.2940464E-1,0E0,8.5845184E-1,1.0574646E0,9.295597E-1,1.6548538E0,6.6921234E-1,6.521549E-1,1.7341404E0,5.729141E-1,0E0,0E0,0E0,0E0,0E0,0E0,0E0,0E0,0E0,0E0,0E0,0E0,0E0,0E0,0E0,0E0,0E0,0E0,0E0,0E0,0E0,0E0,0E0,0E0,0E0,0E0,0E0,0E0,0E0,0E0,0E0,0E0,0E0,0E0,0E0,0E0,0E0,0E0,0E0,0E0,0E0,0E0,0E0,0E0,0E0,0E0,0E0,0E0,0E0,0E0,0E0,0E0,0E0,0E0],"parents":[2147483647,0,0,1,1,2,2,3,3,4,4,5,5,6,6,7,7,8,8,9,9,10,10,11,11,12,12,13,13,14,14,15,15,16,16,17,17,18,18,19,19,20,20,21,21,22,22,24,24,25,25,26,26,27,27,28,28,29,29,30,30,32,32,33,33,34,34,35,35,36,36,37,37,38,38,39,39,40,40,41,41,42,42,43,43,44,44,45,45,46,46,47,47,48,48,50,50,51,51,53,53,54,54,55,55,56,56,57,57,58,58,59,59,60,60],"right_children":[2,4,6,8,10,12,14,16,18,20,22,24,26,28,30,32,34,36,38,40,42,44,46,-1,48,50,52,54,56,58,60,-1,62,64,66,68,70,72,74,76,78,80,82,84,86,88,90,92,94,-1,96,98,-1,100,102,104,106,108,110,112,114,-1,-1,-1,-1,-1,-1,-1,-1,-1,-1,-1,-1,-1,-1,-1,-1,-1,-1,-1,-1,-1,-1,-1,-1,-1,-1,-1,-1,-1,-1,-1,-1,-1,-1,-1,-1,-1,-1,-1,-1,-1,-1,-1,-1,-1,-1,-1,-1,-1,-1,-1,-1,-1,-1],"split_conditions":[2.0428833E1,1.73844E1,2.2446915E1,1.3148742E1,1E0,1E0,1E0,1.1289959E1,1E0,6E1,6E1,5.96E2,6E1,6E1,2.403919E1,9.392359E0,1E0,6E1,1.6942125E1,1.8392443E1,1E0,1.9442093E1,6.68E2,8.041393E-1,6E1,2E0,2.2211836E1,2.403919E1,3E0,6E1,7.289922E-1,-1.1095952E0,6E1,6.02E2,6E1,1.601695E1,9.1418123E-1,6E1,6.35E2,6.23E2,1.9442093E1,7.15E2,8.21E2,5.96E2,7.48E2,7.75208E-1,8E0,2.1277903E1,7.89E2,-1.2223282E-1,2.0741863E1,6.1E2,-1.6298352E-1,6E0,6.22E2,9.877174E-1,7.441298E-1,1.6E1,2.2618849E1,7.31E2,9.877174E-1,-5.7391423E-1,-3.736018E-1,-5.765148E-2,-5.3765553E-1,-2.7049363E-1,5.077532E-2,-3.4655204E-1,-1.7993055E-1,-6.84229E-2,-2.0171629E-1,-1.01833455E-1,1.5504473E-1,3.6163732E-1,9.389334E-2,8.09117E-2,-1.23829916E-1,-6.217584E-3,8.406608E-2,6.571146E-2,-7.246392E-2,1.9910547E-1,4.7274134E-1,7.0059603E-1,1.7805307E-1,2.9922023E-1,3.868346E-1,5.178057E-1,1.4386018E-2,6.1625177E-1,4.86322E-1,1.6580695E-1,2.4190402E-1,3.3855003E-1,4.1401997E-1,2.5969476E-1,4.0976906E-1,-1.6981296E-1,7.518345E-1,3.5840735E-1,4.526609E-1,3.7102354E-1,4.4334957E-1,6.759338E-1,1.7446499E-1,6.4661115E-1,5.1387566E-1,4.8703465E-1,5.6360686E-1,-2.0368366E-1,9.946864E-1,5.4884166E-1,7.570543E-1,6.6037655E-1,3.9424926E-1],"split_indices":[3,3,3,3,10,10,10,3,10,1,1,2,1,1,3,3,10,1,3,3,7,3,2,0,1,9,3,3,7,1,4,0,1,2,1,3,4,1,2,2,3,2,2,2,2,4,9,3,2,0,3,2,0,7,2,4,4,9,3,2,4,0,0,0,0,0,0,0,0,0,0,0,0,0,0,0,0,0,0,0,0,0,0,0,0,0,0,0,0,0,0,0,0,0,0,0,0,0,0,0,0,0,0,0,0,0,0,0,0,0,0,0,0,0,0],"split_type":[0,0,0,0,0,0,0,0,0,0,0,0,0,0,0,0,0,0,0,0,0,0,0,0,0,0,0,0,0,0,0,0,0,0,0,0,0,0,0,0,0,0,0,0,0,0,0,0,0,0,0,0,0,0,0,0,0,0,0,0,0,0,0,0,0,0,0,0,0,0,0,0,0,0,0,0,0,0,0,0,0,0,0,0,0,0,0,0,0,0,0,0,0,0,0,0,0,0,0,0,0,0,0,0,0,0,0,0,0,0,0,0,0,0,0],"sum_hessian":[2.793E4,2.3481E4,4.449E3,2.0097E4,3.384E3,1.803E3,2.646E3,1.6939E4,3.158E3,2.712E3,6.72E2,1.452E3,3.51E2,2.148E3,4.98E2,1.4984E4,1.955E3,2.529E3,6.29E2,2.463E3,2.49E2,6.01E2,7.1E1,6E0,1.446E3,3.22E2,2.9E1,1.933E3,2.15E2,2.72E2,2.26E2,1.3553E4,1.431E3,1.546E3,4.09E2,2.27E3,2.59E2,5.34E2,9.5E1,8.56E2,1.607E3,4.5E1,2.04E2,3.86E2,2.15E2,2.2E1,4.9E1,1.316E3,1.3E2,6E0,3.16E2,2.7E1,2E0,9.61E2,9.72E2,9.4E1,1.21E2,2.44E2,2.8E1,4.3E1,1.83E2,1.29E3,1.41E2,1.5E1,1.531E3,3.64E2,4.5E1,1.558E3,7.12E2,1.93E2,6.6E1,4.76E2,5.8E1,1.5E1,8E1,5.1E1,8.05E2,7.39E2,8.68E2,2.4E1,2.1E1,1.93E2,1.1E1,2E0,3.84E2,1.28E2,8.7E1,4E0,1.8E1,4E0,4.5E1,6.93E2,6.23E2,1.05E2,2.5E1,6.2E1,2.54E2,1E0,2.6E1,8.14E2,1.47E2,3.5E1,9.37E2,8.8E1,6E0,2E1,1.01E2,7.3E1,1.71E2,1E0,2.7E1,2.1E1,2.2E1,1.72E2,1.1E1],"tree_param":{"num_deleted":"0","num_feature":"13","num_nodes":"115","size_leaf_vector":"1"}},{"base_weights":[-1.8504636E-2,-2.5953574E-2,7.373203E-2,-3.0769255E-2,1.6787462E-2,8.1677325E-2,5.4794285E-3,5.123193E-3,-3.331647E-2,5.579561E-3,1.0032256E-1,7.432653E-2,3.2777774E-1,-6.666669E-2,5.8267694E-2,-2.9046267E-2,3.2902446E-2,-9.170043E-2,-3.195592E-2,1.1963314E-2,-4.9583357E-2,-3.2608718E-2,1.23018846E-1,2.2127657E-1,7.0389144E-2,4.742857E-1,5.4999977E-2,1.7499998E-1,-7.666669E-2,2.5249997E-1,-3.0681841E-2,3.6637692E-3,-9.519653E-2,1.08936146E-1,3.8897656E-3,-9.5541425E-2,-1.2500023E-2,1.6568625E-1,-3.290884E-2,6.874358E-3,2.0961536E-1,2.678569E-2,-7.243246E-2,1.0999998E-1,-7.027029E-2,4.8571426E-1,1.1274129E-1,-3.8888913E-2,3.6999997E-1,6.285353E-2,1.355191E-1,5.28125E-1,-7.5000017E-3,1.0526293E-2,4.4999998E-2,-6.6666687E-3,4.4999998E-2,-8.720933E-2,1.1999998E-1,2.9166644E-2,5.5294114E-1,2.0999998E-1,-6.075952E-2,-4.767126E-3,1.9099997E-2,-9.954131E-3,-8.333355E-4,-1.4583357E-3,1.3989359E-2,-9.932435E-3,3.6382955E-3,-9.758244E-3,-3.5294143E-3,4.25E-2,-9.523812E-3,-4.210529E-3,2.1071427E-2,-3.1225535E-3,-8.147103E-3,2.3699892E-3,-1.6352965E-3,1.4666664E-2,5.3749997E-2,-1.4583357E-3,2.4444444E-2,1.0999998E-2,-8.238639E-3,-8.57143E-3,4.25E-2,-9.64286E-3,9.999978E-4,-5.0000013E-3,5.8333334E-2,1.9117624E-3,1.4531247E-2,4.4999998E-2,-9.411767E-3,4.695652E-2,3.749998E-3,2.0735764E-3,7.254445E-3,1.5515149E-2,-4.210529E-3,3.3571426E-2,6.421053E-2,-3.5294143E-3,2.6666665E-2,-9.855076E-3,-3.8888913E-3,4.4999998E-2,-7.5000017E-3,1.2142855E-2,-9.090912E-3,6.928571E-2,-7.5000017E-3,5.714284E-3,4.25E-2,-8.307694E-3,3.999998E-3],"categories":[],"categories_nodes":[],"categories_segments":[],"categories_sizes":[],"default_left":[0,0,0,0,0,0,0,0,0,0,0,0,0,0,0,0,0,0,0,0,0,0,0,0,0,0,0,0,0,0,0,0,0,0,0,0,0,0,0,0,0,0,0,0,0,0,0,0,0,0,0,0,0,0,0,0,0,0,0,0,0,0,0,0,0,0,0,0,0,0,0,0,0,0,0,0,0,0,0,0,0,0,0,0,0,0,0,0,0,0,0,0,0,0,0,0,0,0,0,0,0,0,0,0,0,0,0,0,0,0,0,0,0,0,0,0,0,0,0],"id":6,"left_children":[1,3,5,7,9,11,13,15,17,19,21,23,25,27,29,31,33,35,37,39,41,43,45,47,49,51,53,55,57,59,61,63,65,67,69,71,73,75,77,79,81,83,85,87,89,91,93,95,97,99,101,103,-1,105,-1,-1,-1,107,109,111,113,115,117,-1,-1,-1,-1,-1,-1,-1,-1,-1,-1,-1,-1,-1,-1,-1,-1,-1,-1,-1,-1,-1,-1,-1,-1,-1,-1,-1,-1,-1,-1,-1,-1,-1,-1,-1,-1,-1,-1,-1,-1,-1,-1,-1,-1,-1,-1,-1,-1,-1,-1,-1,-1,-1,-1,-1,-1],"loss_changes":[1.9216377E1,5.326708E0,1.1329327E0,2.126463E0,2.4533594E0,3.3621492E0,8.379391E-1,1.4646251E0,1.7220669E0,8.1475586E-1,9.39296E-1,1.0368958E0,2.1319761E0,2.3816675E-1,2.2019098E0,1.497683E0,1.8768325E0,1.4908457E-1,4.0025253E0,2.0836709E0,4.2073154E-1,2.5478965E-1,9.330597E-1,1.8329453E0,8.6166096E-1,1.0746703E0,3.466053E-1,2.9583335E-1,1.9706976E-1,2.6678138E0,6.4980465E-1,4.4713507E0,8.559513E-2,9.006443E-1,2.072881E0,5.4472923E-2,9.0922624E-1,9.6322894E-1,1.7240753E0,7.906096E-1,9.944422E-1,5.0780755E-1,3.4500766E-1,6.5292865E-1,7.865442E-2,3.9523816E-1,7.870252E-1,5.2836597E-1,9.7555447E-1,6.4787817E-1,6.446886E-1,4.8622894E-1,0E0,2.3240456E-1,0E0,0E0,0E0,4.329735E-2,3.5549998E-1,2.7692097E-1,1.5455675E0,3.043572E-1,1.809698E-1,0E0,0E0,0E0,0E0,0E0,0E0,0E0,0E0,0E0,0E0,0E0,0E0,0E0,0E0,0E0,0E0,0E0,0E0,0E0,0E0,0E0,0E0,0E0,0E0,0E0,0E0,0E0,0E0,0E0,0E0,0E0,0E0,0E0,0E0,0E0,0E0,0E0,0E0,0E0,0E0,0E0,0E0,0E0,0E0,0E0,0E0,0E0,0E0,0E0,0E0,0E0,0E0,0E0,0E0,0E0,0E0],"parents":[2147483647,0,0,1,1,2,2,3,3,4,4,5,5,6,6,7,7,8,8,9,9,10,10,11,11,12,12,13,13,14,14,15,15,16,16,17,17,18,18,19,19,20,20,21,21,22,22,23,23,24,24,25,25,26,26,27,27,28,28,29,29,30,30,31,31,32,32,33,33,34,34,35,35,36,36,37,37,38,38,39,39,40,40,41,41,42,42,43,43,44,44,45,45,46,46,47,47,48,48,49,49,50,50,51,51,53,53,57,57,58,58,59,59,60,60,61,61,62,62],"right_children":[2,4,6,8,10,12,14,16,18,20,22,24,26,28,30,32,34,36,38,40,42,44,46,48,50,52,54,56,58,60,62,64,66,68,70,72,74,76,78,80,82,84,86,88,90,92,94,96,98,100,102,104,-1,106,-1,-1,-1,108,110,112,114,116,118,-1,-1,-1,-1,-1,-1,-1,-1,-1,-1,-1,-1,-1,-1,-1,-1,-1,-1,-1,-1,-1,-1,-1,-1,-1,-1,-1,-1,-1,-1,-1,-1,-1,-1,-1,-1,-1,-1,-1,-1,-1,-1,-1,-1,-1,-1,-1,-1,-1,-1,-1,-1,-1,-1,-1,-1],"split_conditions":[1.026593E4,6E1,9.663489E-1,7.1740735E-1,5.31795E3,9.631562E-1,9.824521E-1,7.087115E-1,7.2265536E-1,9.6498424E-1,6.24E2,7.064909E-1,9.6498424E-1,6.13E2,9.877174E-1,7.064909E-1,7.118817E-1,9E0,7.2567487E-1,9.6015704E-1,6.36E2,7.5811976E-1,6.28E2,7.023192E-1,6E1,8.41E2,8E0,1.989546E4,8.59E2,9.861144E-1,1.146912E4,7.053597E-1,7.56389E3,6.61E2,7.1252316E-1,8.15608E3,7.2051924E-1,5.9532E2,9.8859155E-1,8.571549E-1,8.04E2,6.25E2,1.908E2,5E0,8.59684E3,5.42494E3,7.75208E-1,3E1,1.839436E4,7.570493E-1,1E0,7.12E2,-1.059208E-2,2.747572E4,7.151337E-2,-1.551342E-1,5.3913116E-2,9.798583E-1,1.060618E4,9.8609984E-1,8.22E2,1E0,9.9450356E-1,-9.0352625E-2,2.594164E-1,-5.806485E-1,-6.839736E-2,6.457755E-4,2.0870598E-1,-5.896466E-1,9.81796E-2,-4.908886E-1,-1.6732538E-1,3.3682253E-2,-4.5735636E-1,-1.8018121E-3,2.524118E-1,-1.11060895E-1,-3.4773508E-1,6.0588878E-2,-5.5593718E-2,4.3223244E-1,8.100206E-1,-8.0063224E-2,4.6585312E-1,8.174952E-2,-2.0759313E-1,-5.2576255E-2,4.6602517E-1,-2.2054611E-1,2.039214E-1,-1.6949147E0,7.2698116E-1,2.1922465E-1,3.2276437E-1,5.5025484E-2,-6.312286E-2,4.1533706E-1,1.7828178E-1,6.1405044E-2,2.0071773E-1,3.372114E-1,5.8683336E-2,6.5355676E-1,3.5591072E-1,-2.7508622E-2,2.663498E-2,-3.5015142E-1,-6.136749E-2,6.9562726E-2,-2.6714993E-1,2.5803378E-1,-5.0786966E-1,4.474903E-1,-2.4124737E-1,3.750225E-1,1.9357224E-1,-3.2121307E-1,2.4511848E-1],"split_indices":[0,1,4,4,0,4,4,4,4,4,2,4,4,2,4,4,4,5,4,4,2,4,2,4,1,2,5,0,2,4,0,4,0,2,4,0,4,0,4,4,2,2,0,7,0,0,4,1,0,4,8,2,0,0,0,0,0,4,0,4,2,8,4,0,0,0,0,0,0,0,0,0,0,0,0,0,0,0,0,0,0,0,0,0,0,0,0,0,0,0,0,0,0,0,0,0,0,0,0,0,0,0,0,0,0,0,0,0,0,0,0,0,0,0,0,0,0,0,0],"split_type":[0,0,0,0,0,0,0,0,0,0,0,0,0,0,0,0,0,0,0,0,0,0,0,0,0,0,0,0,0,0,0,0,0,0,0,0,0,0,0,0,0,0,0,0,0,0,0,0,0,0,0,0,0,0,0,0,0,0,0,0,0,0,0,0,0,0,0,0,0,0,0,0,0,0,0,0,0,0,0,0,0,0,0,0,0,0,0,0,0,0,0,0,0,0,0,0,0,0,0,0,0,0,0,0,0,0,0,0,0,0,0,0,0,0,0,0,0,0,0],"sum_hessian":[2.7965E4,2.5876E4,2.089E3,2.3256E4,2.62E3,1.871E3,2.18E2,1.541E3,2.1715E4,2.311E3,3.09E2,1.818E3,5.3E1,9.2E1,1.26E2,6.91E2,8.5E2,4.93E2,2.1222E4,2.072E3,2.39E2,4.5E1,2.64E2,4.6E1,1.772E3,3.4E1,1.9E1,3E0,8.9E1,3.9E1,8.7E1,4.63E2,2.28E2,2.34E2,6.16E2,4.7E2,2.3E1,1.01E2,2.1121E4,2.021E3,5.1E1,5.5E1,1.84E2,9E0,3.6E1,6E0,2.58E2,1.7E1,2.9E1,1.59E3,1.82E2,3.1E1,3E0,1.8E1,1E0,2E0,1E0,8.5E1,4E0,2.3E1,1.6E1,9E0,7.8E1,3.64E2,9.9E1,2.17E2,1.1E1,4.7E1,1.87E2,1.47E2,4.69E2,4.54E2,1.6E1,3E0,2E1,1.8E1,8.3E1,2.0415E4,7.06E2,1.172E3,8.49E2,4.4E1,7E0,4.7E1,8E0,9E0,1.75E2,6E0,3E0,2.7E1,9E0,1E0,5E0,6.7E1,1.91E2,1E0,1.6E1,2.2E1,7E0,2.98E2,1.292E3,1.64E2,1.8E1,1.3E1,1.8E1,1.6E1,2E0,6.8E1,1.7E1,1E0,3E0,1.3E1,1E1,1.3E1,3E0,6E0,3E0,6.4E1,1.4E1],"tree_param":{"num_deleted":"0","num_feature":"13","num_nodes":"119","size_leaf_vector":"1"}},{"base_weights":[-1.5170712E-2,-7.576957E-2,2.6720613E-1,-9.187954E-2,3.3977594E-2,1.413478E-1,3.7658846E-1,-9.7961284E-2,-6.1577406E-2,1.2010324E-2,2.77459E-1,1.1060848E-1,2.6959458E-1,3.421472E-1,5.193359E-1,-9.93248E-2,-8.637651E-2,-7.075627E-2,3.9642833E-2,-1.1480353E-3,1.317164E-1,2.0584413E-1,3.9560437E-1,9.8993465E-2,2.2603548E-1,2.1541093E-1,3.712418E-1,2.9665235E-1,3.964912E-1,4.5551598E-1,5.9439653E-1,-9.970368E-2,-9.4572976E-2,-9.281091E-2,-4.2035423E-2,-8.487587E-2,-6.001143E-2,1.9262271E-2,1.7297295E-1,-1.4293684E-2,3.566976E-2,7.5974E-2,2.0521736E-1,1.7686565E-1,3.8095236E-1,5.02E-1,2.5952378E-1,6.8694524E-2,1.2541617E-1,3.4237286E-1,1.6216214E-1,-2.1428594E-2,2.2652328E-1,4.513761E-1,1.6888887E-1,2.766444E-1,4.7350425E-1,3.6962208E-1,4.6063828E-1,4.034682E-1,5.339449E-1,5.206611E-1,6.6875E-1,-9.999207E-3,-9.677422E-3,-9.871498E-3,-8.104092E-3,-9.483638E-3,-7.5882375E-3,1.960782E-3,-5.965912E-3,-8.811132E-3,-5.7638916E-3,-6.5119476E-3,-3.3910058E-3,-3.827775E-4,1.5277776E-2,3.4782586E-3,3.7333332E-2,-2.1618146E-3,3.0314939E-3,4.745452E-3,-3.4408625E-3,4.1666668E-2,6.1744945E-3,4.0454544E-2,1.5638296E-2,2.3085104E-2,4.8780465E-3,-7.5000017E-3,4.611111E-2,3.0499998E-2,6.129032E-2,5.7777774E-2,1.6764704E-2,8.9943055E-3,2.585549E-3,2.0916665E-2,1.1240407E-2,2.27027E-2,5.1304348E-2,1.3099998E-2,4.083333E-2,-9.090912E-3,1.7499998E-2,2.9140621E-2,1.7039472E-2,3.56962E-2,6.774193E-2,1.1315787E-2,4.1249998E-2,2.8916407E-2,1.2345677E-2,5.009091E-2,3.749998E-3,3.776946E-2,9.523808E-3,2.3999998E-2,4.7126863E-2,4.3227848E-2,9.374998E-3,5.879518E-2,3.4814816E-2,5.364407E-2,-7.5000017E-3,4.0499996E-2,7.1827956E-2],"categories":[],"categories_nodes":[],"categories_segments":[],"categories_sizes":[],"default_left":[0,0,0,0,0,0,0,0,0,0,0,0,0,0,0,0,0,0,0,0,0,0,0,0,0,0,0,0,0,0,0,0,0,0,0,0,0,0,0,0,0,0,0,0,0,0,0,0,0,0,0,0,0,0,0,0,0,0,0,0,0,0,0,0,0,0,0,0,0,0,0,0,0,0,0,0,0,0,0,0,0,0,0,0,0,0,0,0,0,0,0,0,0,0,0,0,0,0,0,0,0,0,0,0,0,0,0,0,0,0,0,0,0,0,0,0,0,0,0,0,0,0,0,0,0,0,0],"id":7,"left_children":[1,3,5,7,9,11,13,15,17,19,21,23,25,27,29,31,33,35,37,39,41,43,45,47,49,51,53,55,57,59,61,63,65,67,69,71,73,75,77,79,81,83,85,87,89,91,93,95,97,99,101,103,105,107,109,111,113,115,117,119,121,123,125,-1,-1,-1,-1,-1,-1,-1,-1,-1,-1,-1,-1,-1,-1,-1,-1,-1,-1,-1,-1,-1,-1,-1,-1,-1,-1,-1,-1,-1,-1,-1,-1,-1,-1,-1,-1,-1,-1,-1,-1,-1,-1,-1,-1,-1,-1,-1,-1,-1,-1,-1,-1,-1,-1,-1,-1,-1,-1,-1,-1,-1,-1,-1,-1],"loss_changes":[4.787205E2,4.0726013E1,6.799542E1,3.6954193E0,1.5769754E1,9.037285E0,1.2821289E1,2.556305E-1,3.1245365E0,4.262468E0,1.9830418E0,2.4672794E0,2.3654099E0,5.15596E0,2.1819E0,1.7501831E-2,5.0080776E-1,4.6233273E-1,7.57524E-1,1.1809705E0,1.082437E0,7.1407604E-1,1.1872511E0,1.343565E0,1.2002945E0,7.7335167E-1,2.404726E0,3.9912872E0,1.4998779E0,9.316292E-1,9.237442E-1,2.0141602E-3,5.499935E-2,4.5744896E-2,2.4669197E-1,1.1203861E-1,2.3151445E-1,7.528072E-1,1.0114659E0,5.8812344E-1,5.318331E-1,7.208245E-1,1.0561538E0,9.1531277E-1,8.021033E-1,9.054613E-1,1.131223E0,7.1587443E-1,9.583721E-1,1.0450082E0,7.9801464E-1,2.0698051E-1,9.6640396E-1,2.0844307E0,5.6427336E-1,1.9761276E0,1.3792038E0,1.4879303E0,5.4831696E-1,1.5031643E0,8.890438E-1,1.1775398E0,1.1721954E0,0E0,0E0,0E0,0E0,0E0,0E0,0E0,0E0,0E0,0E0,0E0,0E0,0E0,0E0,0E0,0E0,0E0,0E0,0E0,0E0,0E0,0E0,0E0,0E0,0E0,0E0,0E0,0E0,0E0,0E0,0E0,0E0,0E0,0E0,0E0,0E0,0E0,0E0,0E0,0E0,0E0,0E0,0E0,0E0,0E0,0E0,0E0,0E0,0E0,0E0,0E0,0E0,0E0,0E0,0E0,0E0,0E0,0E0,0E0,0E0,0E0,0E0,0E0,0E0],"parents":[2147483647,0,0,1,1,2,2,3,3,4,4,5,5,6,6,7,7,8,8,9,9,10,10,11,11,12,12,13,13,14,14,15,15,16,16,17,17,18,18,19,19,20,20,21,21,22,22,23,23,24,24,25,25,26,26,27,27,28,28,29,29,30,30,31,31,32,32,33,33,34,34,35,35,36,36,37,37,38,38,39,39,40,40,41,41,42,42,43,43,44,44,45,45,46,46,47,47,48,48,49,49,50,50,51,51,52,52,53,53,54,54,55,55,56,56,57,57,58,58,59,59,60,60,61,61,62,62],"right_children":[2,4,6,8,10,12,14,16,18,20,22,24,26,28,30,32,34,36,38,40,42,44,46,48,50,52,54,56,58,60,62,64,66,68,70,72,74,76,78,80,82,84,86,88,90,92,94,96,98,100,102,104,106,108,110,112,114,116,118,120,122,124,126,-1,-1,-1,-1,-1,-1,-1,-1,-1,-1,-1,-1,-1,-1,-1,-1,-1,-1,-1,-1,-1,-1,-1,-1,-1,-1,-1,-1,-1,-1,-1,-1,-1,-1,-1,-1,-1,-1,-1,-1,-1,-1,-1,-1,-1,-1,-1,-1,-1,-1,-1,-1,-1,-1,-1,-1,-1,-1,-1,-1,-1,-1,-1,-1],"split_conditions":[2.0127062E1,1.73844E1,2.2446915E1,1.299916E1,9.91715E3,1E0,1E0,1.1289959E1,9.6146E3,6E1,1.8989592E1,6E1,1.026593E4,2.4086554E1,2.403919E1,1.026593E4,7.78173E3,1.4597518E1,6E1,1.9442093E1,1.8989592E1,6E1,4E0,2.1043465E1,8.7061E2,2.0192474E1,1.989546E4,6E1,4.5E1,9.91715E3,9.05659E3,9.392359E0,7.399052E0,6E1,3E0,6E1,4.40953E3,1.6942125E1,2.160168E4,4.70955E3,6E0,1.7448183E1,1.9088192E1,4.5E1,9E0,5E0,3E1,3.4E1,2E0,2.8E1,2.1973476E1,7.78173E3,6.46314E3,4.5E1,6E0,4.07731E3,4.8E1,9E0,2.4035E2,9.34238E3,1.989546E4,8.81212E3,2E0,-1.031257E0,-5.178077E-1,-7.9231876E-1,-2.2402075E-1,-4.542265E-1,-2.958525E-1,7.241344E-2,-1.5378922E-1,-3.3297607E-1,-1.601545E-1,-1.8592285E-1,-5.921666E-2,-7.553342E-4,1.912449E-1,1.3011275E-1,2.6098138E-1,-4.327614E-2,4.892915E-2,8.2489535E-2,-4.4209387E-2,2.4906807E-1,8.36516E-2,4.2486325E-1,2.0937346E-1,1.9006054E-1,1.4705005E-1,-2.450697E-1,3.4065002E-1,4.7301307E-1,4.8464417E-1,4.378767E-1,2.4130721E-1,1.10492766E-1,5.6898475E-2,2.68989E-1,1.9321533E-1,2.021745E-1,4.0062505E-1,2.3946355E-1,4.8487717E-1,-2.16144E-2,2.575779E-2,3.0195805E-1,2.4838682E-1,5.617611E-1,5.927394E-1,2.3679915E-1,2.2227135E-1,3.4936357E-1,2.2647081E-1,5.469738E-1,6.4930344E-1,4.2040488E-1,2.4347758E-1,3.8640258E-1,5.241913E-1,4.308179E-1,3.4581605E-1,5.7128024E-1,5.734841E-1,5.094617E-1,-2.5094414E-2,7.6260334E-1,6.4703965E-1],"split_indices":[3,3,3,3,0,10,10,3,0,1,3,1,0,3,3,0,0,3,1,3,3,1,7,3,0,3,0,1,1,0,0,3,3,1,5,1,0,3,0,0,7,3,3,1,9,5,1,9,5,9,3,0,0,1,7,0,9,5,0,0,0,0,5,0,0,0,0,0,0,0,0,0,0,0,0,0,0,0,0,0,0,0,0,0,0,0,0,0,0,0,0,0,0,0,0,0,0,0,0,0,0,0,0,0,0,0,0,0,0,0,0,0,0,0,0,0,0,0,0,0,0,0,0,0,0,0,0],"split_type":[0,0,0,0,0,0,0,0,0,0,0,0,0,0,0,0,0,0,0,0,0,0,0,0,0,0,0,0,0,0,0,0,0,0,0,0,0,0,0,0,0,0,0,0,0,0,0,0,0,0,0,0,0,0,0,0,0,0,0,0,0,0,0,0,0,0,0,0,0,0,0,0,0,0,0,0,0,0,0,0,0,0,0,0,0,0,0,0,0,0,0,0,0,0,0,0,0,0,0,0,0,0,0,0,0,0,0,0,0,0,0,0,0,0,0,0,0,0,0,0,0,0,0,0,0,0,0],"sum_hessian":[2.7974E4,2.3032E4,4.942E3,2.0084E4,2.948E3,2.299E3,2.643E3,1.6725E4,3.359E3,2.705E3,2.43E2,1.856E3,4.43E2,2.132E3,5.11E2,1.4957E4,1.768E3,3.08E3,2.79E2,2.438E3,2.67E2,1.53E2,9E1,1.688E3,1.68E2,2.91E2,1.52E2,1.164E3,9.68E2,2.8E2,2.31E2,1.3834E4,1.123E3,1.543E3,2.25E2,1.328E3,1.752E3,2.43E2,3.6E1,1.797E3,6.41E2,1.53E2,1.14E2,1.33E2,2E1,4.9E1,4.1E1,7.88E2,9E2,5.8E1,1.1E2,1.3E1,2.78E2,1.08E2,4.4E1,1.048E3,1.16E2,6.87E2,2.81E2,1.72E2,1.08E2,1.2E2,1.11E2,1.2564E4,1.27E3,8.55E2,2.68E2,1.374E3,1.69E2,5E1,1.75E2,1.185E3,1.43E2,1.464E3,2.88E2,2.08E2,3.5E1,2.2E1,1.4E1,1.544E3,2.53E2,5.49E2,9.2E1,5E0,1.48E2,2.1E1,9.3E1,9.3E1,4E1,3E0,1.7E1,1.9E1,3E1,8E0,3.3E1,5.26E2,2.62E2,1.19E2,7.81E2,3.6E1,2.2E1,9.9E1,1.1E1,1E1,3E0,1.27E2,1.51E2,7.8E1,3E1,3.7E1,7E0,9.68E2,8E1,1.09E2,7E0,6.67E2,2E1,1.4E1,2.67E2,1.57E2,1.5E1,8.2E1,2.6E1,1.17E2,3E0,1.9E1,9.2E1],"tree_param":{"num_deleted":"0","num_feature":"13","num_nodes":"127","size_leaf_vector":"1"}},{"base_weights":[-2.277361E-2,-2.8396847E-2,4.887031E-2,-2.0555757E-2,-3.567554E-2,7.24818E-2,2.7653607E-2,-2.2168426E-2,1.7549017E-1,-5.6203425E-2,-2.2606181E-2,9.900594E-2,4.3383922E-2,8.896101E-2,1.7372398E-2,-3.512418E-2,-7.1739745E-3,3.02E-1,5.2830167E-2,-6.450482E-2,-4.3815438E-2,1.0527948E-1,-2.7817193E-2,8.402623E-2,2.4255317E-1,-5.3211033E-2,7.30878E-2,-1.9231003E-3,1.3398056E-1,2.6503043E-2,-5.2336473E-2,-6.564823E-3,-4.546016E-2,4.0192306E-1,-1.0910073E-2,2.358974E-1,4.9166664E-1,4.2499998E-1,2.1999978E-2,-3.1311177E-2,-7.0954226E-2,2.0194173E-1,-5.6450024E-2,1.6874997E-1,7.109002E-2,-2.3386668E-2,-6.874192E-2,6E-2,8.043954E-2,5.7777774E-1,1.5897433E-1,-6.736845E-2,3.9999977E-2,1.1805532E-2,1.1476188E-1,4.4999998E-2,-1.9607866E-2,1.6777775E-1,-9.285717E-3,9.302301E-3,6.381321E-2,-8.720933E-2,8.636361E-2,-2.6320023E-3,4.111967E-3,-3.762432E-3,-7.0578107E-3,4.4375E-2,-8.000002E-3,-1.8049515E-3,2.7941153E-3,3.3666667E-2,-9.000002E-3,5.7777774E-2,1.7499998E-2,-5.0000013E-3,6E-2,-5.6000026E-3,9.615383E-3,-7.6606707E-3,1.121951E-2,-6.731366E-3,-9.406782E-3,7.118642E-3,3.6888886E-2,-1.4712667E-3,-6.8007684E-3,6.285714E-2,1.3679244E-2,5.077718E-3,2.7368417E-2,-3.1164903E-3,2.1321584E-2,-9.644016E-3,-5.010802E-3,8.917049E-3,-9.545457E-3,-5.0000013E-3,6.625E-2,9.062498E-3,4.1249998E-2,8.333332E-3,-7.6666693E-3,1.6249998E-2,-8.750002E-3,7.1426206E-5,3.2E-2,1.7043477E-2,4.687498E-3,-3.8000026E-3,4.4999998E-2,2.0124998E-2,-9.090912E-3,1.1891889E-2,1.529613E-4,2.5499978E-3,1.9482756E-2,-9.870132E-3,9.999978E-4,-9.090912E-3,2.4166664E-2],"categories":[],"categories_nodes":[],"categories_segments":[],"categories_sizes":[],"default_left":[0,0,0,0,0,0,0,0,0,0,0,0,0,0,0,0,0,0,0,0,0,0,0,0,0,0,0,0,0,0,0,0,0,0,0,0,0,0,0,0,0,0,0,0,0,0,0,0,0,0,0,0,0,0,0,0,0,0,0,0,0,0,0,0,0,0,0,0,0,0,0,0,0,0,0,0,0,0,0,0,0,0,0,0,0,0,0,0,0,0,0,0,0,0,0,0,0,0,0,0,0,0,0,0,0,0,0,0,0,0,0,0,0,0,0,0,0,0,0,0,0],"id":8,"left_children":[1,3,5,7,9,11,13,15,17,19,21,23,25,27,29,31,33,35,37,39,41,43,45,47,49,51,53,55,57,59,61,63,65,67,69,71,73,75,77,79,81,83,85,87,89,91,93,-1,95,97,99,101,103,105,107,-1,109,111,-1,113,115,117,119,-1,-1,-1,-1,-1,-1,-1,-1,-1,-1,-1,-1,-1,-1,-1,-1,-1,-1,-1,-1,-1,-1,-1,-1,-1,-1,-1,-1,-1,-1,-1,-1,-1,-1,-1,-1,-1,-1,-1,-1,-1,-1,-1,-1,-1,-1,-1,-1,-1,-1,-1,-1,-1,-1,-1,-1,-1,-1],"loss_changes":[1.1270084E1,1.4795055E0,1.0179458E0,3.9520617E0,3.6069107E0,7.38945E-1,6.7541194E-1,2.4061007E0,1.56685E0,5.351181E-1,5.4801836E0,1.0612178E0,1.3266107E0,6.303581E-1,5.8759165E-1,1.9612322E0,8.78214E0,5.1088953E-1,5.987755E-1,6.678457E-1,6.538194E0,6.867504E-1,1.4304419E0,7.974794E-1,1.2249789E0,1.4653406E-1,9.0016544E-1,4.2441556E-1,8.052268E-1,5.2244276E-1,5.2507657E-1,1.6656258E0,9.5763016E-1,1.0836821E0,1.5793288E0,1.3110771E0,2.2611094E-1,3.6249995E-1,2.9458463E-1,3.3301933E0,2.1413422E-1,2.2221503E0,9.637718E-1,1.55983E0,8.5442376E-1,1.31246605E1,3.9310074E-1,0E0,7.072654E-1,5.118058E-1,6.384215E-1,1.3950875E-1,2.485E-1,4.92002E-1,7.856972E-1,0E0,4.5759216E-1,7.975898E-1,0E0,4.760949E-1,1.2850647E0,9.7060084E-2,6.276516E-1,0E0,0E0,0E0,0E0,0E0,0E0,0E0,0E0,0E0,0E0,0E0,0E0,0E0,0E0,0E0,0E0,0E0,0E0,0E0,0E0,0E0,0E0,0E0,0E0,0E0,0E0,0E0,0E0,0E0,0E0,0E0,0E0,0E0,0E0,0E0,0E0,0E0,0E0,0E0,0E0,0E0,0E0,0E0,0E0,0E0,0E0,0E0,0E0,0E0,0E0,0E0,0E0,0E0,0E0,0E0,0E0,0E0,0E0],"parents":[2147483647,0,0,1,1,2,2,3,3,4,4,5,5,6,6,7,7,8,8,9,9,10,10,11,11,12,12,13,13,14,14,15,15,16,16,17,17,18,18,19,19,20,20,21,21,22,22,23,23,24,24,25,25,26,26,27,27,28,28,29,29,30,30,31,31,32,32,33,33,34,34,35,35,36,36,37,37,38,38,39,39,40,40,41,41,42,42,43,43,44,44,45,45,46,46,48,48,49,49,50,50,51,51,52,52,53,53,54,54,56,56,57,57,59,59,60,60,61,61,62,62],"right_children":[2,4,6,8,10,12,14,16,18,20,22,24,26,28,30,32,34,36,38,40,42,44,46,48,50,52,54,56,58,60,62,64,66,68,70,72,74,76,78,80,82,84,86,88,90,92,94,-1,96,98,100,102,104,106,108,-1,110,112,-1,114,116,118,120,-1,-1,-1,-1,-1,-1,-1,-1,-1,-1,-1,-1,-1,-1,-1,-1,-1,-1,-1,-1,-1,-1,-1,-1,-1,-1,-1,-1,-1,-1,-1,-1,-1,-1,-1,-1,-1,-1,-1,-1,-1,-1,-1,-1,-1,-1,-1,-1,-1,-1,-1,-1,-1,-1,-1,-1,-1,-1],"split_conditions":[1.026593E4,8.470688E-1,1.504391E4,8.446195E-1,9.1011983E-1,8.571549E-1,1E0,7.772576E-1,7.52E2,8.828809E-1,9.1396946E-1,8.446195E-1,8.928056E-1,8.2250524E-1,9.663489E-1,7.1740735E-1,7.8007853E-1,7.05E2,3E0,8.526921E-1,8.839399E-1,9.109454E-1,9.8859155E-1,5.9E2,8.470688E-1,6E0,3E0,5.96E2,8.29E2,5E0,3.232607E4,7.1252316E-1,7.6077276E-1,8.48E2,4.70955E3,4E0,7.32E2,7.87E2,1E0,8.522121E-1,8.29E2,2.5E1,8.875108E-1,6E0,8.41E2,9.861144E-1,9.900065E-1,2.9591486E-1,8.3695084E-1,6.34E2,8.5602295E-1,6.24E2,2.7E1,4.9E1,5E0,2.1559143E-2,1E0,4.6E1,-1.5219395E-1,7.1363014E-1,9.154366E-1,9.9450356E-1,7.02E2,-5.89858E-2,9.105228E-2,-1.382917E-1,-2.7182534E-1,4.6264002E-1,-1.7152233E-1,-5.2941687E-2,7.3726356E-2,4.0825382E-1,-3.2076034E-1,9.3357164E-1,6.730194E-1,-1.0762194E0,2.0478192E-1,-6.402419E-2,2.2370394E-1,-2.8493997E-1,1.5132016E-1,-3.4841922E-1,-5.225346E-1,1.9259493E-1,4.0349507E-1,-4.4152874E-2,-3.137284E-1,6.740187E-1,1.7464755E-1,8.3127536E-2,1.9897175E-1,-1.07852615E-1,3.81834E-1,-8.047547E-1,-1.8991497E-1,1.9957721E-1,-2.6856205E-1,-5.9715635E-1,6.86343E-1,1.4190751E-1,5.5551416E-1,6.0126115E-2,-2.156698E-1,9.7892284E-1,-4.998808E-1,1.8703394E-2,1.7069893E-1,2.8252625E-1,1.9013403E-1,-5.2849073E-2,4.6052724E-1,2.2229151E-1,-2.125337E-1,2.0353583E-1,1.0143752E-2,1.14596955E-1,3.5957557E-1,-2.5537747E-1,1.6870074E-1,-8.587122E-2,3.6229184E-1],"split_indices":[0,4,0,4,4,4,7,4,2,4,4,4,4,4,4,4,4,2,9,4,4,4,4,2,4,7,7,2,2,7,0,4,4,2,0,7,2,2,11,4,2,9,4,9,2,4,4,0,4,2,4,2,9,9,7,0,8,9,0,4,4,4,2,0,0,0,0,0,0,0,0,0,0,0,0,0,0,0,0,0,0,0,0,0,0,0,0,0,0,0,0,0,0,0,0,0,0,0,0,0,0,0,0,0,0,0,0,0,0,0,0,0,0,0,0,0,0,0,0,0,0],"split_type":[0,0,0,0,0,0,0,0,0,0,0,0,0,0,0,0,0,0,0,0,0,0,0,0,0,0,0,0,0,0,0,0,0,0,0,0,0,0,0,0,0,0,0,0,0,0,0,0,0,0,0,0,0,0,0,0,0,0,0,0,0,0,0,0,0,0,0,0,0,0,0,0,0,0,0,0,0,0,0,0,0,0,0,0,0,0,0,0,0,0,0,0,0,0,0,0,0,0,0,0,0,0,0,0,0,0,0,0,0,0,0,0,0,0,0,0,0,0,0,0,0],"sum_hessian":[2.797E4,2.5935E4,2.035E3,1.2487E4,1.3448E4,9.62E2,1.073E3,1.2386E4,1.01E2,5.23E3,8.218E3,5.02E2,4.6E2,1.53E2,9.2E2,6.644E3,5.742E3,4.9E1,5.2E1,3.129E3,2.101E3,3.21E2,7.897E3,4.56E2,4.6E1,1.08E2,3.52E2,5.1E1,1.02E2,8.14E2,1.06E2,1.766E3,4.878E3,5.1E1,5.691E3,3.8E1,1.1E1,3E0,4.9E1,5.1E2,2.619E3,1.02E2,1.999E3,1.11E2,2.1E2,7.127E3,7.7E2,2E0,4.54E2,8E0,3.8E1,9.4E1,1.4E1,1.43E2,2.09E2,1E0,5E1,8.9E1,1.3E1,5.58E2,2.56E2,8.5E1,2.1E1,1.249E3,5.17E2,3.72E3,1.158E3,4.7E1,4E0,4.808E3,8.83E2,2.9E1,9E0,8E0,3E0,1E0,2E0,2.4E1,2.5E1,3.88E2,1.22E2,2.266E3,3.53E2,5.8E1,4.4E1,4.34E2,1.565E3,6E0,1.05E2,1.92E2,1.8E1,6.901E3,2.26E2,3.08E2,4.62E2,4.33E2,2.1E1,1E0,7E0,3.1E1,7E0,5E0,8.9E1,7E0,7E0,1.39E2,4E0,1.14E2,9.5E1,4.9E1,1E0,7.9E1,1E1,3.6E1,5.22E2,1.99E2,5.7E1,7.6E1,9E0,1E1,1.1E1],"tree_param":{"num_deleted":"0","num_feature":"13","num_nodes":"121","size_leaf_vector":"1"}},{"base_weights":[-2.1450812E-2,-8.0328844E-2,2.1116811E-1,-9.294269E-2,1.4848809E-2,1.2160586E-1,3.3345893E-1,-9.78971E-2,-6.552982E-2,-6.703213E-4,1.7797354E-1,9.2639185E-2,2.397196E-1,3.0179578E-1,4.729545E-1,-9.969744E-2,-9.010187E-2,-7.110797E-2,7.943901E-3,-1.6811438E-2,3.28608E-2,3.4814814E-1,1.5422884E-1,6.419587E-2,1.31205E-1,1.8557991E-1,2.9228392E-1,2.6020065E-1,3.3694205E-1,4.1131383E-1,5.712575E-1,-9.991689E-3,-9.0312526E-2,-9.3976825E-2,-6.787237E-2,-8.2198605E-2,-5.9871268E-2,-8.556173E-3,1.1785712E-1,-2.3669088E-2,2.6008945E-2,1.4956498E-2,8.3663344E-2,2.521739E-1,7.2E-2,1.7037034E-1,-9.230772E-3,7.6571986E-2,4.08745E-2,1.11741915E-1,1.7544377E-1,3.3142856E-1,1.6701752E-1,2.67037E-1,4.1090906E-1,3.4999996E-1,2.3763886E-1,3.0999997E-1,3.7319818E-1,6.178571E-1,3.862348E-1,6.1287874E-1,4.0277776E-1,4.4999998E-2,-9.341695E-3,-9.703491E-3,-8.836481E-3,5.714284E-3,-6.9612092E-3,-7.822948E-3,-9.6381605E-3,-6.7706266E-3,-4.049385E-3,-1.703299E-3,2.4999999E-2,3.4285713E-2,4.0909066E-3,-1.0805711E-3,-6.398812E-3,-1.829292E-4,1.0166665E-2,3.3115444E-3,-5.641028E-3,1.903846E-2,4.635759E-3,4.5454543E-2,6.153844E-3,1.0095236E-2,2.5411764E-2,6.377856E-3,1.4423074E-2,-3.7878812E-3,5.2060713E-3,2.0124998E-2,1.0129308E-2,3.5166662E-2,1.3691755E-2,5.1666666E-2,1.27777755E-2,5.2830167E-3,1.9227466E-2,2.4279278E-2,3.7142854E-2,3.6199998E-2,7.5E-2,6.896529E-4,4.1399997E-2,-4.5454773E-4,2.449213E-2,3.169748E-2,3.1249977E-3,1.0499998E-2,3.8494118E-2,2.4444444E-2,7.5500004E-2,4.09375E-2,1.5416664E-2,5.183333E-2,6.821918E-2,-8.750002E-3,5.241379E-2],"categories":[],"categories_nodes":[],"categories_segments":[],"categories_sizes":[],"default_left":[0,0,0,0,0,0,0,0,0,0,0,0,0,0,0,0,0,0,0,0,0,0,0,0,0,0,0,0,0,0,0,0,0,0,0,0,0,0,0,0,0,0,0,0,0,0,0,0,0,0,0,0,0,0,0,0,0,0,0,0,0,0,0,0,0,0,0,0,0,0,0,0,0,0,0,0,0,0,0,0,0,0,0,0,0,0,0,0,0,0,0,0,0,0,0,0,0,0,0,0,0,0,0,0,0,0,0,0,0,0,0,0,0,0,0,0,0,0,0,0,0],"id":9,"left_children":[1,3,5,7,9,11,13,15,17,19,21,23,25,27,29,31,33,35,37,39,41,43,45,47,49,51,53,55,57,59,61,-1,63,65,67,69,71,73,75,77,79,81,83,85,-1,87,-1,89,91,93,95,97,99,101,103,105,107,109,111,113,115,117,119,-1,-1,-1,-1,-1,-1,-1,-1,-1,-1,-1,-1,-1,-1,-1,-1,-1,-1,-1,-1,-1,-1,-1,-1,-1,-1,-1,-1,-1,-1,-1,-1,-1,-1,-1,-1,-1,-1,-1,-1,-1,-1,-1,-1,-1,-1,-1,-1,-1,-1,-1,-1,-1,-1,-1,-1,-1,-1],"loss_changes":[3.8311185E2,2.6800186E1,6.184192E1,2.6704712E0,6.61507E0,1.1141701E1,1.0404755E1,2.252655E-1,1.2383032E0,1.292468E0,8.6355495E-1,2.867754E0,1.7727776E0,2.7615967E0,2.4311981E0,1.889038E-2,2.6426697E-1,3.448925E-1,3.8911372E-1,4.739749E-1,7.045858E-1,7.820163E-1,8.156004E-1,4.329872E-1,9.3785286E-1,8.082733E-1,8.606243E-1,1.7341766E0,9.128952E-1,1.1806602E0,9.242058E-1,0E0,5.787933E-1,3.7298203E-2,1.061995E-1,7.1834564E-2,2.0950556E-1,4.1411242E-1,4.7074676E-1,7.2021663E-1,4.6986347E-1,7.4703676E-1,7.9540026E-1,8.5934937E-1,0E0,1.0731106E0,0E0,8.442702E-1,4.6535242E-1,7.0443726E-1,2.246601E0,1.254317E0,8.117957E-1,5.931606E-1,6.406536E-1,3.905779E0,1.2709656E0,1.1760674E0,1.3579369E0,1.2493496E0,1.263298E0,5.11425E-1,2.187869E0,0E0,0E0,0E0,0E0,0E0,0E0,0E0,0E0,0E0,0E0,0E0,0E0,0E0,0E0,0E0,0E0,0E0,0E0,0E0,0E0,0E0,0E0,0E0,0E0,0E0,0E0,0E0,0E0,0E0,0E0,0E0,0E0,0E0,0E0,0E0,0E0,0E0,0E0,0E0,0E0,0E0,0E0,0E0,0E0,0E0,0E0,0E0,0E0,0E0,0E0,0E0,0E0,0E0,0E0,0E0,0E0,0E0,0E0],"parents":[2147483647,0,0,1,1,2,2,3,3,4,4,5,5,6,6,7,7,8,8,9,9,10,10,11,11,12,12,13,13,14,14,15,15,16,16,17,17,18,18,19,19,20,20,21,21,22,22,23,23,24,24,25,25,26,26,27,27,28,28,29,29,30,30,32,32,33,33,34,34,35,35,36,36,37,37,38,38,39,39,40,40,41,41,42,42,43,43,45,45,47,47,48,48,49,49,50,50,51,51,52,52,53,53,54,54,55,55,56,56,57,57,58,58,59,59,60,60,61,61,62,62],"right_children":[2,4,6,8,10,12,14,16,18,20,22,24,26,28,30,32,34,36,38,40,42,44,46,48,50,52,54,56,58,60,62,-1,64,66,68,70,72,74,76,78,80,82,84,86,-1,88,-1,90,92,94,96,98,100,102,104,106,108,110,112,114,116,118,120,-1,-1,-1,-1,-1,-1,-1,-1,-1,-1,-1,-1,-1,-1,-1,-1,-1,-1,-1,-1,-1,-1,-1,-1,-1,-1,-1,-1,-1,-1,-1,-1,-1,-1,-1,-1,-1,-1,-1,-1,-1,-1,-1,-1,-1,-1,-1,-1,-1,-1,-1,-1,-1,-1,-1,-1,-1,-1],"split_conditions":[1.9442093E1,1.6942125E1,2.3028795E1,1.2909775E1,9.6146E3,1E0,5.1333E3,9.380153E0,1.060618E4,1.8587248E1,6.35E2,2.1043465E1,7.96658E3,2.403919E1,1.026593E4,1.989546E4,6.89954E3,1.4597518E1,4.3E1,4.79118E3,3.9E1,6E0,1.9088192E1,3.3E1,2.1985802E1,5.23283E3,2.1973476E1,6.54E2,1.66824E3,6.3E2,4.3E1,-8.874847E-1,5.96E2,1.1981662E1,9.392359E0,8E2,2.9513E3,8.55E2,1E0,2.31207E3,8.01E2,8.11E2,7.4765E2,2E0,3.0030632E-1,1.7995914E1,-1.5456259E-2,2.8E1,3.7304E2,2.1127386E1,4.7013E2,6.75E2,6.53E2,4.2E1,8.16E2,1E0,6.63E2,1.63063E3,6.15E2,6.08357E3,8E0,7.17E2,7.12E2,1.9403268E-2,-6.166906E-1,-4.6330395E-1,-3.743677E-1,7.4569704E-3,-2.2956975E-1,-2.4258006E-1,-3.134679E-1,-1.614567E-1,-8.881431E-2,-3.5851743E-2,1.6749325E-1,2.0006238E-1,8.111411E-2,-2.2544865E-2,-1.0482512E-1,7.577307E-3,1.8180919E-1,3.687739E-2,-9.966757E-2,2.1095946E-1,9.397253E-2,7.560527E-1,2.2288845E-1,1.6654108E-1,2.0684247E-1,1.0290805E-1,2.0248199E-1,-2.47065E-2,8.758046E-2,2.2336268E-1,1.643779E-1,3.301575E-1,2.017217E-1,4.8034945E-1,3.289258E-1,2.003038E-1,3.4022698E-1,2.9790252E-1,3.1387147E-1,3.2159272E-1,5.667788E-1,8.986938E-2,3.494533E-1,1.7079411E-1,3.2806656E-1,3.916505E-1,1.6013889E-1,2.5601462E-1,4.051791E-1,8.2992613E-1,4.485464E-1,4.5358038E-1,1.8620506E-1,6.4409345E-1,5.564632E-1,-9.050178E-3,5.3968805E-1],"split_indices":[3,3,3,3,0,10,0,3,0,3,2,3,0,3,0,0,0,3,9,0,9,7,3,9,3,0,3,2,0,2,9,0,2,3,3,2,0,2,7,0,2,2,0,7,0,3,0,9,0,3,0,2,2,9,2,7,2,0,2,0,5,2,2,0,0,0,0,0,0,0,0,0,0,0,0,0,0,0,0,0,0,0,0,0,0,0,0,0,0,0,0,0,0,0,0,0,0,0,0,0,0,0,0,0,0,0,0,0,0,0,0,0,0,0,0,0,0,0,0,0,0],"split_type":[0,0,0,0,0,0,0,0,0,0,0,0,0,0,0,0,0,0,0,0,0,0,0,0,0,0,0,0,0,0,0,0,0,0,0,0,0,0,0,0,0,0,0,0,0,0,0,0,0,0,0,0,0,0,0,0,0,0,0,0,0,0,0,0,0,0,0,0,0,0,0,0,0,0,0,0,0,0,0,0,0,0,0,0,0,0,0,0,0,0,0,0,0,0,0,0,0,0,0,0,0,0,0,0,0,0,0,0,0,0,0,0,0,0,0,0,0,0,0,0,0],"sum_hessian":[2.797E4,2.2321E4,5.649E3,1.9709E4,2.612E3,3.262E3,2.387E3,1.669E4,3.019E3,2.386E3,2.26E2,2.621E3,6.41E2,1.948E3,4.39E2,1.3549E4,3.141E3,2.806E3,2.13E2,1.611E3,7.75E2,2.6E1,2E2,1.51E3,1.111E3,3.18E2,3.23E2,8.96E2,1.052E3,2.73E2,1.66E2,1.323E4,3.19E2,2.672E3,4.69E2,1.409E3,1.397E3,1.86E2,2.7E1,1.389E3,2.22E2,5.74E2,2.01E2,2.2E1,4E0,1.88E2,1.2E1,9.85E2,5.25E2,7.74E2,3.37E2,3.4E1,2.84E2,2.69E2,5.4E1,1.77E2,7.19E2,6.09E2,4.43E2,2.7E1,2.46E2,1.31E2,3.5E1,1E0,3.18E2,1.719E3,9.53E2,6E0,4.63E2,1.106E3,3.03E2,9.93E2,4.04E2,1.81E2,5E0,6E0,2.1E1,1.054E3,3.35E2,1.63E2,5.9E1,4.58E2,1.16E2,5.1E1,1.5E2,1E1,1.2E1,1.04E2,8.4E1,8.3E2,1.55E2,6.5E1,4.6E2,7.9E1,6.95E2,5.9E1,2.78E2,1.7E1,1.7E1,5.2E1,2.32E2,2.21E2,4.8E1,4.9E1,5E0,2.8E1,1.49E2,2.1E1,6.98E2,5.94E2,1.5E1,1.9E1,4.24E2,8E0,1.9E1,2.23E2,2.3E1,5.9E1,7.2E1,7E0,2.8E1],"tree_param":{"num_deleted":"0","num_feature":"13","num_nodes":"121","size_leaf_vector":"1"}},{"base_weights":[-2.5275735E-2,-7.926245E-2,1.8897016E-1,-9.1415174E-2,1.0395456E-2,9.449043E-2,2.8171203E-1,-9.7604156E-2,-6.8001E-2,-2.3073992E-3,1.4497814E-1,7.801274E-2,2.4595585E-1,2.567669E-1,4.1866356E-1,-9.9371925E-2,-8.87645E-2,-7.3678754E-2,1.71206E-2,-2.0900024E-2,1.0714262E-2,7.53968E-2,2.2788459E-1,6.355253E-2,1.04659066E-1,1.8639453E-1,3.1349203E-1,1.8381816E-1,2.7837396E-1,3.736641E-1,4.8439303E-1,-9.982548E-3,-9.295614E-2,-9.410908E-2,-6.815645E-2,-8.077554E-2,-6.113508E-2,5.6679924E-3,2.7272725E-1,4.8116916E-3,-4.435949E-2,-3.8157918E-2,1.9983323E-2,4.083333E-1,3.9999977E-2,3.8709676E-1,1.5810809E-1,5.6985524E-2,1.1771426E-1,8.8972785E-2,1.5159816E-1,4.8571426E-1,1.7021275E-1,3.3057848E-1,-8.333336E-3,2.6214686E-1,1.4625666E-1,2.5416282E-1,3.131474E-1,5.404255E-1,3.3564812E-1,3.057692E-1,5.5655736E-1,-9.714677E-3,-6.870231E-3,-9.499011E-3,-4.615387E-3,-5.3822654E-3,-9.004742E-3,-8.259552E-3,-5.1700706E-3,-4.8316857E-3,-6.8355883E-3,5.267855E-3,-3.308826E-3,4.1249998E-2,-7.5000017E-3,1.6747549E-3,-6.865674E-3,-6.1994637E-3,-1.3072132E-4,-5.2105286E-3,3.076921E-3,3.5663315E-3,-1.9960318E-4,5.7777774E-2,-7.5000017E-3,2.0333331E-2,-1.7441884E-3,-7.5000017E-3,4.392857E-2,3.6923077E-2,1.112903E-2,2.210526E-2,5.4773497E-3,2.0677965E-2,7.1794847E-3,1.850746E-2,7.802011E-3,8.099998E-3,2.0916665E-2,-5.0000013E-3,5.8333334E-2,1.8759688E-2,-1.5384638E-3,3.6565658E-2,1.6521737E-2,2.2708332E-2,4.029412E-2,9.648239E-3,2.0170452E-2,2.6782429E-2,1.3565215E-2,4.15E-2,2.8941367E-2,2.0999998E-2,6.1315786E-2,2.4555555E-2,3.9685037E-2,1.4399998E-2,4.392857E-2,3.1363633E-2,6.039604E-2],"categories":[],"categories_nodes":[],"categories_segments":[],"categories_sizes":[],"default_left":[0,0,0,0,0,0,0,0,0,0,0,0,0,0,0,0,0,0,0,0,0,0,0,0,0,0,0,0,0,0,0,0,0,0,0,0,0,0,0,0,0,0,0,0,0,0,0,0,0,0,0,0,0,0,0,0,0,0,0,0,0,0,0,0,0,0,0,0,0,0,0,0,0,0,0,0,0,0,0,0,0,0,0,0,0,0,0,0,0,0,0,0,0,0,0,0,0,0,0,0,0,0,0,0,0,0,0,0,0,0,0,0,0,0,0,0,0,0,0,0,0,0,0],"id":10,"left_children":[1,3,5,7,9,11,13,15,17,19,21,23,25,27,29,31,33,35,37,39,41,43,45,47,49,51,53,55,57,59,61,-1,63,65,67,69,71,73,75,77,79,81,83,85,87,89,91,93,95,97,99,101,103,105,-1,107,109,111,113,115,117,119,121,-1,-1,-1,-1,-1,-1,-1,-1,-1,-1,-1,-1,-1,-1,-1,-1,-1,-1,-1,-1,-1,-1,-1,-1,-1,-1,-1,-1,-1,-1,-1,-1,-1,-1,-1,-1,-1,-1,-1,-1,-1,-1,-1,-1,-1,-1,-1,-1,-1,-1,-1,-1,-1,-1,-1,-1,-1,-1,-1,-1],"loss_changes":[3.2198975E2,2.4227936E1,4.9068146E1,2.8308258E0,4.539281E0,6.911648E0,9.550308E0,2.331543E-1,1.9813404E0,5.8781725E-1,1.3038602E0,9.5893955E-1,1.0356979E0,3.7222748E0,1.102684E0,2.8251648E-2,2.7885246E-1,3.3698463E-1,7.5078636E-1,6.0339653E-1,6.476454E-1,1.4685636E0,1.0941606E0,5.719843E-1,6.344557E-1,6.293235E-1,8.818712E-1,1.5798397E0,1.4737244E0,1.4795799E0,2.0598373E0,0E0,8.1344604E-2,8.239555E-2,1.6365361E-1,1.2537193E-1,1.255374E-1,4.5176536E-1,5.655681E-1,4.203122E-1,3.9699793E-1,2.2079152E-1,4.1397908E-1,1.0261109E0,1.0824962E0,7.8055286E-1,6.9034624E-1,5.1521635E-1,7.008743E-1,6.823635E-1,8.731246E-1,3.9523816E-1,4.5781565E-1,6.414528E-1,0E0,7.8230286E-1,1.0127335E0,1.7332611E0,1.7001495E0,1.0007706E0,1.0935478E0,1.0598831E0,1.2154274E0,0E0,0E0,0E0,0E0,0E0,0E0,0E0,0E0,0E0,0E0,0E0,0E0,0E0,0E0,0E0,0E0,0E0,0E0,0E0,0E0,0E0,0E0,0E0,0E0,0E0,0E0,0E0,0E0,0E0,0E0,0E0,0E0,0E0,0E0,0E0,0E0,0E0,0E0,0E0,0E0,0E0,0E0,0E0,0E0,0E0,0E0,0E0,0E0,0E0,0E0,0E0,0E0,0E0,0E0,0E0,0E0,0E0,0E0,0E0,0E0],"parents":[2147483647,0,0,1,1,2,2,3,3,4,4,5,5,6,6,7,7,8,8,9,9,10,10,11,11,12,12,13,13,14,14,15,15,16,16,17,17,18,18,19,19,20,20,21,21,22,22,23,23,24,24,25,25,26,26,27,27,28,28,29,29,30,30,32,32,33,33,34,34,35,35,36,36,37,37,38,38,39,39,40,40,41,41,42,42,43,43,44,44,45,45,46,46,47,47,48,48,49,49,50,50,51,51,52,52,53,53,55,55,56,56,57,57,58,58,59,59,60,60,61,61,62,62],"right_children":[2,4,6,8,10,12,14,16,18,20,22,24,26,28,30,32,34,36,38,40,42,44,46,48,50,52,54,56,58,60,62,-1,64,66,68,70,72,74,76,78,80,82,84,86,88,90,92,94,96,98,100,102,104,106,-1,108,110,112,114,116,118,120,122,-1,-1,-1,-1,-1,-1,-1,-1,-1,-1,-1,-1,-1,-1,-1,-1,-1,-1,-1,-1,-1,-1,-1,-1,-1,-1,-1,-1,-1,-1,-1,-1,-1,-1,-1,-1,-1,-1,-1,-1,-1,-1,-1,-1,-1,-1,-1,-1,-1,-1,-1,-1,-1,-1,-1,-1,-1,-1,-1,-1],"split_conditions":[1.9442093E1,1.6942125E1,2.1985802E1,1.1981662E1,9.34238E3,7.96658E3,6.08357E3,8.510795E0,1.146912E4,1.784672E1,1.8283236E1,2.1043465E1,2.070615E1,2.3343695E1,2.403919E1,1.060618E4,5.23283E3,1.4597518E1,4.8E1,1E0,1E0,7E0,1.8587248E1,1E0,2.98864E3,8.15608E3,4.8E1,8.9504E2,2.9E1,6.89954E3,7.96658E3,-8.702079E-1,6.444937E0,4.9E1,3E1,7.56389E3,1.9E1,8.3048475E-1,1.5446817E1,9.2322195E-1,7E0,4.1E1,6E0,8E0,1.7105307E1,7.926799E-1,1.060618E4,1.1988E2,5.6158E3,2.1127386E1,2.6E1,1.9535278E1,9.484992E-1,2.1778318E1,-5.2659035E-2,6E0,8.3048475E-1,9.6080333E-1,3.3E1,1.2E1,9.91715E3,8.141698E-1,2E0,-6.780702E-1,-2.1197434E-1,-4.3755665E-1,-2.7942285E-1,-1.492893E-1,-2.6678023E-1,-2.8168043E-1,-2.1223593E-1,-9.686687E-2,-1.9101958E-1,8.25604E-2,-8.594607E-2,1.24337964E-1,-2.1285152E-1,4.111698E-2,-1.0284747E-1,-1.1271216E-1,-6.0929353E-3,-4.1277707E-2,1.6788678E-1,7.01343E-2,-2.8851111E-3,6.662796E-1,-4.787445E-5,1.825676E-1,-1.517898E-2,-1.2305069E-2,2.4548875E-1,4.753699E-1,2.2994505E-1,2.2901022E-1,8.242233E-2,4.1406083E-1,1.183052E-1,2.533458E-1,1.7680854E-1,2.353115E-1,2.072031E-1,-2.8496495E-1,2.5798798E-1,2.6503536E-1,2.1297525E-1,5.041653E-1,2.6014355E-1,2.760155E-1,3.5424787E-1,2.0752256E-1,2.529262E-1,3.5688254E-1,3.0231404E-1,3.5773373E-1,3.2891074E-1,3.660425E-1,4.6059275E-1,2.7822456E-1,4.2948857E-1,1.8728074E-1,3.758628E-1,4.1951376E-1,4.5748577E-1],"split_indices":[3,3,3,3,0,0,0,3,0,3,3,3,3,3,3,0,0,3,9,11,7,9,3,10,0,0,9,0,9,0,0,0,3,9,9,0,9,4,3,4,5,9,5,5,3,4,0,0,0,3,9,3,4,3,0,7,4,4,9,9,0,4,5,0,0,0,0,0,0,0,0,0,0,0,0,0,0,0,0,0,0,0,0,0,0,0,0,0,0,0,0,0,0,0,0,0,0,0,0,0,0,0,0,0,0,0,0,0,0,0,0,0,0,0,0,0,0,0,0,0,0,0,0],"split_type":[0,0,0,0,0,0,0,0,0,0,0,0,0,0,0,0,0,0,0,0,0,0,0,0,0,0,0,0,0,0,0,0,0,0,0,0,0,0,0,0,0,0,0,0,0,0,0,0,0,0,0,0,0,0,0,0,0,0,0,0,0,0,0,0,0,0,0,0,0,0,0,0,0,0,0,0,0,0,0,0,0,0,0,0,0,0,0,0,0,0,0,0,0,0,0,0,0,0,0,0,0,0,0,0,0,0,0,0,0,0,0,0,0,0,0,0,0,0,0,0,0,0,0],"sum_hessian":[2.7836E4,2.2234E4,5.602E3,1.958E4,2.654E3,2.776E3,2.826E3,1.5484E4,4.096E3,2.426E3,2.28E2,2.505E3,2.71E2,2.393E3,4.33E2,1.2895E4,2.589E3,3.84E3,2.56E2,9.99E2,1.427E3,1.25E2,1.03E2,1.626E3,8.79E2,1.46E2,1.25E2,5.49E2,1.844E3,2.61E2,1.72E2,1.203E4,8.65E2,2.053E3,5.36E2,2.449E3,1.391E3,2.46E2,1E1,4.77E2,5.22E2,2.27E2,1.2E3,1.1E1,1.14E2,3E1,7.3E1,1.452E3,1.74E2,6.61E2,2.18E2,6E0,1.4E2,1.2E2,5E0,1.76E2,3.73E2,1.092E3,7.52E2,4.6E1,2.15E2,5.1E1,1.21E2,7.35E2,1.3E2,2.015E3,3.8E1,3.26E2,2.1E2,2.303E3,1.46E2,5.04E2,8.87E2,1.11E2,1.35E2,7E0,3E0,4.11E2,6.6E1,3.7E2,1.52E2,1.89E2,3.8E1,7E2,5E2,8E0,3E0,2.9E1,8.5E1,3E0,2.7E1,1.2E1,6.1E1,1.8E1,1.434E3,5.8E1,1.16E2,6.6E1,5.95E2,9.9E1,1.19E2,1E0,5E0,1.28E2,1.2E1,9.8E1,2.2E1,1.43E2,3.3E1,1.98E2,1.75E2,9.78E2,1.14E2,1.39E2,6.13E2,9E0,3.7E1,8.9E1,1.26E2,2.4E1,2.7E1,2.1E1,1E2],"tree_param":{"num_deleted":"0","num_feature":"13","num_nodes":"123","size_leaf_vector":"1"}},{"base_weights":[-3.1253364E-2,-3.9600343E-2,3.0396557E-3,-4.3921243E-2,-1.6883356E-3,-6.7165927E-3,9.039853E-2,-3.9045576E-2,-4.837889E-2,-4.534886E-2,3.7992944E-3,-2.3326663E-2,1.8660508E-2,7.1794845E-2,2.9347825E-1,-4.032697E-2,1.1923075E-1,-6.561189E-2,-3.770469E-2,-9.850749E-3,-2.6562523E-2,1.8677836E-2,-9.082676E-3,-1.3654915E-2,-3.2696135E-2,2.5414973E-2,-3.7619073E-2,4.426664E-2,1.4887215E-1,5.722222E-1,1.10344805E-1,-4.3466534E-2,-1.5890434E-2,3.965515E-2,3.333333E-1,-7.387054E-2,-5.624015E-2,-1.0412498E-2,-4.9626235E-2,-1.503783E-3,-8.166669E-2,-1.6360156E-3,3.9999977E-2,-5.0000023E-2,-2.0213004E-3,-2.5782906E-2,8.932015E-3,1.3181816E-1,-3.5093606E-2,2.1163998E-2,1.7872338E-1,2.1686723E-2,-7.578127E-2,7.74336E-2,-6.000024E-3,1.8290596E-1,-9.411767E-3,6.5625E-1,-6.6666687E-3,-9.000002E-3,2.0499998E-1,-2.9618572E-3,-4.6041287E-3,2.0918343E-3,-5.846459E-3,-3.2608719E-3,2.9230768E-2,4.352941E-2,-8.000002E-3,-5.86681E-3,-8.577374E-3,-4.3984703E-3,-8.302524E-3,-2.5605753E-3,1.4913293E-2,-8.138404E-3,-4.036335E-3,2.6666665E-2,-7.6336117E-4,-9.800002E-3,-2.1674418E-9,7.1951197E-3,-1.6421592E-3,3.0399999E-2,2.4943287E-3,-6.821708E-3,2.0588213E-3,1.2554721E-3,-4.1015646E-3,-3.6237922E-3,6.355908E-4,2.9565215E-2,-4.4624982E-4,3.6363635E-2,-9.166669E-3,-5.17081E-3,-2.2508816E-3,3.755922E-3,5.0116313E-4,1.0769228E-2,4.6666663E-2,-9.5000025E-3,5.7812477E-3,-9.026552E-3,3.1249977E-3,1.7454544E-2,4.5930212E-3,-3.5200024E-3,1.3461537E-2,2.5124997E-2,3.4210503E-3,7.416667E-2,3.2E-2,-8.333355E-4,4.6666663E-2],"categories":[],"categories_nodes":[],"categories_segments":[],"categories_sizes":[],"default_left":[0,0,0,0,0,0,0,0,0,0,0,0,0,0,0,0,0,0,0,0,0,0,0,0,0,0,0,0,0,0,0,0,0,0,0,0,0,0,0,0,0,0,0,0,0,0,0,0,0,0,0,0,0,0,0,0,0,0,0,0,0,0,0,0,0,0,0,0,0,0,0,0,0,0,0,0,0,0,0,0,0,0,0,0,0,0,0,0,0,0,0,0,0,0,0,0,0,0,0,0,0,0,0,0,0,0,0,0,0,0,0,0,0,0,0],"id":11,"left_children":[1,3,5,7,9,11,13,15,17,19,21,23,25,27,29,31,33,35,37,-1,39,41,43,45,47,49,51,53,55,57,59,61,63,65,67,69,71,73,75,77,79,81,83,85,87,89,91,93,95,97,99,101,103,105,107,109,-1,111,-1,-1,113,-1,-1,-1,-1,-1,-1,-1,-1,-1,-1,-1,-1,-1,-1,-1,-1,-1,-1,-1,-1,-1,-1,-1,-1,-1,-1,-1,-1,-1,-1,-1,-1,-1,-1,-1,-1,-1,-1,-1,-1,-1,-1,-1,-1,-1,-1,-1,-1,-1,-1,-1,-1,-1,-1],"loss_changes":[8.032387E0,3.6968803E0,4.6831155E0,4.3841934E-1,5.5363166E-1,2.083986E0,2.0644016E0,1.9682541E0,1.9435177E0,2.550366E-1,3.9365774E-1,2.7032351E-1,7.4450696E-1,1.0691626E0,2.2850358E0,7.361269E-1,1.3156941E0,3.089199E-1,2.1257439E0,0E0,2.6499867E-1,4.1284293E-1,3.180139E-1,4.034612E-1,6.0295856E-1,1.1347555E0,4.7692376E-1,6.2566185E-1,1.1171072E0,1.0100694E0,5.6839645E-1,3.0206108E-1,1.7172005E0,1.0684754E0,9.198432E-1,3.834839E-1,6.1972E-1,4.8227577E0,1.3345938E0,2.2066619E-1,8.003333E-2,5.332279E-1,1.8407763E0,2.0972186E-1,5.3479445E-1,3.2212967E-1,1.9791651E0,1.1731061E0,3.1163454E-1,4.502734E-1,9.11031E-1,3.553701E-1,2.0125484E-1,6.833967E-1,6.2063384E-1,1.1804109E0,0E0,2.2220898E-1,0E0,0E0,1.1203333E0,0E0,0E0,0E0,0E0,0E0,0E0,0E0,0E0,0E0,0E0,0E0,0E0,0E0,0E0,0E0,0E0,0E0,0E0,0E0,0E0,0E0,0E0,0E0,0E0,0E0,0E0,0E0,0E0,0E0,0E0,0E0,0E0,0E0,0E0,0E0,0E0,0E0,0E0,0E0,0E0,0E0,0E0,0E0,0E0,0E0,0E0,0E0,0E0,0E0,0E0,0E0,0E0,0E0,0E0],"parents":[2147483647,0,0,1,1,2,2,3,3,4,4,5,5,6,6,7,7,8,8,9,9,10,10,11,11,12,12,13,13,14,14,15,15,16,16,17,17,18,18,20,20,21,21,22,22,23,23,24,24,25,25,26,26,27,27,28,28,29,29,30,30,31,31,32,32,33,33,34,34,35,35,36,36,37,37,38,38,39,39,40,40,41,41,42,42,43,43,44,44,45,45,46,46,47,47,48,48,49,49,50,50,51,51,52,52,53,53,54,54,55,55,57,57,60,60],"right_children":[2,4,6,8,10,12,14,16,18,20,22,24,26,28,30,32,34,36,38,-1,40,42,44,46,48,50,52,54,56,58,60,62,64,66,68,70,72,74,76,78,80,82,84,86,88,90,92,94,96,98,100,102,104,106,108,110,-1,112,-1,-1,114,-1,-1,-1,-1,-1,-1,-1,-1,-1,-1,-1,-1,-1,-1,-1,-1,-1,-1,-1,-1,-1,-1,-1,-1,-1,-1,-1,-1,-1,-1,-1,-1,-1,-1,-1,-1,-1,-1,-1,-1,-1,-1,-1,-1,-1,-1,-1,-1,-1,-1,-1,-1,-1,-1],"split_conditions":[1E0,6E1,6E1,8.470688E-1,7E0,9.91715E3,4.6E1,8.446195E-1,9.059774E-1,7.8007853E-1,8.446195E-1,8.470688E-1,4.5E1,9.154366E-1,4.8E1,8.285652E-1,3E0,8.8005775E-1,9.3242353E-1,-1.9950794E-1,5E0,7.734815E-1,1E0,7.954497E-1,5.03252E3,4.4E1,1.364523E4,4E0,9.877174E-1,9.5453733E-1,6.89954E3,7.1740735E-1,8.3695084E-1,4.5E1,2.25732E3,8.585468E-1,8.94969E-1,9.291327E-1,9.452509E-1,7.867686E-1,5E0,1E0,7.8007853E-1,9.631562E-1,3E0,3.9E1,7.9811424E-1,3E0,9.154366E-1,8.571549E-1,5E0,4.6E1,6E0,7.5811976E-1,1.705995E4,3E0,-3.2704648E-1,6E0,-2.1256257E-2,-5.9097867E-2,4.9E1,-6.0436603E-2,-1.4047214E-1,7.013964E-2,-1.5745853E-1,-6.60801E-2,4.7329065E-1,4.3363354E-1,-3.7701797E-2,-2.3068257E-1,-4.868599E-1,-1.6496377E-1,-4.4607124E-1,-7.815669E-2,1.7317602E-1,-3.05603E-1,-1.2946372E-1,8.3600044E-2,-4.532443E-2,-1.3056682E-1,5.723092E-1,2.2241683E-1,-4.9432613E-2,3.7130144E-1,5.572545E-2,-1.0620173E-1,5.0990297E-3,4.4791706E-2,-1.1142488E-1,-1.03433065E-1,2.2008324E-2,5.208157E-1,-8.590142E-3,2.9557103E-1,-1.1922045E-2,-1.1836936E-1,-8.5864045E-2,9.299711E-2,1.1357191E-2,1.8866706E-1,7.3123187E-1,-7.6996095E-2,6.9323085E-2,-2.0989953E-1,1.1009669E-1,2.4097879E-1,1.6380687E-1,-5.9520938E-2,3.25032E-1,3.3875096E-1,1.8212853E-1,5.35813E-1,2.7761823E-1,3.9493468E-2,2.3218918E-1],"split_indices":[10,1,1,4,9,0,9,4,4,4,4,4,9,4,9,4,6,4,4,0,9,4,7,4,0,9,0,7,4,4,0,4,4,1,0,4,4,4,4,4,7,7,4,4,6,9,4,7,4,4,7,9,7,4,0,6,0,7,0,0,9,0,0,0,0,0,0,0,0,0,0,0,0,0,0,0,0,0,0,0,0,0,0,0,0,0,0,0,0,0,0,0,0,0,0,0,0,0,0,0,0,0,0,0,0,0,0,0,0,0,0,0,0,0,0],"split_type":[0,0,0,0,0,0,0,0,0,0,0,0,0,0,0,0,0,0,0,0,0,0,0,0,0,0,0,0,0,0,0,0,0,0,0,0,0,0,0,0,0,0,0,0,0,0,0,0,0,0,0,0,0,0,0,0,0,0,0,0,0,0,0,0,0,0,0,0,0,0,0,0,0,0,0,0,0,0,0,0,0,0,0,0,0,0,0,0,0,0,0,0,0,0,0,0,0,0,0,0,0,0,0,0,0,0,0,0,0,0,0,0,0,0,0],"sum_hessian":[2.806E4,2.2567E4,5.493E3,2.0258E4,2.309E3,4.942E3,5.51E2,9.68E3,1.0578E4,2.57E2,2.052E3,2.987E3,1.955E3,5.06E2,4.5E1,9.603E3,7.7E1,4.044E3,6.534E3,6.6E1,1.91E2,9.52E2,1.1E3,1.471E3,1.516E3,1.746E3,2.09E2,3.74E2,1.32E2,1.7E1,2.8E1,8.509E3,1.094E3,5.7E1,2E1,2.146E3,1.898E3,1.987E3,4.547E3,1.32E2,5.9E1,4.88E2,4.64E2,1.61E2,9.39E2,9.57E2,5.14E2,2.1E1,1.495E3,1.7E3,4.6E1,8.2E1,1.27E2,2.25E2,1.49E2,1.16E2,1.6E1,1.5E1,2E0,9E0,1.9E1,1.336E3,7.173E3,5.87E2,5.07E2,4.5E1,1.2E1,1.6E1,4E0,9.45E2,1.201E3,1.304E3,5.94E2,1.815E3,1.72E2,1.025E3,3.522E3,2E0,1.3E2,4.9E1,1E1,8.1E1,4.07E2,2.4E1,4.4E2,1.28E2,3.3E1,6.84E2,2.55E2,7.22E2,2.35E2,2.2E1,4.92E2,1E1,1.1E1,6.43E2,8.52E2,8.43E2,8.57E2,3.8E1,8E0,1.9E1,6.3E1,1.12E2,1.5E1,5.4E1,1.71E2,1.24E2,2.5E1,7.9E1,3.7E1,1.1E1,4E0,1.1E1,8E0],"tree_param":{"num_deleted":"0","num_feature":"13","num_nodes":"115","size_leaf_vector":"1"}},{"base_weights":[-2.684403E-2,-8.025886E-2,1.5558009E-1,-9.293478E-2,-1.4664789E-2,8.089221E-2,2.617973E-1,-9.691075E-2,-6.873538E-2,-2.471621E-2,5.8628816E-2,7.136663E-2,2.0689653E-1,2.3864557E-1,3.8902742E-1,-9.9173985E-2,-8.8606484E-2,-7.362042E-2,-2.3702432E-8,-4.3661196E-2,4.5280636E-4,1.779357E-2,1.3846152E-1,6.278544E-2,1.4674218E-1,1.8075311E-1,4.6956518E-1,2.2352053E-1,3.734234E-1,6.60606E-1,3.636856E-1,-9.980037E-3,-9.526318E-2,-9.250002E-2,-7.278198E-2,-7.74813E-2,-4.124516E-2,3.2E-1,-9.580862E-3,-2.7910983E-2,-5.1445603E-2,-1.0972592E-2,1.121951E-1,-3.2128752E-3,1.7575756E-1,1.5833332E-1,-9.166669E-3,2.6660658E-2,8.2915805E-2,1.3009706E-1,2.5777775E-1,1.5539214E-1,3.1944442E-1,8.333331E-2,5.722222E-1,1.9104093E-1,2.695018E-1,3.4708735E-1,6.705882E-1,3.6923075E-1,8.0952376E-2,3.015625E-1,4.2865166E-1,-9.7972555E-3,-7.1978047E-3,-9.498759E-3,-6.9662943E-3,-2.9000023E-3,-8.038872E-3,-7.4829957E-3,-9.955755E-3,-2.108436E-3,-7.7173933E-3,-6.6666687E-3,6E-2,2.6666665E-2,-1.4545479E-3,8.636362E-3,-3.2326845E-3,-2.37624E-3,-6.0984003E-3,-2.180046E-3,2.446806E-3,1.717647E-2,-2.0512843E-3,1.4117645E-2,-1.3733929E-3,2.4999997E-2,-8.750002E-3,1.0124998E-2,2.4150942E-2,1.3333331E-2,1.9598447E-3,1.379308E-3,9.069118E-3,2.1061946E-2,8.324871E-3,3.3142857E-2,-2.1674418E-9,3.7647057E-2,1.34574445E-2,-8.333336E-3,3.8709678E-2,-8.000002E-3,4.4999998E-2,-5.0000013E-3,6.1176468E-2,1.750509E-2,2.7225127E-2,5.4545435E-3,2.7812893E-2,-2.1674418E-9,3.647959E-2,7.733333E-2,-6.6666687E-3,4.5454543E-2,-6.6666687E-3,4.017241E-2,2.5629628E-2,2.6382977E-2,4.840909E-2],"categories":[],"categories_nodes":[],"categories_segments":[],"categories_sizes":[],"default_left":[0,0,0,0,0,0,0,0,0,0,0,0,0,0,0,0,0,0,0,0,0,0,0,0,0,0,0,0,0,0,0,0,0,0,0,0,0,0,0,0,0,0,0,0,0,0,0,0,0,0,0,0,0,0,0,0,0,0,0,0,0,0,0,0,0,0,0,0,0,0,0,0,0,0,0,0,0,0,0,0,0,0,0,0,0,0,0,0,0,0,0,0,0,0,0,0,0,0,0,0,0,0,0,0,0,0,0,0,0,0,0,0,0,0,0,0,0,0,0,0,0],"id":12,"left_children":[1,3,5,7,9,11,13,15,17,19,21,23,25,27,29,31,33,35,37,39,41,43,45,47,49,51,53,55,57,59,61,-1,63,65,67,69,71,73,75,77,79,81,83,85,87,89,-1,91,93,95,97,99,101,103,105,107,109,111,113,115,-1,117,119,-1,-1,-1,-1,-1,-1,-1,-1,-1,-1,-1,-1,-1,-1,-1,-1,-1,-1,-1,-1,-1,-1,-1,-1,-1,-1,-1,-1,-1,-1,-1,-1,-1,-1,-1,-1,-1,-1,-1,-1,-1,-1,-1,-1,-1,-1,-1,-1,-1,-1,-1,-1,-1,-1,-1,-1,-1,-1],"loss_changes":[2.7254672E2,1.7987381E1,5.0235245E1,1.7378387E0,2.5835996E0,4.451418E0,7.609894E0,2.83844E-1,8.6025524E-1,1.4700762E0,1.3765113E0,2.2294025E0,1.7074261E0,4.4318542E0,2.5195427E0,2.0446777E-2,1.9930458E-1,2.957964E-1,5.273294E-1,2.1422815E-1,1.6928589E0,9.329962E-1,6.6846156E-1,2.258669E0,6.1887884E-1,7.9100704E-1,8.6425114E-1,2.9264603E0,1.5046539E0,1.1330004E0,1.3599854E0,0E0,1.00829124E-1,1.4562988E-1,2.191391E-1,1.1757374E-1,1.8453151E-1,5.813333E-1,2.3291309E-1,2.974904E-1,3.0907798E-1,4.6218067E-1,9.758824E-1,3.8020176E-1,6.6685605E-1,6.0227895E-1,0E0,8.3661306E-1,1.0715084E0,1.1481199E0,8.5434914E-1,8.882141E-1,1.0132165E0,3.9533332E-1,4.73464E-1,1.4742508E0,1.5110474E0,1.266159E0,1.3392949E0,5.137528E-1,0E0,7.6755524E-1,1.4987755E0,0E0,0E0,0E0,0E0,0E0,0E0,0E0,0E0,0E0,0E0,0E0,0E0,0E0,0E0,0E0,0E0,0E0,0E0,0E0,0E0,0E0,0E0,0E0,0E0,0E0,0E0,0E0,0E0,0E0,0E0,0E0,0E0,0E0,0E0,0E0,0E0,0E0,0E0,0E0,0E0,0E0,0E0,0E0,0E0,0E0,0E0,0E0,0E0,0E0,0E0,0E0,0E0,0E0,0E0,0E0,0E0,0E0,0E0],"parents":[2147483647,0,0,1,1,2,2,3,3,4,4,5,5,6,6,7,7,8,8,9,9,10,10,11,11,12,12,13,13,14,14,15,15,16,16,17,17,18,18,19,19,20,20,21,21,22,22,23,23,24,24,25,25,26,26,27,27,28,28,29,29,30,30,32,32,33,33,34,34,35,35,36,36,37,37,38,38,39,39,40,40,41,41,42,42,43,43,44,44,45,45,47,47,48,48,49,49,50,50,51,51,52,52,53,53,54,54,55,55,56,56,57,57,58,58,59,59,61,61,62,62],"right_children":[2,4,6,8,10,12,14,16,18,20,22,24,26,28,30,32,34,36,38,40,42,44,46,48,50,52,54,56,58,60,62,-1,64,66,68,70,72,74,76,78,80,82,84,86,88,90,-1,92,94,96,98,100,102,104,106,108,110,112,114,116,-1,118,120,-1,-1,-1,-1,-1,-1,-1,-1,-1,-1,-1,-1,-1,-1,-1,-1,-1,-1,-1,-1,-1,-1,-1,-1,-1,-1,-1,-1,-1,-1,-1,-1,-1,-1,-1,-1,-1,-1,-1,-1,-1,-1,-1,-1,-1,-1,-1,-1,-1,-1,-1,-1,-1,-1,-1,-1,-1,-1],"split_conditions":[1.8828737E1,1.4597518E1,2.2446915E1,1.1981662E1,7.56389E3,9.91715E3,6.08357E3,7.76915E0,1.146912E4,1.73844E1,1.7541624E1,6E1,6E1,6E1,6.28E2,6.62154E3,5.23283E3,6E1,7.1240836E-1,8.1498057E-1,6E1,6E1,8.4E2,2.0054193E1,2.1741238E1,8.21E2,2.0127062E1,2.4256893E1,4.86275E3,8.3048475E-1,9.91715E3,-8.564216E-1,6.3370075E0,6E1,7.2851574E-1,8.38E2,8.90243E-1,6E1,5.9E2,2.0345E2,3E0,9.2322195E-1,1.82795E3,1.4699051E1,7.88E2,7.34E2,-1.1611853E-1,6.26E2,7.118817E-1,7.9116744E-1,2.56849E3,7.118817E-1,7.46671E-1,7.19E2,5.9E2,8E0,6.24E2,7.118817E-1,8.03E2,6E1,3.645168E-1,6.89954E3,3E0,-7.141759E-1,-2.25263E-1,-3.9474472E-1,-1.7829911E-1,-1.0925849E-1,-2.342913E-1,-2.5753728E-1,-2.9016992E-1,-3.5234656E-2,-8.071124E-2,-1.8096009E-1,4.1179847E-2,2.4527188E-1,-8.901029E-3,2.2075129E-1,-6.0281523E-2,-6.491577E-2,-1.431975E-1,-4.3888096E-2,7.039892E-2,1.6696644E-1,-2.2096427E-2,1.9377752E-1,-1.6096292E-2,2.472118E-1,-3.4874726E-2,1.1768202E-1,2.2327116E-1,1.2822895E-1,2.3683079E-2,2.1625077E-2,1.4570595E-1,2.2072247E-1,1.9273053E-1,3.104352E-1,4.6741638E-1,2.6321346E-1,2.1430421E-1,-2.049944E-1,4.557893E-1,-4.0567532E-1,1.332594E-1,-2.4385415E-1,4.862314E-1,2.6133078E-1,2.4749315E-1,1.954196E-1,3.3310035E-1,3.992735E-1,4.3360636E-1,8.481293E-1,-2.4422456E-2,3.6688313E-1,-2.860794E-1,2.970436E-1,3.1245908E-1,3.930563E-1,4.6281534E-1],"split_indices":[3,3,3,3,0,0,0,3,0,3,3,1,1,1,2,0,0,1,4,4,1,1,2,3,3,2,3,3,0,4,0,0,3,1,4,2,4,1,2,0,5,4,0,3,2,2,0,2,4,4,0,4,4,2,2,5,2,4,2,1,0,0,5,0,0,0,0,0,0,0,0,0,0,0,0,0,0,0,0,0,0,0,0,0,0,0,0,0,0,0,0,0,0,0,0,0,0,0,0,0,0,0,0,0,0,0,0,0,0,0,0,0,0,0,0,0,0,0,0,0,0],"split_type":[0,0,0,0,0,0,0,0,0,0,0,0,0,0,0,0,0,0,0,0,0,0,0,0,0,0,0,0,0,0,0,0,0,0,0,0,0,0,0,0,0,0,0,0,0,0,0,0,0,0,0,0,0,0,0,0,0,0,0,0,0,0,0,0,0,0,0,0,0,0,0,0,0,0,0,0,0,0,0,0,0,0,0,0,0,0,0,0,0,0,0,0,0,0,0,0,0,0,0,0,0,0,0,0,0,0,0,0,0,0,0,0,0,0,0,0,0,0,0,0,0],"sum_hessian":[2.7968E4,2.1634E4,6.334E3,1.813E4,3.504E3,3.72E3,2.614E3,1.5569E4,2.561E3,3.082E3,4.22E2,3.46E3,2.6E2,2.214E3,4E2,1.2226E4,3.343E3,2.391E3,1.7E2,1.758E3,1.324E3,2.8E2,1.42E2,3.108E3,3.52E2,2.38E2,2.2E1,1.993E3,2.21E2,3.2E1,3.68E2,1.0517E4,1.709E3,2.679E3,6.64E2,2.135E3,2.56E2,4E0,1.66E2,5.83E2,1.175E3,1.202E3,1.22E2,2.48E2,3.2E1,1.31E2,1.1E1,1.113E3,1.995E3,3.08E2,4.4E1,2.03E2,3.5E1,5E0,1.7E1,1.171E3,8.22E2,2.05E2,1.6E1,1.2E1,2E1,1.91E2,1.77E2,1.528E3,1.81E2,2.413E3,2.66E2,9.9E1,5.65E2,1.91E3,2.25E2,1.65E2,9.1E1,2E0,2E0,2E0,1.64E2,2.1E1,5.62E2,3.02E2,8.73E2,9.21E2,2.81E2,8.4E1,3.8E1,1.6E1,2.32E2,2.5E1,7E0,7.9E1,5.2E1,6.8E1,1.045E3,2.02E2,1.793E3,1.12E2,1.96E2,3.4E1,1E1,1.6E1,1.87E2,5E0,3E1,4E0,1E0,1E0,1.6E1,9.81E2,1.9E2,3.2E1,7.9E2,1E1,1.95E2,1.4E1,2E0,1E1,2E0,5.7E1,1.34E2,4.6E1,1.31E2],"tree_param":{"num_deleted":"0","num_feature":"13","num_nodes":"121","size_leaf_vector":"1"}},{"base_weights":[-3.1094763E-2,-8.112043E-2,1.3222034E-1,-9.392698E-2,-3.5284128E-2,7.376433E-2,2.227941E-1,-9.898168E-2,-8.172787E-2,-5.3367373E-2,-5.056842E-3,5.789308E-2,1.3840301E-1,1.990324E-1,3.1718144E-1,-9.9522315E-2,-9.411767E-2,-8.820069E-2,-5.6975633E-2,-5.739265E-2,-1.9032283E-2,-2.5880685E-2,7.324322E-2,4.964051E-2,1.3859057E-1,9.981683E-2,2.2418031E-1,7.403844E-2,2.0554988E-1,2.7491164E-1,3.665254E-1,-9.998843E-3,-9.751101E-2,-9.717928E-2,-6.2385343E-2,-9.029322E-2,-6.936711E-2,-6.289447E-2,-5.6075E-3,-5.2401986E-2,-7.449327E-2,5.4166645E-2,-4.1004207E-2,-3.3306606E-2,3.767121E-2,8.7048166E-2,-4.615387E-2,1.6160198E-2,6.064602E-2,3.333333E-1,1.2338127E-1,1.15856215E-1,-4.0540774E-3,1.5555553E-1,3.3586955E-1,2.210526E-1,4.069765E-2,2.1514975E-1,1.318777E-1,2.9781657E-1,1.7454544E-1,4.0050504E-1,1.8461536E-1,-9.993232E-3,-9.109951E-3,-7.7173933E-3,-9.890876E-3,-7.878791E-3,9.090907E-3,-9.186919E-3,-7.3355287E-3,-8.627454E-3,-5.843624E-3,-2.518521E-3,-6.9299387E-3,1.4117645E-2,-3.2967057E-3,-5.493609E-3,5.8139296E-4,-5.539218E-3,-8.431879E-3,-9.411767E-3,9.821426E-3,-5.603867E-3,5.4545435E-3,-3.944502E-3,-7.142881E-4,4.25E-2,2.6573404E-3,1.642857E-2,7.5601353E-3,-7.0270295E-3,2.6666665E-2,-4.938274E-3,2.4378859E-3,1.3777777E-2,5.5571683E-3,2.1538459E-2,4.6666663E-2,1.8673468E-2,8.839777E-3,7.121949E-3,1.4944236E-2,3.5555535E-3,-6.333336E-3,8.07692E-3,2.3026314E-2,-8.333336E-3,3.609195E-2,3.0666664E-2,-8.000002E-3,1.5624997E-2,1.4084483E-3,2.0834392E-2,2.7784428E-2,2.1684209E-2,7.1111093E-3,3.0488888E-2,-8.000002E-3,1.2199998E-2,5.8333334E-2,3.0985912E-2,4.476562E-2,1.0333331E-2,4.0999997E-2],"categories":[],"categories_nodes":[],"categories_segments":[],"categories_sizes":[],"default_left":[0,0,0,0,0,0,0,0,0,0,0,0,0,0,0,0,0,0,0,0,0,0,0,0,0,0,0,0,0,0,0,0,0,0,0,0,0,0,0,0,0,0,0,0,0,0,0,0,0,0,0,0,0,0,0,0,0,0,0,0,0,0,0,0,0,0,0,0,0,0,0,0,0,0,0,0,0,0,0,0,0,0,0,0,0,0,0,0,0,0,0,0,0,0,0,0,0,0,0,0,0,0,0,0,0,0,0,0,0,0,0,0,0,0,0,0,0,0,0,0,0,0,0,0,0],"id":13,"left_children":[1,3,5,7,9,11,13,15,17,19,21,23,25,27,29,31,33,35,37,39,41,43,45,47,49,51,53,55,57,59,61,-1,63,65,67,69,71,73,75,77,79,81,83,85,87,89,91,93,95,97,99,101,103,105,107,109,111,113,115,117,119,121,123,-1,-1,-1,-1,-1,-1,-1,-1,-1,-1,-1,-1,-1,-1,-1,-1,-1,-1,-1,-1,-1,-1,-1,-1,-1,-1,-1,-1,-1,-1,-1,-1,-1,-1,-1,-1,-1,-1,-1,-1,-1,-1,-1,-1,-1,-1,-1,-1,-1,-1,-1,-1,-1,-1,-1,-1,-1,-1,-1,-1,-1,-1],"loss_changes":[2.2956992E2,1.2623154E1,3.4869545E1,1.028595E0,2.5682378E0,4.1017284E0,5.7322845E0,2.1881104E-2,7.8500366E-1,4.0524006E-1,2.8715904E0,2.1361856E0,2.5890703E0,1.6686554E0,9.7966003E-1,2.593994E-4,1.11198425E-1,1.477089E-1,3.1128836E-1,2.2063446E-1,5.0080067E-1,6.577109E-1,6.1387753E-1,1.075315E0,8.4151936E-1,9.1012E-1,1.8179283E0,5.0076675E-1,1.3606491E0,5.986023E-1,1.3848305E0,0E0,2.2706985E-2,3.0391693E-2,2.8123438E-1,8.703613E-2,6.7959666E-2,2.2021556E-1,4.3436018E-1,3.0127E-1,1.0643482E-1,4.7951674E-1,3.4638917E-1,1.9983053E-1,6.162873E-1,2.8110886E-1,3.1295913E-1,3.912047E-1,8.5262394E-1,2.2974348E-1,5.996313E-1,6.984663E-1,1.76006E-1,8.362291E-1,9.96171E-1,5.1424557E-1,2.6226765E-1,6.8284607E-1,1.1669064E0,6.362858E-1,1.1102303E0,7.075558E-1,6.721026E-1,0E0,0E0,0E0,0E0,0E0,0E0,0E0,0E0,0E0,0E0,0E0,0E0,0E0,0E0,0E0,0E0,0E0,0E0,0E0,0E0,0E0,0E0,0E0,0E0,0E0,0E0,0E0,0E0,0E0,0E0,0E0,0E0,0E0,0E0,0E0,0E0,0E0,0E0,0E0,0E0,0E0,0E0,0E0,0E0,0E0,0E0,0E0,0E0,0E0,0E0,0E0,0E0,0E0,0E0,0E0,0E0,0E0,0E0,0E0,0E0,0E0,0E0],"parents":[2147483647,0,0,1,1,2,2,3,3,4,4,5,5,6,6,7,7,8,8,9,9,10,10,11,11,12,12,13,13,14,14,15,15,16,16,17,17,18,18,19,19,20,20,21,21,22,22,23,23,24,24,25,25,26,26,27,27,28,28,29,29,30,30,32,32,33,33,34,34,35,35,36,36,37,37,38,38,39,39,40,40,41,41,42,42,43,43,44,44,45,45,46,46,47,47,48,48,49,49,50,50,51,51,52,52,53,53,54,54,55,55,56,56,57,57,58,58,59,59,60,60,61,61,62,62],"right_children":[2,4,6,8,10,12,14,16,18,20,22,24,26,28,30,32,34,36,38,40,42,44,46,48,50,52,54,56,58,60,62,-1,64,66,68,70,72,74,76,78,80,82,84,86,88,90,92,94,96,98,100,102,104,106,108,110,112,114,116,118,120,122,124,-1,-1,-1,-1,-1,-1,-1,-1,-1,-1,-1,-1,-1,-1,-1,-1,-1,-1,-1,-1,-1,-1,-1,-1,-1,-1,-1,-1,-1,-1,-1,-1,-1,-1,-1,-1,-1,-1,-1,-1,-1,-1,-1,-1,-1,-1,-1,-1,-1,-1,-1,-1,-1,-1,-1,-1,-1,-1,-1,-1,-1,-1],"split_conditions":[1.8392443E1,1.2909775E1,2.2446915E1,7.399052E0,1.6922E1,1E0,1E0,6.0672097E0,1E0,6E1,1E0,6E1,4.5E1,7.0911354E-1,2.403919E1,1E0,6E1,6E1,6E1,4.5E1,7.5811976E-1,6E1,1E0,1.9442093E1,4E0,9.484992E-1,2.0741863E1,2E0,9.6080333E-1,9.2974555E-1,2.4877598E1,-9.0352803E-1,3.238244E0,6.138736E0,4.5E1,1.2308083E1,8.0816936E-1,7.313296E-1,7E0,9.900065E-1,1.7E1,3E0,1E0,8E0,3E0,7.6077276E-1,9.2322195E-1,7.0911354E-1,4E0,2.1043465E1,7.878996E-1,7.954497E-1,9.640859E-1,5E0,4E0,4.3E1,3E1,6E1,1E0,4.9E1,1E0,8.141698E-1,3.9E1,-8.917815E-1,-4.1808173E-1,-4.1629753E-1,-4.6235648E-1,-2.1409738E-1,7.450808E-2,-3.613286E-1,-2.6625118E-1,-1.7610808E-1,-1.9666809E-1,-1.0313467E-1,-2.1208768E-1,1.2727249E-1,-5.799023E-2,-1.4875673E-1,1.0849173E-2,-1.1234977E-1,-1.8881468E-1,-6.443737E-2,1.512284E-1,-7.37942E-2,9.101893E-2,-6.466968E-2,-2.235987E-2,5.632431E-1,4.117165E-2,1.957528E-1,1.2438615E-1,-4.0606953E-2,7.030487E-3,-5.9638657E-2,3.3129647E-2,1.6209191E-1,1.04824506E-1,6.496782E-1,7.201252E-1,1.9499221E-1,1.5892315E-1,1.2541525E-1,1.9871514E-1,1.0803646E-1,-9.494019E-2,7.457665E-2,3.242738E-1,-1.02141194E-1,3.910723E-1,2.2585486E-1,-1.23633765E-1,3.6716375E-1,3.0289365E-2,2.6153123E-1,4.1573545E-1,2.6185057E-1,2.611221E-1,3.0267668E-1,-1.7513275E-3,2.3936303E-1,2.6716042E-1,3.305445E-1,3.58645E-1,1.5303853E-1,3.933761E-1],"split_indices":[3,3,3,3,3,10,10,3,10,1,10,1,1,4,3,10,1,1,1,1,4,1,8,3,9,4,3,5,4,4,3,0,3,3,9,3,4,4,9,4,9,5,8,5,9,4,4,4,9,3,4,4,4,5,9,9,1,1,11,9,8,4,9,0,0,0,0,0,0,0,0,0,0,0,0,0,0,0,0,0,0,0,0,0,0,0,0,0,0,0,0,0,0,0,0,0,0,0,0,0,0,0,0,0,0,0,0,0,0,0,0,0,0,0,0,0,0,0,0,0,0,0,0,0,0],"split_type":[0,0,0,0,0,0,0,0,0,0,0,0,0,0,0,0,0,0,0,0,0,0,0,0,0,0,0,0,0,0,0,0,0,0,0,0,0,0,0,0,0,0,0,0,0,0,0,0,0,0,0,0,0,0,0,0,0,0,0,0,0,0,0,0,0,0,0,0,0,0,0,0,0,0,0,0,0,0,0,0,0,0,0,0,0,0,0,0,0,0,0,0,0,0,0,0,0,0,0,0,0,0,0,0,0,0,0,0,0,0,0,0,0,0,0,0,0,0,0,0,0,0,0,0,0],"sum_hessian":[2.8097E4,2.1509E4,6.588E3,1.6811E4,4.698E3,4.005E3,2.583E3,1.1881E4,4.93E3,2.939E3,1.759E3,3.217E3,7.88E2,2.066E3,5.17E2,1.0675E4,1.206E3,3.906E3,1.024E3,2.63E3,3.09E2,1.39E3,3.69E2,2.92E3,2.97E2,5.45E2,2.43E2,1.03E2,1.963E3,2.82E2,2.35E2,8.627E3,2.048E3,1.098E3,1.08E2,3.512E3,3.94E2,9.18E2,1.06E2,2.039E3,5.91E2,7.1E1,2.38E2,1.245E3,1.45E2,3.31E2,3.8E1,7.23E2,2.197E3,2E1,2.77E2,4.72E2,7.3E1,1.52E2,9.1E1,1.8E1,8.5E1,1.735E3,2.28E2,2.28E2,5.4E1,1.97E2,3.8E1,1.476E3,5.72E2,9.1E1,1.007E3,9.8E1,1E1,3.209E3,3.03E2,1.52E2,2.42E2,1.34E2,7.84E2,1.6E1,9E1,1.954E3,8.5E1,2.03E2,3.88E2,1.6E1,5.5E1,2.06E2,3.2E1,1.008E3,2.37E2,3E0,1.42E2,4.1E1,2.9E2,3.6E1,2E0,8E1,6.43E2,1.34E2,2.063E3,1.2E1,8E0,9.7E1,1.8E2,2.04E2,2.68E2,4.4E1,2.9E1,7.7E1,7.5E1,5E0,8.6E1,1.4E1,4E0,1.5E1,7E1,1.569E3,1.66E2,9.4E1,1.34E2,2.24E2,4E0,4.9E1,5E0,7E1,1.27E2,2.9E1,9E0],"tree_param":{"num_deleted":"0","num_feature":"13","num_nodes":"125","size_leaf_vector":"1"}},{"base_weights":[-3.3567756E-2,-8.11028E-2,1.0350705E-1,-9.275547E-2,-3.3423074E-2,5.824628E-2,2.1079437E-1,-9.8671615E-2,-8.016825E-2,-4.0601727E-2,4.7891542E-2,3.6713675E-2,1.01971306E-1,1.9479854E-1,3.8388887E-1,-9.975984E-3,-9.500955E-2,-8.6278565E-2,-5.2523196E-2,-5.4121457E-2,-1.4094512E-2,3.38762E-2,2.1153843E-1,2.021006E-2,7.507329E-2,8.957375E-2,2.273333E-1,1.6885664E-1,2.3303795E-1,4.2808217E-1,1.8857141E-1,-9.571927E-2,-3.636366E-2,-8.9317456E-2,-5.886366E-2,-5.932795E-2,1.8348388E-3,-4.6148278E-2,-6.393887E-2,-2.1034203E-2,4.6923053E-2,-1.7213138E-2,6.7204274E-2,3.0499998E-1,-8.57143E-3,1.664497E-2,1.3108106E-1,6.444681E-2,1.8064514E-1,6.973212E-2,1.4408864E-1,1.935714E-1,6.363636E-1,2.0531493E-1,1.4075185E-1,1.7814812E-1,2.6103646E-1,3.9708027E-1,8.1E-2,2.7916664E-1,-8.333355E-3,-9.734554E-3,-8.27703E-3,4.25E-2,-9.666669E-3,-9.165006E-3,-8.173079E-3,-4.0830476E-3,-9.276318E-3,1.7499998E-2,-6.034886E-3,-1.8181842E-3,1.8181816E-2,-9.098363E-3,-4.175301E-3,-7.990077E-3,-5.4788757E-3,-2.948982E-3,3.024689E-3,2.4793365E-3,3.0999998E-2,-4.848487E-3,1.1249998E-2,8.6227525E-3,-9.5000025E-3,3.749998E-3,4.4615384E-2,6.7443046E-4,4.047265E-3,-2.5000023E-3,2.2127656E-2,5.603749E-3,1.5443036E-2,2.438356E-2,-4.7619073E-3,2.1644998E-3,8.213481E-3,2.485507E-2,8.996281E-3,5.6410236E-3,2.4411762E-2,7.1E-2,-5.0000013E-3,1.934599E-2,3.6E-2,1.0479796E-2,1.9296294E-2,1.57551E-2,3.653846E-2,4.1132074E-2,2.4349678E-2,2.8199999E-2,4.579545E-2,7.499998E-3,4.4615384E-2,-9.090912E-3,4.4999998E-2],"categories":[],"categories_nodes":[],"categories_segments":[],"categories_sizes":[],"default_left":[0,0,0,0,0,0,0,0,0,0,0,0,0,0,0,0,0,0,0,0,0,0,0,0,0,0,0,0,0,0,0,0,0,0,0,0,0,0,0,0,0,0,0,0,0,0,0,0,0,0,0,0,0,0,0,0,0,0,0,0,0,0,0,0,0,0,0,0,0,0,0,0,0,0,0,0,0,0,0,0,0,0,0,0,0,0,0,0,0,0,0,0,0,0,0,0,0,0,0,0,0,0,0,0,0,0,0,0,0,0,0,0,0,0,0,0,0],"id":14,"left_children":[1,3,5,7,9,11,13,15,17,19,21,23,25,27,29,-1,31,33,35,37,39,41,43,45,47,49,51,53,55,57,59,61,63,65,67,69,71,73,75,77,79,81,83,85,-1,87,89,91,93,95,97,99,101,103,105,107,109,111,-1,113,115,-1,-1,-1,-1,-1,-1,-1,-1,-1,-1,-1,-1,-1,-1,-1,-1,-1,-1,-1,-1,-1,-1,-1,-1,-1,-1,-1,-1,-1,-1,-1,-1,-1,-1,-1,-1,-1,-1,-1,-1,-1,-1,-1,-1,-1,-1,-1,-1,-1,-1,-1,-1,-1,-1,-1,-1],"loss_changes":[1.8255011E2,1.1554428E1,3.5018227E1,1.2368774E0,2.3876476E0,4.774439E0,5.8504333E0,3.5827637E-2,8.99189E-1,1.3452759E0,7.542984E-1,2.152195E0,2.581339E0,1.9059601E0,1.4729862E0,0E0,1.0577774E-1,3.5964584E-1,3.5927486E-1,1.9172192E-1,5.387598E-1,5.2388865E-1,7.4846697E-1,9.385492E-1,1.1360178E0,1.6394901E0,1.9482632E0,1.1719933E0,1.1675949E0,1.4070301E0,6.266786E-1,4.6546936E-2,9.591969E-1,6.2252045E-2,2.6519167E-1,2.1701479E-1,3.959967E-1,2.6736045E-1,1.5803337E-1,4.9564463E-1,7.4914944E-1,5.0032973E-1,5.821229E-1,7.384423E-1,0E0,5.43971E-1,1.0472901E0,6.9583416E-1,1.3530538E0,6.6620064E-1,2.273203E0,9.568467E-1,5.914545E-1,8.619232E-1,1.2281113E0,9.8369694E-1,1.2731667E0,8.3060074E-1,0E0,7.847756E-1,4.9507576E-1,0E0,0E0,0E0,0E0,0E0,0E0,0E0,0E0,0E0,0E0,0E0,0E0,0E0,0E0,0E0,0E0,0E0,0E0,0E0,0E0,0E0,0E0,0E0,0E0,0E0,0E0,0E0,0E0,0E0,0E0,0E0,0E0,0E0,0E0,0E0,0E0,0E0,0E0,0E0,0E0,0E0,0E0,0E0,0E0,0E0,0E0,0E0,0E0,0E0,0E0,0E0,0E0,0E0,0E0,0E0,0E0],"parents":[2147483647,0,0,1,1,2,2,3,3,4,4,5,5,6,6,7,7,8,8,9,9,10,10,11,11,12,12,13,13,14,14,16,16,17,17,18,18,19,19,20,20,21,21,22,22,23,23,24,24,25,25,26,26,27,27,28,28,29,29,30,30,31,31,32,32,33,33,34,34,35,35,36,36,37,37,38,38,39,39,40,40,41,41,42,42,43,43,45,45,46,46,47,47,48,48,49,49,50,50,51,51,52,52,53,53,54,54,55,55,56,56,57,57,59,59,60,60],"right_children":[2,4,6,8,10,12,14,16,18,20,22,24,26,28,30,-1,32,34,36,38,40,42,44,46,48,50,52,54,56,58,60,62,64,66,68,70,72,74,76,78,80,82,84,86,-1,88,90,92,94,96,98,100,102,104,106,108,110,112,-1,114,116,-1,-1,-1,-1,-1,-1,-1,-1,-1,-1,-1,-1,-1,-1,-1,-1,-1,-1,-1,-1,-1,-1,-1,-1,-1,-1,-1,-1,-1,-1,-1,-1,-1,-1,-1,-1,-1,-1,-1,-1,-1,-1,-1,-1,-1,-1,-1,-1,-1,-1,-1,-1,-1,-1,-1,-1],"split_conditions":[1.784672E1,1.2909775E1,2.3343695E1,6.7407007E0,9.6146E3,2.1043465E1,9.05659E3,4.308747E0,5.51091E3,1.6487276E1,1.7541624E1,4.5E1,6E1,2.430831E1,4.3E1,-9.050317E-1,2.747572E4,6E1,6E1,7.47E2,6E1,2.1E1,1E0,1.504391E4,9.05659E3,3.91408E3,8.59684E3,7.13E2,7.9696E-1,3.9E1,7.89E2,4.5E1,6.23E2,1.1668532E1,1.96131E3,6.05E2,2.403299E4,6.17E2,7.89E2,4.94902E3,8.11E2,1.6980774E1,1.7105307E1,1.10283E4,-1.0470333E-1,9.261893E-1,7.04E2,4.6E1,2.160168E4,7.3774004E-1,6.92E2,1.6E1,1.989546E4,6.46314E3,2.0832E3,6E1,3.4265E2,2.3817202E1,3.1550273E-1,7.14E2,2.160168E4,-4.7366342E-1,-4.2848593E-1,7.859802E-2,-1.9724905E-1,-3.27528E-1,-2.8008744E-1,-1.0918945E-1,-2.4079886E-1,3.8966753E-2,-1.8133573E-1,-4.58525E-2,1.6163115E-1,-1.853684E-1,-9.4407804E-2,-1.6582303E-1,-1.355811E-1,-5.6228694E-2,3.4785617E-2,2.0876698E-2,4.5159182E-1,-3.1444058E-2,2.6961026E-1,1.0587927E-1,-1.6036282E-1,1.4646531E-3,4.2242098E-1,1.4641486E-2,8.7506585E-2,2.345716E-2,1.8479633E-1,7.268192E-2,1.7661719E-1,2.346032E-1,-1.1346346E-2,3.5876952E-2,1.7135173E-1,2.002012E-1,1.446673E-1,2.2829227E-1,3.5515693E-1,4.3140087E-1,-3.584509E-1,2.1970184E-1,3.5252985E-1,1.2121972E-1,2.5910774E-1,1.7185722E-1,